tree
version=v4
num_class=1
num_tree_per_iteration=1
label_index=0
max_feature_idx=8
objective=regression
feature_names=momentum_5 momentum_10 momentum_20 volatility_10 volatility_20 volume_ratio atr_ratio ma_ratio rsi14
feature_infos=[-0.41082136382652346:1.48854041013269] [-0.46901428988043159:2.3641808346213291] [-0.56081967213114758:4.2564102564102564] [0.001923531505185909:0.1386270268055218] [0.0026071955431309418:0.12584267499988602] [0.11359522172905784:11.129063848829022] [0.0071301247771836176:0.19526756498587483] [0.63549362204989102:1.8211185599624633] [0:99.9999307616701]
tree_sizes=5938 5943 5968 5961 5972 5963 5971 5993 5984 5992 5979 6000 5940 6000 5934 5993 5938 5987 5994 5968 6001 5988 6001 5987 5967 5979 5990 5983 5966 6009 5985 5996 5986 5977 5979 5994 5996 6011 5969 5986 5978 5988 5991 6006 5988 6040 6000 5997 5994 6006 6005 6009 6010 6006 5984 5943 6017 5937 5985 5967 5932 5986 5969 5981 5964 6014 5946 6008 6013 6014 5945 5999 5951 5924 6001 6002 5955 5992 5982 6043 6027 6006 6029 6015 6002 6012 6036 6029 5980 5994 6048 6052 5989 6068 6055 6029 6031 6088 6018 5927 6058 6047 5975 6077 6079 6004 6023 5928 5935 5990 6033 6059 5954 6037 6062 5936 5997 6041 5950 6084 5996 5957 6040 6036 5956 6035 6069 6008 6072 5970 6075 6009 5943 6029 6046 5980 6017 6030 6022 6059 5949 6034 5920 6045 6036 6027 6052 5982 6019 5945 6005 5946 6053 6038 6017 6021 6042 5984 5987 6115 5971 6047 5968 6036 6112 6024 5981 6040 6023 6083 6015 5995 6009 6005 6087 5936 6040 6037 5980 5927 6007 5967 5920 5985 6057 6001 5953 6038 5973 6084 6042 6018 6021 6065 6013 6049 6003 5930 6011 6005

Tree=0
num_leaves=63
num_cat=0
split_feature=1 5 0 6 7 3 6 0 0 6 7 0 0 5 7 7 4 3 5 0 7 0 6 4 0 3 6 5 6 6 6 1 3 1 1 3 5 0 3 2 2 6 7 6 8 2 5 5 4 6 4 7 4 6 2 3 0 7 7 2 6 4
split_gain=0.147106 0.148698 0.147049 0.595795 0.20744 0.110271 0.205404 0.298006 0.100801 0.128393 0.0854648 0.128553 0.0833155 0.212712 0.143216 0.0648264 0.0745728 0.0686657 0.0665456 0.0555985 0.0544726 0.0511158 0.061927 0.0566984 0.0619683 0.0424947 0.0725606 0.0409597 0.0690544 0.0399673 0.0316135 0.030606 0.0302199 0.0298368 0.028586 0.027302 0.0296889 0.0345433 0.0261551 0.0333639 0.0284681 0.0218062 0.0214357 0.0206273 0.0178656 0.0175452 0.016771 0.0162311 0.0152676 0.0152646 0.0148288 0.0147673 0.0139135 0.0126013 0.0121239 0.0121116 0.0120983 0.01626 0.0117484 0.0405593 0.0115846 0.0111519
threshold=0.49788432883687411 2.5609170129762311 0.37034381242513087 0.045528287603444725 1.1063604284980022 0.036376167188329825 0.037290262469676892 0.19936070330299041 0.10262694512694516 0.037140423114628791 1.1712841456709715 0.19936070330299041 0.13319812544431822 1.8779907519711467 1.0427005726194642 0.86072281664835748 0.031523059707850583 0.067144687493836078 1.4098169284847637 0.28541921224907701 1.077469408259822 0.057279211498450062 0.059223317146068877 0.077221405600681262 0.21854652829407309 0.078823937013957693 0.05175879326983103 3.9016908765343286 0.054732479544538727 0.052597542002866211 0.053641095477008044 0.31352813732775814 0.073403936579598747 0.18239106293913857 -0.061995567427578051 0.019325498819968322 1.1465493008056729 -0.047839357099548833 0.090511306773628938 0.37320149734770774 0.24122774654159232 0.06429883035021218 1.1102831877830643 0.090955466493947007 82.502894388816941 -0.041381063408305933 1.5637903320520226 1.752701450174067 0.07325392210563321 0.044116369615462184 0.042493861484360552 1.0417462238735664 0.050182602811852432 0.054080123012280885 0.49999999999999994 0.081689137874149761 0.091798292362118908 1.0164285892373808 1.033215130008309 0.081442772477418171 0.057866653839370806 0.028132951268526517
decision_type=2 2 2 2 2 2 2 2 2 2 2 2 2 2 2 2 2 2 2 2 2 2 2 2 2 2 2 2 2 2 2 2 2 2 2 2 2 2 2 2 2 2 2 2 2 2 2 2 2 2 2 2 2 2 2 2 2 2 2 2 2 2
left_child=2 21 5 4 -4 8 7 56 33 12 15 38 58 14 -14 16 -8 19 -18 -17 -9 -2 -23 44 -25 26 49 28 -5 -27 42 -32 50 35 -19 -1 37 -37 40 -40 -12 -31 52 -34 48 -38 -30 55 54 -3 -13 -15 -11 -35 -24 -46 -7 -58 59 -10 -55 -44
right_child=1 25 3 27 -6 6 10 20 9 30 11 32 13 51 -16 17 18 34 -20 -21 -22 22 23 24 -26 29 -28 -29 46 41 31 -33 43 53 -36 36 45 -39 39 -41 -42 -43 61 -45 47 -47 -48 -49 -50 -51 -52 -53 -54 60 -56 -57 57 -59 -60 -61 -62 -63
leaf_value=1.9151127904169847e-05 0.00070563112068095391 -0.0010616514400870231 0.0032398143062813711 0.0009176508590462959 0.00090658948391343056 9.3201247210759151e-05 -0.00096136026309858857 0.0023927902072826083 0.00022469710399097896 0.00014177034219825855 0.00027541992168805232 0.0002920501221217453 0.0023755392729992619 0.00058817006324508327 0.00077224548838431104 6.5635551174971716e-05 0.00014642580319646934 4.966574310349434e-05 0.00045532019373704068 0.0004787477428469405 0.0010972805129843071 0.00094578397001738256 -0.0005142094611235191 -0.00047177374746266954 0.00078875472254479441 0.00018950355252150963 -0.0002804949323351229 -0.00087740916813746207 0.00013707449861818509 -0.0010604480267213928 -1.7581374913584695e-05 -0.00068783218021098848 -0.00069932930717467789 -4.5281017592463214e-05 0.00019824309296637607 6.5772236827779169e-05 4.2703381092530092e-05 2.4489827414334312e-05 -5.4878455589931055e-05 0.00040810793753724174 -7.2525939763557813e-05 -0.00022352485817258663 0.00020509025745906075 -0.0001508964752504912 -0.0007906479340754033 8.8656682897290663e-05 -0.00042988523076116839 0.00013583537524233157 -0.00021139871966116235 -0.0016905545240879802 -0.00028770769428096193 3.0774291938175959e-06 0.00063715490740603596 -0.00045763740447745294 -0.0010788119925951539 -0.00010294963047066653 0.0007988587377606199 0.0001861321838466643 0.00014697113760116925 0.00094986276504177233 -0.00012626240151534011 -0.00013691881362494886
leaf_weight=27438 34 26 35 27 27 87 21 37 164 1622 110 20 39 22 52 24844 922 655 400 131 20 20 32 26 39 28 33 24 32 33 452 29 142 370 2476 10957 5764 31177 108 147 649 20 49 34 21 7849 60 34 27 38 150 80 23 67 29 20 30 41 208 38 114 172
leaf_count=27438 34 26 35 27 27 87 21 37 164 1622 110 20 39 22 52 24844 922 655 400 131 20 20 32 26 39 28 33 24 32 33 452 29 142 370 2476 10957 5764 31177 108 147 649 20 49 34 21 7849 60 34 27 38 150 80 23 67 29 20 30 41 208 38 114 172
internal_value=4.96796e-05 -0.000307281 5.10721e-05 0.000586261 0.00222373 5.01401e-05 8.2498e-05 0.000698533 3.85595e-05 0.000153463 7.8199e-05 -7.68078e-05 0.000413771 0.000756418 0.00145937 8.53574e-05 0.000221105 7.88709e-05 0.000239889 6.78024e-05 0.00193823 -2.15949e-05 -0.000121295 -0.000214899 0.000284543 -0.000759885 -0.00104227 -0.000123692 2.8318e-05 -0.000421718 8.65835e-05 -5.79915e-05 -0.000409683 3.45115e-05 0.000167161 3.54831e-05 4.35215e-05 3.52254e-05 3.6777e-05 0.00021202 -2.2099e-05 -0.000744628 0.000123851 -0.000593382 -0.000414063 6.91992e-05 -0.000232682 -0.000187256 -0.000607364 -0.00143506 -0.000219501 0.000129274 0.000148697 -0.000112177 -0.000782627 -0.000455185 0.000251302 0.000445031 0.000252476 0.000361114 -0.000248926 -6.10887e-05
internal_weight=118375 460 117915 205 62 117710 31024 215 86686 2950 30809 1360 603 193 91 29449 1343 28106 1322 24975 57 282 248 228 65 178 97 143 119 81 2347 481 346 83736 3131 83185 55747 42134 1014 255 759 53 1866 176 163 13613 92 75 88 64 170 102 1645 551 61 41 158 71 410 202 181 221
internal_count=118375 460 117915 205 62 117710 31024 215 86686 2950 30809 1360 603 193 91 29449 1343 28106 1322 24975 57 282 248 228 65 178 97 143 119 81 2347 481 346 83736 3131 83185 55747 42134 1014 255 759 53 1866 176 163 13613 92 75 88 64 170 102 1645 551 61 41 158 71 410 202 181 221
is_linear=0
shrinkage=1


Tree=1
num_leaves=63
num_cat=0
split_feature=1 5 0 6 7 3 6 0 0 6 0 5 7 7 0 7 4 3 5 0 7 0 6 4 0 3 6 5 6 6 6 1 3 1 1 3 5 0 3 2 2 7 6 6 8 5 5 5 4 6 4 1 6 2 3 0 7 6 7 2 4 7
split_gain=0.14128 0.14281 0.141226 0.572202 0.199226 0.105905 0.19727 0.286205 0.0968091 0.123329 0.0862672 0.226886 0.148731 0.0820803 0.123462 0.0622593 0.0716198 0.0659465 0.0639104 0.0533968 0.0523155 0.0490916 0.0594747 0.0544531 0.0595144 0.0408119 0.0696872 0.0393377 0.0663199 0.0383846 0.0338403 0.029394 0.0290232 0.0286552 0.027454 0.0262208 0.0285132 0.0331753 0.0251193 0.0320427 0.0273408 0.0223271 0.0209426 0.0198104 0.0171581 0.0170512 0.0161068 0.0155883 0.014663 0.0146601 0.0142416 0.0124392 0.0121023 0.0116438 0.011632 0.0116192 0.0156161 0.0111258 0.010991 0.0106278 0.0101834 0.0101808
threshold=0.49788432883687411 2.5609170129762311 0.37034381242513087 0.045528287603444725 1.1063604284980022 0.036376167188329825 0.037290262469676892 0.19936070330299041 0.10262694512694516 0.035818181873135145 0.13319812544431822 1.9149340461806112 1.0671516524911466 1.1712841456709715 0.19936070330299041 0.86072281664835748 0.031523059707850583 0.067144687493836078 1.4098169284847637 0.28541921224907701 1.077469408259822 0.057279211498450062 0.059223317146068877 0.077221405600681262 0.21854652829407309 0.078823937013957693 0.05175879326983103 3.9016908765343286 0.054732479544538727 0.052597542002866211 0.053641095477008044 0.31352813732775814 0.073403936579598747 0.18239106293913857 -0.061995567427578051 0.019325498819968322 1.1465493008056729 -0.047839357099548833 0.090511306773628938 0.37320149734770774 0.24122774654159232 1.1102831877830643 0.06429883035021218 0.090955466493947007 82.502894388816941 3.9016908765343286 1.5637903320520226 1.752701450174067 0.07325392210563321 0.044116369615462184 0.042493861484360552 0.25188352315513124 0.054080123012280885 0.49999999999999994 0.081689137874149761 0.091798292362118908 1.0164285892373808 0.057866653839370806 1.0436512333850854 0.13497990682674246 0.028132951268526517 1.019124136880786
decision_type=2 2 2 2 2 2 2 2 2 2 2 2 2 2 2 2 2 2 2 2 2 2 2 2 2 2 2 2 2 2 2 2 2 2 2 2 2 2 2 2 2 2 2 2 2 2 2 2 2 2 2 2 2 2 2 2 2 2 2 2 2 2
left_child=2 21 5 4 -4 8 7 55 33 10 61 12 -12 15 38 16 -8 19 -18 -17 -9 -2 -23 44 -25 26 49 28 -5 -27 41 -32 50 35 -19 -1 37 -37 40 -40 -15 51 -31 -34 48 -38 -30 54 53 -3 -16 -11 -35 -24 -46 -7 -57 59 -13 -54 -43 -10
right_child=1 25 3 27 -6 6 13 20 9 30 11 58 -14 14 32 17 18 34 -20 -21 -22 22 23 24 -26 29 -28 -29 46 42 31 -33 43 52 -36 36 45 -39 39 -41 -42 60 -44 -45 47 -47 -48 -49 -50 -51 -52 -53 57 -55 -56 56 -58 -59 -60 -61 -62 -63
leaf_value=-2.9917881242502343e-05 0.00064283253652427127 -0.001089104438522974 0.0031263321042060855 0.00085061181159862482 0.00083977176635353663 4.2651237484372766e-05 -0.00099081901478625467 0.0022962484835974267 0.00035686724782427854 9.7599947252816386e-05 0.0021659350811611289 0.00043183263435605027 0.00026253224660952886 0.00022122555699157105 0.00023752315563615412 1.5636859943629117e-05 9.481130187744261e-05 -1.3548833716177305e-08 0.00039752781596798746 0.00042048682628434067 0.0010266489567493408 0.00087818236928433188 -0.00055261125384276967 -0.00051102425240410056 0.00072429366147097867 0.00013702752525984711 -0.00032357102044801593 -0.00090854694445927932 8.5647013474954295e-05 -0.0010879250452148193 -6.5915731972212736e-05 -0.00072276151578488023 -0.00073402871219539669 -9.3061375082470477e-05 0.00014559225312442447 1.5770805864340953e-05 2.0567835434522775e-05 -2.4685955229807558e-05 -0.000102466865177525 0.00035125979608032523 -0.00011976139873293306 0.00014417672292911448 -0.0002677403585985303 -0.00019656452254446989 -0.00082352094529640116 -0.0003291429166191457 -0.00046997352349959935 8.4432667970438219e-05 -0.00025585672964721369 -0.0017054294490892637 -0.00033063952895269423 0.00047842578576611622 -0.00022572384467498669 -0.001105921717424845 -0.0001495766158695915 0.00073419555843186877 0.0001337235662859024 -0.00017242312871467062 -0.00010096030078275979 -0.00073091648266805967 -0.00017987974959754013 0.00012241920029061861
leaf_weight=27438 34 26 35 27 27 87 21 37 117 1736 52 21 24 110 20 24844 922 655 400 131 20 20 32 26 39 28 33 24 32 33 452 29 142 370 2476 10957 13557 31177 108 147 649 50 20 34 21 56 60 34 27 38 150 35 31 29 20 30 41 114 59 36 173 202
leaf_count=27438 34 26 35 27 27 87 21 37 117 1736 52 21 24 110 20 24844 922 655 400 131 20 20 32 26 39 28 33 24 32 33 452 29 142 370 2476 10957 13557 31177 108 147 649 50 20 34 21 56 60 34 27 38 150 35 31 29 20 30 41 114 59 36 173 202
internal_value=-1.42975e-12 -0.000349821 1.36469e-06 0.000525849 0.00213057 4.51266e-07 3.2162e-05 0.000635876 -1.08977e-05 0.000101708 0.000396891 0.000782316 0.00156486 2.7949e-05 -0.000123958 3.49643e-05 0.000167997 2.86075e-05 0.000186405 1.77604e-05 0.00185077 -6.9849e-05 -0.000167555 -0.000259287 0.000230166 -0.000793373 -0.00107011 -0.000169904 -2.09344e-05 -0.00046197 4.50562e-05 -0.000105518 -0.000450176 -1.48647e-05 0.000115132 -1.39125e-05 -6.03489e-06 -1.41651e-05 -1.26445e-05 0.000159093 -7.0343e-05 8.13782e-05 -0.000778421 -0.0006302 -0.000454467 1.91292e-05 -0.000276714 -0.000232197 -0.000643903 -0.00145505 -0.000263797 0.000105126 -0.00015862 -0.00081566 -0.000494768 0.00019759 0.000387444 -0.000292634 3.88978e-05 -0.000497171 -0.000107221 0.000208408
internal_weight=118375 460 117915 205 62 117710 31024 215 86686 2950 475 156 76 30809 1360 29449 1343 28106 1322 24975 57 282 248 228 65 178 97 143 119 81 2475 481 346 83736 3131 83185 55747 42134 1014 255 759 1994 53 176 163 13613 92 75 88 64 170 1771 551 61 41 158 71 181 80 67 223 319
internal_count=118375 460 117915 205 62 117710 31024 215 86686 2950 475 156 76 30809 1360 29449 1343 28106 1322 24975 57 282 248 228 65 178 97 143 119 81 2475 481 346 83736 3131 83185 55747 42134 1014 255 759 1994 53 176 163 13613 92 75 88 64 170 1771 551 61 41 158 71 181 80 67 223 319
is_linear=0
shrinkage=0.02


Tree=2
num_leaves=63
num_cat=0
split_feature=1 5 0 6 7 3 6 0 0 6 7 0 0 5 7 7 4 3 5 0 0 0 6 4 0 3 6 5 6 6 6 1 3 1 1 3 5 0 3 2 2 6 7 6 2 7 2 8 5 5 5 4 6 4 6 3 2 3 6 4 2 2
split_gain=0.135686 0.137154 0.135634 0.549543 0.191336 0.101711 0.189458 0.274871 0.0929755 0.118866 0.07883 0.118573 0.077063 0.232114 0.0919471 0.0597938 0.0687836 0.063335 0.0613818 0.0512823 0.0509054 0.0471476 0.0571195 0.0522968 0.0571576 0.0391958 0.0669276 0.0377799 0.0636936 0.0368646 0.0291093 0.02823 0.0278739 0.0275205 0.0263669 0.0251825 0.0273841 0.0318616 0.0241246 0.0307738 0.0262581 0.0201133 0.0197405 0.0190259 0.0187242 0.0513838 0.0168421 0.0164787 0.015469 0.014971 0.0140965 0.0140823 0.0140796 0.0133344 0.0116231 0.011533 0.0111827 0.0111713 0.0106853 0.0103 0.0102069 0.0101037
threshold=0.49788432883687411 2.5609170129762311 0.37034381242513087 0.045528287603444725 1.1063604284980022 0.036376167188329825 0.037290262469676892 0.19936070330299041 0.10262694512694516 0.037140423114628791 1.1712841456709715 0.19936070330299041 0.15049038334247403 1.8779907519711467 1.0445905974195535 0.86072281664835748 0.031523059707850583 0.067144687493836078 1.4879021829574082 0.28541921224907701 0.28541921224907701 0.057279211498450062 0.059223317146068877 0.077221405600681262 0.21854652829407309 0.078823937013957693 0.05175879326983103 3.9016908765343286 0.054732479544538727 0.052597542002866211 0.053641095477008044 0.31352813732775814 0.073403936579598747 0.18239106293913857 -0.061995567427578051 0.019325498819968322 1.1465493008056729 -0.047839357099548833 0.090511306773628938 0.37320149734770774 0.24122774654159232 0.06429883035021218 1.1102831877830643 0.090955466493947007 0.030307351570071587 1.033215130008309 -0.041381063408305933 82.502894388816941 1.5637903320520226 1.752701450174067 1.5021715804620459 0.07325392210563321 0.044116369615462184 0.050182602811852432 0.054080123012280885 0.03724777057772042 0.49999999999999994 0.081689137874149761 0.057866653839370806 0.028132951268526517 0.13497990682674246 0.090151680575660378
decision_type=2 2 2 2 2 2 2 2 2 2 2 2 2 2 2 2 2 2 2 2 2 2 2 2 2 2 2 2 2 2 2 2 2 2 2 2 2 2 2 2 2 2 2 2 2 2 2 2 2 2 2 2 2 2 2 2 2 2 2 2 2 2
left_child=2 21 5 4 -4 8 7 55 33 12 15 38 44 14 -14 16 -8 19 -18 -17 -9 -2 -23 47 -25 26 52 28 -5 -27 42 -32 50 35 -19 61 37 -37 40 -40 -12 -31 53 -34 -10 -46 -38 51 -30 57 -13 56 -3 -11 -35 -7 -24 -49 60 -44 -56 -1
right_child=1 25 3 27 -6 6 10 20 9 30 11 32 13 -15 -16 17 18 34 -20 -21 -22 22 23 24 -26 29 -28 -29 48 41 31 -33 43 54 -36 36 46 -39 39 -41 -42 -43 59 -45 45 -47 -48 49 -50 -51 -52 -53 -54 -55 58 -57 -58 -59 -60 -61 -62 -63
leaf_value=-3.2760966227780232e-05 0.00062997587367563559 -0.0010673222461572061 0.0030638053630079542 0.00083359964329887324 0.00082297632401740113 0.00051995773549766877 -0.00097100261310558952 0.0013572676089825108 3.520126248538702e-05 8.8146693674405927e-05 0.00021680103300604972 -0.00042423718028090972 0.0028994297360380489 6.4367147896868677e-05 0.0010872973612276837 1.5324129309725228e-05 0.00010042225591620847 -1.3272424751914015e-08 0.00040846866766906348 0.0004120770655794581 0.0025963168804134639 0.00086061869561672205 -0.0005415590196025733 -0.00050080378298074585 0.00070980776817752768 0.00013428696472796479 -0.00031709960954630692 -0.00089037605949367096 8.3934102876810355e-05 -0.0010661665149823282 -6.4597405314805297e-05 -0.00070830627778095418 -0.00071934813103953401 -9.1200151492656115e-05 0.00014268040059626656 1.5455393328465975e-05 -7.2128257896517665e-06 -2.4192231445201523e-05 -0.000100417527811024 0.00034423461161731258 -0.00011736618088270664 -0.00026238551456481222 0.00014941893130711908 -0.00019263323622427004 0.00066181408422606063 0.00015333774117490037 3.7810269269366907e-05 -0.00080705054193025536 -0.00046057403912709561 8.2744022365659474e-05 -5.8370112560919263e-05 -0.00025073958241760176 -0.0016713208018949157 0.00057311152178875127 -0.00022120936646036082 0.00010416325847472762 -0.0010838032918500491 -0.00014658509288710775 -0.00016897466027697653 -0.00017926882178239054 -0.00071629815461670256 1.3481067996119227e-05
leaf_weight=25396 34 26 35 27 27 34 21 36 128 1622 110 93 21 65 24 24844 969 655 353 131 21 20 32 26 39 28 33 24 32 33 452 29 142 370 2476 10957 5764 31177 108 147 649 20 49 34 117 248 7849 21 60 34 77 27 38 23 31 124 29 20 114 172 36 2042
leaf_count=25396 34 26 35 27 27 34 21 36 128 1622 110 93 21 65 24 24844 969 655 353 131 21 20 32 26 39 28 33 24 32 33 452 29 142 370 2476 10957 5764 31177 108 147 649 20 49 34 117 248 7849 21 60 34 77 27 38 23 31 124 29 20 114 172 36 2042
internal_value=1.26687e-12 -0.000342825 1.3374e-06 0.000515332 0.00208796 4.42243e-07 3.15188e-05 0.000623159 -1.06797e-05 9.96735e-05 2.739e-05 -0.000121478 0.000350137 0.000828791 0.00193296 3.4265e-05 0.000164637 2.80354e-05 0.000182677 1.74052e-05 0.00181376 -6.8452e-05 -0.000164204 -0.000254101 0.000225563 -0.000777506 -0.00104871 -0.000166506 -2.05156e-05 -0.00045273 3.53233e-05 -0.000103407 -0.000441172 -1.45674e-05 0.000112829 -1.36343e-05 -5.91419e-06 -1.38818e-05 -1.23917e-05 0.000155911 -6.89361e-05 -0.000762853 7.1084e-05 -0.000617596 0.000243338 0.000316329 1.87466e-05 -0.000445378 -0.00027118 -0.000227553 -0.000258521 -0.000631024 -0.00142595 9.49274e-05 -0.000155447 0.000193638 -0.000799347 -0.000484872 -0.000286781 -0.000106392 -0.000487227 -2.93195e-05
internal_weight=118375 460 117915 205 62 117710 31024 215 86686 2950 30809 1360 603 110 45 29449 1343 28106 1322 24975 57 282 248 228 65 178 97 143 119 81 2347 481 346 83736 3131 83185 55747 42134 1014 255 759 53 1866 176 493 365 13613 163 92 75 170 88 64 1645 551 158 61 41 181 221 67 27438
internal_count=118375 460 117915 205 62 117710 31024 215 86686 2950 30809 1360 603 110 45 29449 1343 28106 1322 24975 57 282 248 228 65 178 97 143 119 81 2347 481 346 83736 3131 83185 55747 42134 1014 255 759 53 1866 176 493 365 13613 163 92 75 170 88 64 1645 551 158 61 41 181 221 67 27438
is_linear=0
shrinkage=0.02


Tree=3
num_leaves=63
num_cat=0
split_feature=1 6 0 6 7 3 6 0 0 6 7 0 0 5 7 5 6 7 4 3 5 7 0 5 6 6 1 3 1 0 3 5 0 0 4 6 3 2 2 6 2 6 8 7 6 5 5 5 4 6 5 7 4 4 4 0 7 7 2 4 2 8
split_gain=0.130312 0.131798 0.130263 0.527781 0.183759 0.0976831 0.181956 0.263986 0.0892936 0.114159 0.0757083 0.113877 0.0748231 0.191071 0.129984 0.0704714 0.0706522 0.057426 0.0660598 0.060827 0.0591503 0.0504956 0.0492515 0.0362839 0.0611713 0.0279565 0.0271121 0.02677 0.0264307 0.0253265 0.0241852 0.0262997 0.0305999 0.0232199 0.0423841 0.0774312 0.0231693 0.0295552 0.0252183 0.0211575 0.0274227 0.0312158 0.0250298 0.0189588 0.0182725 0.0163678 0.0148564 0.0140382 0.0136584 0.0135932 0.0135606 0.0134008 0.0128064 0.011589 0.011311 0.0112193 0.015038 0.0105745 0.0382025 0.00989217 0.00970364 0.00930148
threshold=0.49788432883687411 0.080227083625487153 0.37034381242513087 0.045528287603444725 1.1063604284980022 0.036376167188329825 0.037290262469676892 0.19936070330299041 0.10262694512694516 0.037140423114628791 1.1712841456709715 0.19936070330299041 0.13319812544431822 1.8779907519711467 1.0427005726194642 2.5609170129762311 0.061261859932128994 0.86072281664835748 0.031523059707850583 0.067144687493836078 1.4098169284847637 1.077469408259822 0.28541921224907701 3.9016908765343286 0.054732479544538727 0.053641095477008044 0.31352813732775814 0.073403936579598747 0.18239106293913857 -0.14660597200070882 0.019325498819968322 1.1465493008056729 -0.047839357099548833 0.062552713227003967 0.077221405600681262 0.098299700803052878 0.090511306773628938 0.37320149734770774 0.24122774654159232 0.042683527688101311 0.49999999999999994 0.050012728535323757 89.352578692495939 1.1102831877830643 0.090955466493947007 3.9016908765343286 1.5637903320520226 1.6385070247622153 0.042493861484360552 0.069529426460320787 1.9149340461806112 1.0417462238735664 0.050182602811852432 0.065796558594560295 0.050182602811852432 0.091798292362118908 1.0164285892373808 1.033215130008309 0.081442772477418171 0.028132951268526517 0.090151680575660378 81.166831079161867
decision_type=2 2 2 2 2 2 2 2 2 2 2 2 2 2 2 2 2 2 2 2 2 2 2 2 2 2 2 2 2 2 2 2 2 2 2 2 2 2 2 2 2 2 2 2 2 2 2 2 2 2 2 2 2 2 2 2 2 2 2 2 2 2
left_child=2 15 5 4 -4 8 7 55 28 12 17 36 57 14 -14 16 -2 18 -8 22 -20 -9 -19 24 -5 43 -27 48 30 -21 60 32 -32 -3 47 61 38 -38 -12 -17 41 -41 53 52 -29 -33 -26 -35 -13 50 -18 -15 -11 -42 -30 -7 -57 58 -10 -45 -1 -36
right_child=1 33 3 23 -6 6 10 21 9 25 11 27 13 51 -16 39 49 19 20 29 -22 -23 -24 -25 46 26 -28 44 54 -31 31 45 -34 34 35 -37 37 -39 -40 40 42 -43 -44 59 -46 -47 -48 -49 -50 -51 -52 -53 -54 -55 -56 56 -58 -59 -60 -61 -62 -63
leaf_value=-3.2105741988493859e-05 0.00065508748205112563 0.00063626854034561314 0.003002529378448214 0.00081692764138871878 0.00080651679938590086 3.7516500533561103e-05 -0.00095158263885726524 0.0022151410131639728 0.0001609542950520735 8.6383760200458711e-05 0.00021246501706032592 0.00023759874468669295 0.0022069039740241492 0.000510610801760446 0.00067947234033244265 -0.00025756640692374538 -0.00042129898610125693 1.5017638304083577e-05 9.090664133882436e-05 -2.6845069209643179e-05 0.00038213178760197481 0.00096781919198110709 0.00040383551360857994 -0.00087256848268831781 8.2255398010602223e-05 -6.3305457820085625e-05 -0.00069414014992272039 -0.00070496117048503336 -0.0001330005267168443 0.00013411809685597766 1.5146280148566121e-05 1.9781197710166932e-05 -2.3708388813634786e-05 -0.00063747748958549509 0.00059504951583221554 -0.00056479943187340449 -9.8409176975514537e-05 0.0003373499259314671 -0.0001150188509710616 -0.001886553484523161 -0.0014162082696819436 -0.00082113381602870168 -0.0004668667935342951 0.00014643056505853882 -0.00018878058653653545 -0.00032284995542015949 -0.00045136256963208631 2.0208677410015035e-05 -0.0003188103992938219 -0.0002731369263142369 -0.0010848341388257476 -4.6753537728363882e-05 0.00056164930038073147 -0.00078795835948161153 -0.0005769619653195454 0.00071659681916935367 0.00012734321144795634 9.0186133739175259e-05 0.00086473538917121733 -0.0001756834500922069 1.3211452962590678e-05 0.0011909921357873827
leaf_weight=25396 28 31 35 27 27 87 21 37 164 1622 110 20 39 22 52 21 28 24844 922 458 400 20 131 24 32 452 29 142 527 2673 10957 13557 31177 34 22 23 108 147 649 22 23 22 55 49 34 56 60 21 150 64 22 80 23 24 24 30 41 208 38 172 2042 20
leaf_count=25396 28 31 35 27 27 87 21 37 164 1622 110 20 39 22 52 21 28 24844 922 458 400 20 131 24 32 452 29 142 527 2673 10957 13557 31177 34 22 23 108 147 649 22 23 22 55 49 34 56 60 21 150 64 22 80 23 24 24 30 41 208 38 172 2042 20
internal_value=-3.47967e-13 -0.000335968 1.31065e-06 0.000505026 0.0020462 4.33397e-07 3.08884e-05 0.000610695 -1.04661e-05 9.768e-05 2.68422e-05 -0.000119049 0.000343135 0.00066785 0.00133409 -0.000572623 -0.000245078 3.35797e-05 0.000161344 2.74747e-05 0.000179023 0.00177748 1.70571e-05 -0.000163176 -2.01053e-05 3.46169e-05 -0.000101339 -0.000432349 -1.42761e-05 0.000110573 -1.33616e-05 -5.79591e-06 -1.36042e-05 0.000148311 2.22558e-05 0.000368008 -1.21438e-05 0.000152793 -6.75574e-05 -0.000851135 -0.000936511 -0.00135384 -0.000756485 6.96623e-05 -0.000605244 1.83717e-05 -0.000265756 -0.000386361 -0.000253351 -0.000466171 -0.000713254 7.34623e-05 9.30288e-05 -0.0010954 -0.000152338 0.000189765 0.000376324 0.000190281 0.000293349 -0.000104265 -2.87331e-05 0.000878832
internal_weight=118375 460 117915 205 62 117710 31024 215 86686 2950 30809 1360 603 193 91 309 142 29449 1343 28106 1322 57 24975 143 119 2347 481 346 83736 3131 83185 55747 42134 151 120 65 1014 255 759 167 146 44 102 1866 176 13613 92 55 170 114 50 102 1645 47 551 158 71 410 202 221 27438 42
internal_count=118375 460 117915 205 62 117710 31024 215 86686 2950 30809 1360 603 193 91 309 142 29449 1343 28106 1322 57 24975 143 119 2347 481 346 83736 3131 83185 55747 42134 151 120 65 1014 255 759 167 146 44 102 1866 176 13613 92 55 170 114 50 102 1645 47 551 158 71 410 202 221 27438 42
is_linear=0
shrinkage=0.02


Tree=4
num_leaves=63
num_cat=0
split_feature=1 5 0 6 7 3 6 0 0 6 0 5 7 7 0 7 4 3 5 0 0 0 6 4 0 3 6 6 5 6 6 1 3 1 1 3 5 0 3 2 2 7 6 6 2 8 5 5 5 4 6 1 3 6 2 3 6 2 8 2 2 8
split_gain=0.125152 0.126677 0.125104 0.506881 0.176483 0.0938149 0.17475 0.253532 0.0857576 0.109959 0.0779378 0.206224 0.13484 0.0727103 0.109368 0.0551519 0.0634438 0.0584182 0.056808 0.049137 0.0473012 0.0437045 0.0530948 0.0483804 0.0540011 0.0367842 0.0638266 0.0359856 0.034847 0.058749 0.0299042 0.0260384 0.0257099 0.025384 0.0249121 0.0232275 0.0252582 0.0293881 0.0222518 0.0283848 0.0242196 0.0197371 0.0184814 0.0175489 0.0161671 0.0156532 0.0143526 0.0142681 0.0135195 0.0133926 0.0130495 0.0118696 0.0111751 0.0110684 0.010743 0.0105814 0.0102903 0.009796 0.00961243 0.0114197 0.00931938 0.00921161
threshold=0.49788432883687411 2.5609170129762311 0.37034381242513087 0.045528287603444725 1.1063604284980022 0.036376167188329825 0.037290262469676892 0.19936070330299041 0.10262694512694516 0.035818181873135145 0.13319812544431822 1.9556354078890286 1.0671516524911466 1.1712841456709715 0.19936070330299041 0.86072281664835748 0.031523059707850583 0.067144687493836078 1.4098169284847637 0.28541921224907701 0.28541921224907701 0.057279211498450062 0.059223317146068877 0.077221405600681262 0.21854652829407309 0.078823937013957693 0.05175879326983103 0.052597542002866211 3.9016908765343286 0.054732479544538727 0.053641095477008044 0.31352813732775814 0.073403936579598747 0.18239106293913857 -0.061995567427578051 0.019325498819968322 1.1465493008056729 -0.047839357099548833 0.090511306773628938 0.37320149734770774 0.24122774654159232 1.1102831877830643 0.06429883035021218 0.090955466493947007 -0.041381063408305933 82.502894388816941 1.752701450174067 1.5637903320520226 1.5021715804620459 0.07325392210563321 0.044116369615462184 0.25188352315513124 0.03724777057772042 0.054080123012280885 0.49999999999999994 0.081689137874149761 0.057866653839370806 0.13497990682674246 82.502894388816941 0.17538464670172119 0.090151680575660378 60.621364547499432
decision_type=2 2 2 2 2 2 2 2 2 2 2 2 2 2 2 2 2 2 2 2 2 2 2 2 2 2 2 2 2 2 2 2 2 2 2 2 2 2 2 2 2 2 2 2 2 2 2 2 2 2 2 2 2 2 2 2 2 2 2 2 2 2
left_child=2 21 5 4 -4 8 7 52 33 10 58 12 -12 15 38 16 -8 20 -18 -9 -17 -2 -23 45 -25 26 50 -27 29 -5 41 61 48 35 -19 60 37 -37 40 -40 -15 51 -29 -34 -38 49 55 -31 -16 54 -3 -11 -7 -35 -24 -47 57 -55 59 -10 -1 -32
right_child=1 25 3 28 -6 6 13 19 9 30 11 -13 -14 14 32 17 18 34 -20 -21 -22 22 23 24 -26 27 -28 42 -30 47 31 -33 43 53 -36 36 44 -39 39 -41 -42 -43 -44 -45 -46 46 -48 -49 -50 -51 -52 -53 -54 56 -56 -57 -58 -59 -60 -61 -62 -63
leaf_value=-3.146362852695909e-05 0.00060687792747664976 -0.0010328629326361877 0.0029424786439963754 0.00080058910021627396 0.00079038636000068098 0.00050718717327125724 -0.00093255096070823224 0.0012934419762394909 0.00019310560311383161 9.1354441175614588e-05 0.0020015687048435212 -1.4904311951249839e-05 0.0002536781779669512 0.00020821571914182808 -0.00041057280129602839 1.4717289940435726e-05 8.9088505950487803e-05 -1.3241188499143101e-06 0.00037448914687629442 0.0025107789217006593 0.00039575880617329865 0.00083030450064688931 -0.00052081721376453062 -0.00048909637235248322 0.00068761261203923287 0.00014760485700597722 -0.00029526578844524921 -0.001029523904294227 -0.00085511711581299707 8.061028071097099e-05 6.7360697627943429e-05 -0.0006802573482152717 -0.00069086192602055589 -8.6596148690217442e-05 0.00013737717448927554 1.484335746440311e-05 -7.429724697288443e-06 -2.3234219811753978e-05 -9.6440999865687145e-05 0.00033060291243885265 -0.00011271846850272785 -0.00010094525418066809 -0.00025903967674821614 -0.00018500495058320024 3.6682012497371226e-05 -0.00078160679233925682 8.7718613829244584e-05 -0.00044233530036096155 -5.2271725321884044e-05 -0.00023848303309124378 -0.0016143479159003811 0.00046335940522008708 9.789427021191401e-05 -0.00021355230631607194 -0.0010522933779605504 -0.00013881658887839876 -0.00016184473371954244 -0.00069857224338597409 -0.00012256132661337581 0.00063279282068833714 1.2947223005787493e-05 -0.00012503675726819845
leaf_weight=25396 34 26 35 27 27 34 21 36 259 1736 55 75 26 110 93 24844 922 655 400 21 131 20 32 26 39 28 33 33 24 32 148 29 142 370 2476 10957 5764 31177 108 147 649 223 20 34 7849 21 34 60 77 27 38 35 124 31 29 20 114 36 34 26 2042 304
leaf_count=25396 34 26 35 27 27 34 21 36 259 1736 55 75 26 110 93 24844 922 655 400 21 131 20 32 26 39 28 33 33 24 32 148 29 142 370 2476 10957 5764 31177 108 147 649 223 20 34 7849 21 34 60 77 27 38 35 124 31 29 20 114 36 34 26 2042 304
internal_value=4.56048e-13 -0.000329249 1.28444e-06 0.000494925 0.00200528 4.2473e-07 3.02706e-05 0.000598481 -1.02568e-05 9.57264e-05 0.00037445 0.000740795 0.00144052 2.63054e-05 -0.000116668 3.29081e-05 0.000158117 2.69252e-05 0.000175443 0.00174193 1.67159e-05 -6.55639e-05 -0.000157753 -0.000244425 0.000216929 -0.000746998 -0.00100973 -0.000432372 -0.000159913 -1.97032e-05 4.22339e-05 -9.93124e-05 -0.000423702 -1.39906e-05 0.000108361 -1.30944e-05 -5.67999e-06 -1.33321e-05 -1.19009e-05 0.000149737 -6.62063e-05 7.63782e-05 -0.000738775 -0.00059314 1.80043e-05 -0.000428401 -0.000216102 -0.000260441 -0.000248283 -0.000609338 -0.00137812 9.87063e-05 0.00018597 -0.000149291 -0.000773486 -0.000468051 -0.000277453 -0.00047416 0.000195297 0.000233217 -2.81585e-05 -6.20394e-05
internal_weight=118375 460 117915 205 62 117710 31024 215 86686 2950 475 156 81 30809 1360 29449 1343 28106 1322 57 24975 282 248 228 65 178 97 81 143 119 2475 481 346 83736 3131 83185 55747 42134 1014 255 759 1994 53 176 13613 163 75 92 170 88 64 1771 158 551 61 41 181 67 319 285 27438 452
internal_count=118375 460 117915 205 62 117710 31024 215 86686 2950 475 156 81 30809 1360 29449 1343 28106 1322 57 24975 282 248 228 65 178 97 81 143 119 2475 481 346 83736 3131 83185 55747 42134 1014 255 759 1994 53 176 13613 163 75 92 170 88 64 1771 158 551 61 41 181 67 319 285 27438 452
is_linear=0
shrinkage=0.02


Tree=5
num_leaves=63
num_cat=0
split_feature=1 6 0 6 7 3 6 0 0 6 0 5 7 7 0 5 6 7 4 3 5 7 0 5 6 6 1 3 1 1 3 5 0 8 0 7 7 3 8 2 5 6 2 6 8 2 7 7 4 6 5 4 6 5 4 4 0 7 4 4 0 2
split_gain=0.120196 0.123187 0.12015 0.486808 0.169494 0.0900998 0.16783 0.243492 0.0823616 0.105689 0.0707968 0.210749 0.083651 0.0698309 0.105037 0.0648013 0.0658195 0.0529679 0.0609314 0.0561049 0.0547433 0.0487391 0.045428 0.0334671 0.0564225 0.0257417 0.0250073 0.0246918 0.0243788 0.0239256 0.0223077 0.0242704 0.0321021 0.0222411 0.0334702 0.0313302 0.0215169 0.0213706 0.0274389 0.0232605 0.0210799 0.0202031 0.025952 0.0296574 0.0238463 0.0176642 0.0476283 0.0174625 0.0172804 0.016854 0.0137031 0.0130992 0.0127682 0.0131068 0.0122728 0.0110523 0.0108332 0.0144815 0.0107919 0.00955105 0.00953312 0.00895033
threshold=0.49788432883687411 0.080227083625487153 0.37034381242513087 0.045528287603444725 1.1063604284980022 0.036376167188329825 0.037290262469676892 0.19936070330299041 0.10262694512694516 0.037140423114628791 0.15049038334247403 1.8779907519711467 1.0445905974195535 1.1712841456709715 0.19936070330299041 2.5609170129762311 0.061261859932128994 0.86072281664835748 0.031523059707850583 0.067144687493836078 1.4879021829574082 1.077469408259822 0.28541921224907701 3.9016908765343286 0.054732479544538727 0.053641095477008044 0.31352813732775814 0.073403936579598747 0.18239106293913857 -0.061995567427578051 0.019325498819968322 1.3073485481297338 -0.049360924189972392 82.502894388816941 0.062552713227003967 1.2149170549025108 0.84962257058243307 0.090511306773628938 69.420717900263512 0.24122774654159232 1.4098169284847637 0.042683527688101311 0.49999999999999994 0.050012728535323757 89.352578692495939 0.030307351570071587 1.033215130008309 1.1102831877830643 0.077221405600681262 0.090955466493947007 1.5637903320520226 0.042493861484360552 0.069529426460320787 1.9149340461806112 0.050182602811852432 0.065796558594560295 0.091798292362118908 1.0164285892373808 0.050182602811852432 0.027212056913578517 0.18611846486846487 0.090151680575660378
decision_type=2 2 2 2 2 2 2 2 2 2 2 2 2 2 2 2 2 2 2 2 2 2 2 2 2 2 2 2 2 2 2 2 2 2 2 2 2 2 2 2 2 2 2 2 2 2 2 2 2 2 2 2 2 2 2 2 2 2 2 2 2 2
left_child=2 15 5 4 -4 8 7 56 28 10 45 12 -12 17 37 16 -2 18 -8 22 -20 -9 -19 24 -5 47 -27 51 30 -21 61 32 -32 34 -3 -36 -33 39 -39 -15 -35 -17 43 -43 55 -10 -47 54 -37 -29 -26 -16 53 -18 -11 -44 -7 -58 -30 -49 -13 -1
right_child=1 33 3 23 -6 6 13 21 9 25 11 60 -14 14 27 41 52 19 20 29 -22 -23 -24 -25 50 26 -28 49 58 -31 31 36 -34 40 35 48 -38 38 -40 -41 -42 42 44 -45 -46 46 -48 59 -50 -51 -52 -53 -54 -55 -56 -57 57 -59 -60 -61 -62 -63
leaf_value=-3.0834354851063603e-05 0.00063146842444049462 0.00058403426315635444 0.0028836291623967037 0.00078457727838583571 0.00077457865769112557 3.2644199699848551e-05 -0.00091389997729233324 0.0021370731041187776 2.5460097911036429e-05 8.268221537948617e-05 0.002762729483822893 -0.00010695794322104618 0.0010342808224959299 0.0002040513948833739 0.00023747521545737984 -0.00023850334409092154 -0.00040320165189249176 1.4422935031266627e-05 9.4254534668880807e-05 -1.2976349919270658e-06 0.00038516686988406467 0.00091163790412247174 0.00038784362055594102 -0.00083801476207251359 7.8998102399054911e-05 -6.0798561585738954e-05 -0.00066665222515063045 -0.00067704467722673857 -0.00012741687504090165 0.00013462962054700919 1.7466224883305871e-05 0.00039901809568410041 -2.0847740576642968e-05 4.4500262476503847e-05 0.00044120399137249309 -0.00083027614177101194 2.2100652236841473e-05 1.3356955146024886e-06 0.00044274926972797231 -0.00011046409927793234 0.00092366486787796018 -0.0018271874240599574 -0.0013709239983607246 -0.0007887020279568705 -0.00044413725422187288 0.00063113540622433575 0.00014159296355112548 0.00019789299714223792 -0.00013819365642003475 -0.00018130485064295286 -0.0004334886026723931 -0.00030742355732945724 -0.00026367884507635611 -0.0010555409162770956 0.0005479422440428449 -0.00075739278846109911 0.00069948840049134252 0.00012124122057973249 -0.00056107137771808392 -0.00015815986976392468 0.00041096861684872282 1.2688274958990932e-05
leaf_weight=25396 28 28 35 27 27 87 21 37 128 1622 21 44 24 110 20 21 28 24844 969 655 353 20 131 24 32 452 29 142 527 2476 11641 61 35191 20 21 27 8854 171 84 649 24 22 23 22 55 117 248 36 31 34 60 150 64 22 23 24 30 41 24 185 21 2042
leaf_count=25396 28 28 35 27 27 87 21 37 128 1622 21 44 24 110 20 21 28 24844 969 655 353 20 131 24 32 452 29 142 527 2476 11641 61 35191 20 21 27 8854 171 84 649 24 22 23 22 55 117 248 36 31 34 60 150 64 22 23 24 30 41 24 185 21 2042
internal_value=1.475e-12 -0.000322664 1.25875e-06 0.000485027 0.00196517 4.16236e-07 2.96652e-05 0.000586512 -1.00517e-05 9.38119e-05 0.000329985 0.000788766 0.00184089 2.57793e-05 -0.000114335 -0.000551457 -0.000237365 3.22499e-05 0.000154955 2.63867e-05 0.000171934 0.0017071 1.63816e-05 -0.000156714 -1.93092e-05 3.31333e-05 -9.73261e-05 -0.000415228 -1.37108e-05 0.000106194 -1.28325e-05 -5.56638e-06 -1.13241e-05 0.000145528 -1.01235e-05 -0.000220711 2.46797e-05 -1.16629e-05 0.000146743 -6.48821e-05 0.000524045 -0.000818529 -0.000901958 -0.00130794 -0.000726826 0.00022762 0.000298515 6.67619e-05 -0.00046037 -0.000581277 -0.000255232 -0.000243318 -0.000450763 -0.000690231 8.91874e-05 -0.00105763 0.000182251 0.000365571 -0.000146306 -0.00010016 6.03722e-05 -2.75953e-05
internal_weight=118375 460 117915 205 62 117710 31024 215 86686 2950 603 110 45 30809 1360 309 142 29449 1343 28106 1322 57 24975 143 119 2347 481 346 83736 3131 83185 55747 46832 151 107 79 8915 1014 255 759 44 167 146 44 102 493 365 1866 58 176 92 170 114 50 1645 47 158 71 551 221 65 27438
internal_count=118375 460 117915 205 62 117710 31024 215 86686 2950 603 110 45 30809 1360 309 142 29449 1343 28106 1322 57 24975 143 119 2347 481 346 83736 3131 83185 55747 46832 151 107 79 8915 1014 255 759 44 167 146 44 102 493 365 1866 58 176 92 170 114 50 1645 47 158 71 551 221 65 27438
is_linear=0
shrinkage=0.02


Tree=6
num_leaves=63
num_cat=0
split_feature=1 6 0 6 7 4 6 0 5 6 7 8 5 5 7 0 6 0 4 7 4 1 0 3 2 7 0 7 1 6 6 3 4 7 7 2 0 0 1 7 0 4 1 7 4 0 2 8 0 4 0 0 5 6 2 6 8 7 3 0 8 6
split_gain=0.115436 0.118309 0.11614 0.953218 0.235866 0.141198 0.0820411 0.0691537 0.0622351 0.0632131 0.0561416 0.0725904 0.0515239 0.0510738 0.0691348 0.0874767 0.112945 0.101921 0.0454254 0.0653403 0.0450063 0.0396257 0.03924 0.033219 0.0330749 0.0327212 0.0323912 0.042041 0.0317034 0.0314348 0.0317284 0.0301109 0.0352647 0.0294508 0.0288125 0.0383515 0.030498 0.0266946 0.0266253 0.0396797 0.027949 0.025016 0.0240443 0.046698 0.026474 0.0393725 0.0216547 0.0213603 0.0321448 0.0307786 0.0247702 0.0205894 0.0202452 0.019403 0.0249243 0.028483 0.022902 0.0183973 0.0181 0.0239107 0.0212074 0.0179516
threshold=0.49788432883687411 0.080227083625487153 0.28541921224907701 0.045528287603444725 1.1195797788725235 0.043731711155160516 0.077505418664557221 -0.09795348822719295 2.5609170129762311 0.061261859932128994 1.1712841456709715 84.15009154637481 0.97893742336084488 1.1775775243492059 1.1102831877830643 0.10262694512694516 0.037431071559146635 0.18611846486846487 0.041889901250578433 0.79489604921384116 0.08419313775632363 -0.20037422772088834 -0.11495871248034127 0.030953122829042352 0.25779896839709276 0.88045449290014632 0.16580450648454428 1.1900005080821865 0.099020464916243847 0.057866653839370806 0.080227083625487153 0.090511306773628938 0.077221405600681262 1.099741818217377 1.0657148931287923 0.3240287253141832 0.37034381242513087 0.21854652829407309 0.08306253735538173 1.077469408259822 -0.1695825075288058 0.032486157639080283 0.28900073804062004 1.0576931332970168 0.028952706327047037 0.10869998638836788 -0.25007347281264114 82.502894388816941 0.062552713227003967 0.07325392210563321 0.24596992754512317 -0.022418781048527511 1.4098169284847637 0.042683527688101311 0.49999999999999994 0.050012728535323757 89.352578692495939 1.1063604284980022 0.058377247206743615 -0.0059580397448623082 66.652390668729424 0.039633296663496326
decision_type=2 2 2 2 2 2 2 2 2 2 2 2 2 2 2 2 2 2 2 2 2 2 2 2 2 2 2 2 2 2 2 2 2 2 2 2 2 2 2 2 2 2 2 2 2 2 2 2 2 2 2 2 2 2 2 2 2 2 2 2 2 2
left_child=2 8 6 4 5 -4 13 18 9 -2 29 -12 20 22 15 21 17 -17 19 -8 37 41 -1 -21 28 -23 58 -28 46 34 57 51 -33 -30 -5 -36 -37 -9 -20 -40 -41 -15 44 -44 45 -24 -14 48 -3 -50 -51 -26 -49 -10 55 -55 -56 -31 60 -60 -16 -7
right_child=1 47 3 10 -6 61 7 12 53 -11 11 -13 24 14 26 16 -18 -19 38 23 -22 25 42 -25 31 -27 27 -29 33 30 -32 32 -34 -35 35 36 -38 -39 39 40 -42 -43 43 -45 -46 -47 -48 52 49 50 -52 -53 -54 54 56 -57 -58 -59 59 -61 -62 -63
leaf_value=7.6722757647987793e-05 0.00061883899250200823 0.00057235357817262409 0.0011978042008316454 0.00088999629544559864 -0.00015661126701161266 0.0031332913693040611 0.0013206585075905813 -1.6785175415293076e-06 -0.00023373327661483062 -0.00044174783344364221 -0.00062740376257679339 0.00027471246032898005 0.0002716766215391442 -0.00036117942090336147 -0.00042558312798811961 0.00027819317338543138 6.8996963127379649e-05 0.0011250134451631765 9.4172117515406157e-05 -0.00023458302445084346 -0.0003421559756430219 0.00020057746254033482 -2.5814637021055721e-05 0.00041022635695766549 -0.00033568475595267355 1.1386832739994793e-05 -0.00013469029479417296 -0.00054504924737883089 0.00050977464070519425 -0.00058341688031630055 0.0002564933118160947 0.00042530170791381139 -0.00011014673210078532 0.00011882112740678043 -0.00037303387892040373 0.00072072325967666173 -0.00018790307094935667 -0.00054187601054641048 0.00086915614970383196 -9.7795841560937549e-05 0.00035307054053856099 -4.6779233913582874e-05 -0.00094621617613954408 -0.00011022105310878667 -1.0931566611929206e-06 0.0002253867849402419 5.9905708238424542e-05 4.3610251508653162e-05 -0.0008723596820519084 -0.00033850104907866225 0.00049610544014722113 -1.9648969114959155e-05 0.00090519157965900381 -0.0017906436917837709 -0.0010364788482176198 -0.00077292797261510377 -0.000435254483494315 -7.5197146687624536e-05 -0.00027314425205751772 0.00016460315560834715 -6.484144643560906e-05 0.0024763362713885019
leaf_weight=1915 28 28 36 25 20 28 28 3313 21 114 139 48 249 179 73 509 3362 64 1782 39 169 372 44090 177 97 21493 392 134 173 56 56 123 82 139 38 45 22 37 42 82 167 233 29 341 34829 251 861 20 21 33 25 550 24 22 47 22 55 58 62 256 609 41
leaf_count=1915 28 28 36 25 20 28 28 3313 21 114 139 48 249 179 73 509 3362 64 1782 39 169 372 44090 177 97 21493 392 134 173 56 56 123 82 139 38 45 22 37 42 82 167 233 29 341 34829 251 861 20 21 33 25 550 24 22 47 22 55 58 62 256 609 41
internal_value=9.63668e-13 -0.000316211 1.23358e-06 0.000276033 0.00183401 0.00221317 -2.00121e-07 6.1173e-05 -0.000540428 -0.000232618 -0.000123858 -0.000395845 2.4238e-05 -4.75844e-06 1.86813e-05 2.62998e-05 0.000113232 0.000372777 0.000153519 0.000411638 -2.37098e-05 1.09441e-05 -1.27404e-05 0.000293802 9.84367e-05 1.46056e-05 -0.000112181 -0.00023923 0.000157478 4.56805e-05 -0.000133348 -1.03611e-07 0.000211122 0.0003356 0.000279795 0.000134508 0.000422368 -7.64488e-06 0.000123137 0.000300509 0.000204592 -0.000183375 -1.48943e-05 -0.000175745 -1.41426e-05 -2.43927e-05 0.000107411 0.000142618 -9.92104e-06 -0.000216297 2.12431e-05 -6.70299e-05 0.000513564 -0.000802159 -0.000883918 -0.00128179 -0.000712289 -0.000324849 -4.53525e-05 7.92562e-05 -0.000103455 0.00274293
internal_weight=118375 460 117915 612 125 105 117303 8110 309 142 487 187 5793 109193 27738 26212 3935 573 2317 244 3519 22277 81455 216 2274 21865 1526 526 1422 300 170 852 205 312 130 105 67 3350 2073 291 249 412 79540 370 79170 44341 1110 151 107 79 58 647 44 167 146 44 102 114 1000 318 682 69
internal_count=118375 460 117915 612 125 105 117303 8110 309 142 487 187 5793 109193 27738 26212 3935 573 2317 244 3519 22277 81455 216 2274 21865 1526 526 1422 300 170 852 205 312 130 105 67 3350 2073 291 249 412 79540 370 79170 44341 1110 151 107 79 58 647 44 167 146 44 102 114 1000 318 682 69
is_linear=0
shrinkage=0.02


Tree=7
num_leaves=63
num_cat=0
split_feature=1 6 0 6 7 4 6 0 7 8 5 5 7 0 6 0 5 6 4 7 4 1 0 3 2 7 0 7 1 6 6 3 4 7 7 2 0 0 4 0 0 1 7 0 4 1 7 4 0 2 0 0 6 6 2 7 3 0 8 3 6 4
split_gain=0.110865 0.113708 0.111541 0.915471 0.226526 0.135606 0.0787923 0.0664152 0.0539184 0.0697159 0.0494835 0.0490513 0.0663971 0.0840126 0.108472 0.0978854 0.0467369 0.0689336 0.0436266 0.0627528 0.0432241 0.0380566 0.0376861 0.0319035 0.0317651 0.0314255 0.0311086 0.0403762 0.030448 0.03019 0.0304719 0.0289185 0.0338682 0.0282845 0.0276715 0.0368328 0.0292903 0.0264398 0.0341428 0.0722576 0.0256375 0.0255709 0.0381084 0.0268422 0.0240253 0.0230922 0.0448487 0.0254256 0.0378133 0.0207972 0.0205642 0.019774 0.0184592 0.0235003 0.0251304 0.0176688 0.0173833 0.0229638 0.0203676 0.0172579 0.0172408 0.0324512
threshold=0.49788432883687411 0.074376415991986425 0.28541921224907701 0.045528287603444725 1.1195797788725235 0.043731711155160516 0.077505418664557221 -0.09795348822719295 1.1712841456709715 84.15009154637481 0.97893742336084488 1.1775775243492059 1.1102831877830643 0.10262694512694516 0.037431071559146635 0.18611846486846487 2.5609170129762311 0.061261859932128994 0.041889901250578433 0.79489604921384116 0.08419313775632363 -0.20037422772088834 -0.11495871248034127 0.030953122829042352 0.25779896839709276 0.88045449290014632 0.16580450648454428 1.1900005080821865 0.099020464916243847 0.057866653839370806 0.080227083625487153 0.090511306773628938 0.077221405600681262 1.099741818217377 1.0657148931287923 0.3240287253141832 0.37034381242513087 0.0178020985666183 0.077221405600681262 0.21854652829407309 0.21854652829407309 0.08306253735538173 1.077469408259822 -0.1695825075288058 0.032486157639080283 0.28900073804062004 1.0576931332970168 0.028952706327047037 0.10869998638836788 -0.25007347281264114 0.28541921224907701 -0.022418781048527511 0.042683527688101311 0.04746802025284174 0.67890594760754142 1.1063604284980022 0.058377247206743615 -0.0059580397448623082 66.652390668729424 0.067144687493836078 0.039633296663496326 0.051349686846483077
decision_type=2 2 2 2 2 2 2 2 2 2 2 2 2 2 2 2 2 2 2 2 2 2 2 2 2 2 2 2 2 2 2 2 2 2 2 2 2 2 2 2 2 2 2 2 2 2 2 2 2 2 2 2 2 2 2 2 2 2 2 2 2 2
left_child=2 16 6 4 5 -4 11 18 29 -10 20 22 13 21 15 -15 17 -2 19 -8 40 44 -1 -21 28 -23 56 -28 49 34 55 51 -33 -30 -5 -36 -37 -3 -39 -40 -9 -20 -43 -44 -13 47 -47 48 -24 -12 -19 -26 -18 -54 -55 -31 58 -58 -14 -49 -7 -62
right_child=1 37 3 8 -6 60 7 10 9 -11 24 12 26 14 -16 -17 52 50 41 23 -22 25 45 -25 31 -27 27 -29 33 30 -32 32 -34 -35 35 36 -38 38 39 -41 -42 42 43 -45 -46 46 -48 59 -50 -51 -52 -53 53 54 -56 -57 57 -59 -60 -61 61 -63
leaf_value=7.5188294767099902e-05 0.00060646225698292257 0.00075427629426121719 0.0011738480709674252 0.00087219636463560166 -0.00015347904269583524 0.0030706255058092729 0.0012942453284215713 -1.6449471069775515e-06 -0.00061485567894804447 0.00026921822495448093 0.00026624309106628938 -0.00035395583173639908 -0.00041707146989360247 0.00027262931049843207 6.761702531228211e-05 0.0011025131597671134 -0.00022905861892338311 -0.00016102166009659413 9.2288672431412047e-05 -0.00022989137720567389 -0.00033531285733530116 0.00019656590531080692 -2.5298341271918251e-05 0.00040202182200329515 -0.00032897107363825533 1.1159094712181921e-05 -0.00013199649578108603 -0.00053414827532507656 0.00049957914177645971 -0.00057174855288394616 0.00025136343985130745 0.00041679567089413172 -0.00010794379646185695 0.00011644470176689676 -0.00036557320346075449 0.00070630878675729039 -0.00018414500624534081 -0.00026262416813551683 -0.00048643412534147504 0.00080760659370571382 -0.00053103848159111839 0.00085177301828350341 -9.5839926557013448e-05 0.00034600911734480704 -4.5843650332712989e-05 -0.00092729185836325429 -0.00010801663292942998 -2.8179922655150275e-06 0.00022087904603363841 5.8707593521201288e-05 -0.00082122806216711587 -1.9255986460749143e-05 -0.001236708861517558 -0.00087616413266378883 -0.00014146136753261091 -7.3693205947698701e-05 -0.00026768137148821787 0.00016131108885019784 -6.3544619102590252e-05 0.00011240114351521974 0.0018776998420556388 0.0030033747535198928
leaf_weight=1915 28 20 36 25 20 28 28 3313 139 48 249 179 73 509 3362 64 21 32 1782 39 169 372 44090 177 97 21493 392 134 173 56 56 123 82 139 38 45 22 96 28 45 37 42 82 167 233 29 341 34301 251 861 46 550 46 73 25 58 62 256 609 528 21 20
leaf_count=1915 28 20 36 25 20 28 28 3313 139 48 249 179 73 509 3362 64 21 32 1782 39 169 372 44090 177 97 21493 392 134 173 56 56 123 82 139 38 45 22 96 28 45 37 42 82 167 233 29 341 34301 251 861 46 550 46 73 25 58 62 256 609 528 21 20
internal_value=9.6104e-13 -0.000309887 1.2089e-06 0.000270512 0.00179733 0.00216891 -1.96119e-07 5.99495e-05 -0.000121381 -0.000387928 2.37532e-05 -4.66327e-06 1.83077e-05 2.57738e-05 0.000110968 0.000365321 -0.000572486 -0.000244795 0.000150448 0.000403406 -2.32356e-05 1.07252e-05 -1.24856e-05 0.000287926 9.6468e-05 1.43135e-05 -0.000109937 -0.000234446 0.000154328 4.47669e-05 -0.000130681 -1.01538e-07 0.0002069 0.000328888 0.000274199 0.000131818 0.000413921 6.66442e-05 -1.47324e-05 0.000311262 -7.49198e-06 0.000120674 0.000294499 0.000200501 -0.000179708 -1.45964e-05 -0.00017223 -1.38597e-05 -2.39048e-05 0.000105263 -0.000550374 -6.56893e-05 -0.000783002 -0.000863786 -0.00068874 -0.000318352 -4.44455e-05 7.7671e-05 -0.000101385 -1.0713e-06 0.00268807 0.00242681
internal_weight=118375 460 117915 612 125 105 117303 8110 487 187 5793 109193 27738 26212 3935 573 271 106 2317 244 3519 22277 81455 216 2274 21865 1526 526 1422 300 170 852 205 312 130 105 67 189 169 73 3350 2073 291 249 412 79540 370 79170 44341 1110 78 647 165 144 98 114 1000 318 682 34829 69 41
internal_count=118375 460 117915 612 125 105 117303 8110 487 187 5793 109193 27738 26212 3935 573 271 106 2317 244 3519 22277 81455 216 2274 21865 1526 526 1422 300 170 852 205 312 130 105 67 189 169 73 3350 2073 291 249 412 79540 370 79170 44341 1110 78 647 165 144 98 114 1000 318 682 34829 69 41
is_linear=0
shrinkage=0.02


Tree=8
num_leaves=63
num_cat=0
split_feature=1 6 0 6 7 4 6 0 5 6 7 8 7 0 6 0 5 5 4 5 0 4 7 4 2 3 3 2 1 6 6 3 4 7 7 2 6 7 0 0 1 7 0 0 5 0 8 1 8 0 7 2 5 0 6 2 6 8 7 1 6 6
split_gain=0.106475 0.109431 0.107124 0.879218 0.217556 0.130236 0.0756721 0.0637852 0.0573509 0.0583683 0.0517832 0.0669551 0.0477113 0.107168 0.185558 0.128556 0.214547 0.0485869 0.0481564 0.047524 0.0433606 0.041899 0.0602678 0.0415124 0.032179 0.0618112 0.0306402 0.0305072 0.0292422 0.0289945 0.0292652 0.0277733 0.0325271 0.0271644 0.0265757 0.0353742 0.0287476 0.0265165 0.0254974 0.0246223 0.0245583 0.0365993 0.0257793 0.0210171 0.0203169 0.0298818 0.0221522 0.0200816 0.0200634 0.0301214 0.0303726 0.0199736 0.0196142 0.018991 0.017909 0.0235402 0.0269841 0.0218773 0.0169691 0.0167893 0.016737 0.016558
threshold=0.49788432883687411 0.080227083625487153 0.28541921224907701 0.045528287603444725 1.1195797788725235 0.043731711155160516 0.077505418664557221 -0.09795348822719295 2.5609170129762311 0.061261859932128994 1.1712841456709715 84.15009154637481 1.1102831877830643 0.10869998638836788 0.040549918745639117 0.17489963869931749 1.9556354078890286 1.8779907519711467 0.029071679033613716 0.97893742336084488 0.15787700490959958 0.041889901250578433 0.79489604921384116 0.08419313775632363 -0.22737468671679192 0.030381811621625655 0.030953122829042352 0.25779896839709276 0.099020464916243847 0.057866653839370806 0.080227083625487153 0.090511306773628938 0.077221405600681262 1.099741818217377 1.0657148931287923 0.3240287253141832 0.049250128256037036 1.1900005080821865 0.18611846486846487 0.21854652829407309 0.08306253735538173 1.077469408259822 -0.1695825075288058 0.056057866817256004 0.97893742336084488 -0.1224577964239336 17.167541962225901 0.34755272317772329 82.502894388816941 0.062552713227003967 1.2149170549025108 -0.25007347281264114 1.4098169284847637 -0.022418781048527511 0.042683527688101311 0.49999999999999994 0.050012728535323757 89.352578692495939 1.1063604284980022 0.26867284669733899 0.051366729018413347 0.039633296663496326
decision_type=2 2 2 2 2 2 2 2 2 2 2 2 2 2 2 2 2 2 2 2 2 2 2 2 2 2 2 2 2 2 2 2 2 2 2 2 2 2 2 2 2 2 2 2 2 2 2 2 2 2 2 2 2 2 2 2 2 2 2 2 2 2
left_child=2 8 6 4 5 -4 12 21 9 -2 29 -12 13 18 15 17 -17 -15 24 23 -14 22 -8 39 25 -1 -24 28 51 34 58 53 -33 -30 -5 -36 -37 -22 -39 59 -23 -42 -43 -26 45 -20 -46 60 49 -3 -51 -21 -50 -29 -10 56 -56 -57 -31 -9 -16 -7
right_child=1 48 3 10 -6 61 7 19 54 -11 11 -13 20 14 47 16 -18 -19 44 27 37 40 26 -25 43 -27 -28 31 33 30 -32 32 -34 -35 35 36 -38 38 -40 -41 41 42 -44 -45 46 -47 -48 -49 52 50 -52 -53 -54 -55 55 57 -58 -59 -60 -61 -62 -63
leaf_value=-5.1826202555463181e-05 0.00059433302309896258 0.00055340430799073412 0.0011503711332463556 0.00085475240284577005 -0.00015040943259373308 0.0030092130122440202 0.0012683604185336403 -9.3058235726010616e-06 -0.00022447741856532438 -0.00042480070366556838 -0.00060255858833397399 0.000263833858431705 -3.856927338977906e-05 0.00035488912713407789 7.9429192739659371e-05 0.0018106383187632212 0.00026552603815419034 4.0596361225441156e-05 0.00011532819119254214 0.00026091822487793969 -0.00014350647261392611 9.0442901164923119e-05 -0.00022529354941350625 -0.00032860659869417367 -2.0080561835177185e-05 -0.00043293135587174343 0.00039398138727456735 -0.00032239164833037051 0.0004895875563796588 -0.00056031358313962947 0.00024633617082145067 0.00040845975056205442 -0.00010578492612339466 0.0001141158070728491 -0.00035826174101155053 -0.00011459089971000279 0.00073554669660175361 3.9519331632898401e-05 -0.00053530595825774271 -0.00052041771733579603 0.0008347375686502173 -9.3923124755170511e-05 0.00033908894408945958 2.4362009883994452e-05 -0.00012037430808834914 -4.4221699269963286e-06 3.302928126206824e-05 -0.00041651200642809272 3.4525132738053797e-05 0.00044169981370768732 -0.00044598929720513262 5.7533443255774078e-05 0.0008825742242819009 -1.887086872831622e-05 -0.0017310799676289951 -0.00099918705688670597 -0.00074050391473892056 -0.00041156714845618067 -7.2219342370678121e-05 0.00026185869094370764 1.3766819193647273e-06 0.0023782733478015516
leaf_weight=864 28 28 36 25 20 28 28 3219 21 114 139 48 2584 516 1871 59 92 318 861 249 616 1782 39 169 53262 212 177 97 173 56 56 123 82 139 38 26 41 39 148 37 42 82 167 4626 387 26109 13926 40 20 21 58 861 24 550 22 47 22 55 58 94 2663 41
leaf_count=864 28 28 36 25 20 28 28 3219 21 114 139 48 2584 516 1871 59 92 318 861 249 616 1782 39 169 53262 212 177 97 173 56 56 123 82 139 38 26 41 39 148 37 42 82 167 4626 387 26109 13926 40 20 21 58 861 24 550 22 47 22 55 58 94 2663 41
internal_value=-1.05416e-12 -0.000303689 1.18472e-06 0.000265102 0.00176138 0.00212553 -1.92198e-07 5.87505e-05 -0.000519329 -0.000223845 -0.000118953 -0.000380169 -4.57e-06 -2.20465e-06 8.32715e-05 0.000332273 0.000869245 0.000235051 -6.94456e-06 2.32781e-05 -7.84609e-05 0.000147439 0.000395337 -2.27709e-05 -1.85434e-05 -0.000126914 0.000282168 9.45387e-05 0.000151242 4.38715e-05 -0.000128067 -9.95098e-08 0.000202762 0.00032231 0.000268715 0.000129182 0.000405643 -0.000206829 -0.000415423 -7.34214e-06 0.000118261 0.000288609 0.000196491 -1.6529e-05 9.62188e-06 -5.99216e-07 2.88815e-05 2.96497e-05 0.000137589 -1.02464e-05 -0.000210021 0.000103158 0.000497097 -6.43755e-05 -0.00077058 -0.000849129 -0.00123579 -0.000682333 -0.000311985 -1.61205e-06 3.35858e-05 0.00263431
internal_weight=118375 460 117915 612 125 105 117303 8110 309 142 487 187 109193 105806 5559 985 151 834 100247 5793 3387 2317 244 3519 58964 1076 216 2274 1422 300 170 852 205 312 130 105 67 803 187 3350 2073 291 249 57888 41283 26970 14313 4574 151 107 79 1110 44 647 167 146 44 102 114 3313 4534 69
internal_count=118375 460 117915 612 125 105 117303 8110 309 142 487 187 109193 105806 5559 985 151 834 100247 5793 3387 2317 244 3519 58964 1076 216 2274 1422 300 170 852 205 312 130 105 67 803 187 3350 2073 291 249 57888 41283 26970 14313 4574 151 107 79 1110 44 647 167 146 44 102 114 3313 4534 69
is_linear=0
shrinkage=0.02


Tree=9
num_leaves=63
num_cat=0
split_feature=1 6 0 6 7 4 6 0 7 8 5 7 0 6 0 5 5 6 4 7 4 1 0 7 2 0 7 3 1 5 5 3 3 3 4 2 1 7 0 0 4 6 0 2 4 0 7 1 1 7 0 1 2 0 3 6 6 3 0 8 1 5
split_gain=0.102258 0.105373 0.102882 0.844401 0.20894 0.125079 0.0726755 0.0612593 0.0497326 0.0643037 0.0461671 0.0615404 0.0778007 0.101641 0.0921656 0.045642 0.0428092 0.0638446 0.0404403 0.0727321 0.0398685 0.0359778 0.03538 0.0303123 0.0292992 0.0287266 0.0375657 0.0287105 0.0280843 0.0279137 0.030466 0.0334144 0.0283915 0.0266735 0.031239 0.0266717 0.0247745 0.03515 0.0247584 0.0246476 0.0327525 0.0693735 0.0236472 0.0235315 0.0215754 0.0344009 0.0274577 0.0241496 0.022496 0.0440437 0.0197499 0.0192049 0.0191827 0.0182389 0.0176257 0.0600459 0.0594348 0.0166885 0.0220594 0.0195629 0.0161245 0.0160912
threshold=0.49788432883687411 0.074376415991986425 0.28541921224907701 0.045528287603444725 1.1195797788725235 0.043731711155160516 0.077505418664557221 -0.09795348822719295 1.1712841456709715 84.15009154637481 1.1775775243492059 1.1102831877830643 0.10262694512694516 0.037431071559146635 0.19936070330299041 0.97893742336084488 2.5609170129762311 0.061261859932128994 0.043076969136328365 0.79489604921384116 0.08419313775632363 -0.20037422772088834 -0.07439988833054155 0.88045449290014632 0.25779896839709276 0.16580450648454428 1.1900005080821865 0.030953122829042352 0.099020464916243847 1.8092955803144031 2.0484413548769518 0.062445398026537931 0.078823937013957693 0.090511306773628938 0.077221405600681262 -0.017277871398484353 0.08306253735538173 1.077469408259822 -0.1695825075288058 0.0178020985666183 0.077221405600681262 0.098299700803052878 0.21854652829407309 -0.30306856761411333 0.028952706327047037 0.10869998638836788 1.033215130008309 -0.12585351897768457 0.28900073804062004 1.0614440352728309 0.28541921224907701 0.17620096742367999 -0.25007347281264114 -0.022418781048527511 0.078823937013957693 0.052597542002866211 0.05175879326983103 0.058377247206743615 -0.0059580397448623082 66.652390668729424 0.26867284669733899 1.0358551872444639
decision_type=2 2 2 2 2 2 2 2 2 2 2 2 2 2 2 2 2 2 2 2 2 2 2 2 2 2 2 2 2 2 2 2 2 2 2 2 2 2 2 2 2 2 2 2 2 2 2 2 2 2 2 2 2 2 2 2 2 2 2 2 2 2
left_child=2 16 6 4 5 -4 10 18 29 -10 22 12 21 14 -14 20 17 -2 19 -8 42 43 51 -23 28 57 -27 -21 52 61 -31 -32 -33 53 -35 -30 -20 -38 -39 -3 -41 -42 60 -12 45 47 -47 -24 -46 -50 -19 -1 -17 -26 56 -56 -18 59 -59 -13 -9 -5
right_child=1 39 3 8 -6 -7 7 15 9 -11 11 25 13 -15 -16 24 54 50 36 27 -22 23 44 -25 33 26 -28 -29 35 30 31 32 -34 34 -36 -37 37 38 -40 40 41 -43 -44 -45 48 46 -48 -49 49 -51 -52 -53 -54 -55 55 -57 -58 58 -60 -61 -62 -63
leaf_value=2.9667898719421578e-05 0.0005824463501838701 0.00072877170471474535 0.0011273637219953042 0.00028855578649951066 -0.00014740120898932221 0.0025816206615148249 0.0012317184865584269 -9.119705374518415e-06 -0.00059050741941515667 0.00025855718321205737 -0.00042202243094964487 -0.00040790115444831656 0.0002782532886697635 6.5014966949040841e-05 0.0012117384326563259 0.00025569986107143911 -0.0012804499114281499 -0.00014930520534107929 8.33310415205254e-05 -0.00023042150584626057 -0.00032203447072664772 0.00019299743283725899 -0.00012750385870099787 1.0903959097934997e-05 -0.00031594381402288659 -0.00012648643587324061 -0.00051438927622650984 0.00033900678789333764 0.00069878782675714016 0.00083615856331352217 -0.00045696627149214582 0.00046301875329564937 -0.00021201205142359767 0.00040029055679101513 -0.00010366921601305919 0.00022656541317701341 0.0008180427945972908 -9.2044666202038971e-05 0.00033230716101881005 -0.00025650934556324499 0.00073706319289548055 -0.00057539260402942694 -0.00051000936485424237 -8.2292201350598281e-05 -2.1798953054039008e-06 0.00047054079902531177 4.3058764367051939e-05 -2.5015742006505908e-05 -0.00085792058711927949 -9.0954057651052372e-05 -0.0007963074974553741 -0.00035964699160745915 5.6382765735420259e-05 -1.8493461198522708e-05 0.00020534373961189495 -0.0010022398561704904 -0.00023551475891674109 -0.00026155635609381625 0.00015890354098019088 -6.1429084874530917e-05 0.00025662152315410999 -0.00029813907966599803
leaf_weight=8177 28 20 36 23 20 69 34 3219 139 48 112 73 527 3362 46 249 64 32 1724 42 169 372 941 21493 97 392 134 226 59 26 34 81 36 123 82 253 42 82 167 96 49 24 37 300 31139 97 158 40535 33 324 46 51 861 550 28 40 33 62 256 609 94 100
leaf_count=8177 28 20 36 23 20 69 34 3219 139 48 112 73 527 3362 46 249 64 32 1724 42 169 372 941 21493 97 392 134 226 59 26 34 81 36 123 82 253 42 82 167 96 49 24 37 300 31139 97 158 40535 33 324 46 51 861 550 28 40 33 62 256 609 94 100
internal_value=-4.37125e-13 -0.000297615 1.16103e-06 0.0002598 0.00172615 0.00208302 -1.88354e-07 5.75755e-05 -0.000116574 -0.000372566 -4.4786e-06 1.78068e-05 2.49946e-05 0.000106978 0.000353193 2.28126e-05 -0.000550407 -0.000236787 0.00014449 0.000360319 -2.23155e-05 1.05131e-05 -1.20675e-05 1.4002e-05 9.26479e-05 -0.000105659 -0.000225306 0.000249768 0.000148217 4.29941e-05 0.000203816 9.49353e-05 0.000255317 -9.75245e-08 0.000198707 0.000315864 0.000112143 0.000282837 0.000192561 6.4853e-05 -1.37173e-05 0.000305571 -7.1953e-06 -0.000174646 -1.64858e-05 -2.59171e-05 0.00020567 -2.7341e-05 -3.98972e-06 -0.00016185 -0.000530871 2.72548e-05 0.000101094 -6.3088e-05 -0.000751883 -0.000505 -0.000924957 -4.27243e-05 7.69271e-05 -9.85148e-05 -1.57981e-06 -0.000188432
internal_weight=118375 460 117915 612 125 105 117303 8110 487 187 109193 27738 26212 3935 573 5793 271 106 2317 302 3519 22277 81455 21865 2274 1526 526 268 1422 300 177 151 117 852 205 312 2015 291 249 189 169 73 3350 412 73227 41731 255 41476 31496 357 78 8228 1110 647 165 68 97 1000 318 682 3313 123
internal_count=118375 460 117915 612 125 105 117303 8110 487 187 109193 27738 26212 3935 573 5793 271 106 2317 302 3519 22277 81455 21865 2274 1526 526 268 1422 300 177 151 117 852 205 312 2015 291 249 189 169 73 3350 412 73227 41731 255 41476 31496 357 78 8228 1110 647 165 68 97 1000 318 682 3313 123
is_linear=0
shrinkage=0.02


Tree=10
num_leaves=63
num_cat=0
split_feature=1 6 0 6 7 4 6 0 5 6 7 8 7 0 6 0 5 5 4 5 0 4 7 4 2 3 3 2 6 6 1 1 7 3 4 7 2 0 0 1 7 0 0 0 5 0 8 8 0 7 1 5 2 0 6 2 6 8 7 1 8 6
split_gain=0.0982089 0.10127 0.0988075 0.810963 0.200666 0.120126 0.0697975 0.0588334 0.052829 0.0545924 0.0477632 0.0617573 0.0444151 0.0992642 0.173747 0.121259 0.206958 0.0468164 0.0449999 0.0438346 0.0404122 0.0388869 0.0555209 0.0382897 0.0308286 0.0591248 0.0283328 0.0281389 0.0275856 0.0281545 0.0269721 0.0261113 0.0259599 0.0256172 0.0300019 0.0255555 0.03386 0.0280152 0.0227108 0.0226759 0.0337581 0.023778 0.0221993 0.0198718 0.0193685 0.0284321 0.0209117 0.019221 0.0282823 0.0292822 0.0190942 0.0187932 0.018423 0.0175167 0.0173415 0.0223845 0.0256626 0.0207067 0.0161595 0.016063 0.0159312 0.0159023
threshold=0.49788432883687411 0.080227083625487153 0.28541921224907701 0.045528287603444725 1.1195797788725235 0.043731711155160516 0.077505418664557221 -0.09795348822719295 2.5609170129762311 0.059223317146068877 1.1712841456709715 84.15009154637481 1.1102831877830643 0.10869998638836788 0.040549918745639117 0.17489963869931749 1.9556354078890286 1.8779907519711467 0.029071679033613716 0.97893742336084488 0.15049038334247403 0.041889901250578433 0.79489604921384116 0.08419313775632363 -0.22737468671679192 0.030381811621625655 0.030953122829042352 0.25779896839709276 0.057866653839370806 0.080227083625487153 0.099020464916243847 0.10859800559126144 1.1900005080821865 0.090511306773628938 0.077221405600681262 1.0657148931287923 0.3240287253141832 0.37034381242513087 0.21854652829407309 0.08306253735538173 1.077469408259822 -0.1695825075288058 0.18611846486846487 0.056057866817256004 0.97893742336084488 -0.1224577964239336 17.167541962225901 82.502894388816941 0.062552713227003967 1.2149170549025108 0.34755272317772329 1.4098169284847637 -0.25007347281264114 -0.022418781048527511 0.042683527688101311 0.49999999999999994 0.050012728535323757 89.352578692495939 1.1063604284980022 0.08113039668961787 74.922759328345805 0.039633296663496326
decision_type=2 2 2 2 2 2 2 2 2 2 2 2 2 2 2 2 2 2 2 2 2 2 2 2 2 2 2 2 2 2 2 2 2 2 2 2 2 2 2 2 2 2 2 2 2 2 2 2 2 2 2 2 2 2 2 2 2 2 2 2 2 2
left_child=2 8 6 4 5 -4 12 21 9 -2 28 -12 13 18 15 17 -17 -15 24 23 -14 22 -8 38 25 -1 -24 30 35 58 52 -32 -22 53 -35 -5 -37 -38 -9 -23 -41 -42 -34 -26 45 -20 -46 48 -3 -50 59 -49 -21 -29 -10 56 -56 -57 -30 -16 -60 -7
right_child=1 47 3 10 -6 61 7 19 54 -11 11 -13 20 14 50 16 -18 -19 44 27 32 39 26 -25 43 -27 -28 33 29 -31 31 -33 42 34 -36 36 37 -39 -40 40 41 -43 -44 -45 46 -47 -48 51 49 -51 -52 -53 -54 -55 55 57 -58 -59 60 -61 -62 -63
leaf_value=-5.0515264180190846e-05 0.0007530275220051408 0.00053431655762584086 0.001104816443597277 0.00083612535409629347 -0.00014445316861383617 0.0028973963697041783 0.0012183588583554541 -1.5482153696278736e-06 -0.00020286911699388707 -0.00037428725650152347 -0.00057869724396774518 0.00025338603959729276 -3.4657410319632557e-05 0.00034431516163028726 8.6593559358674358e-05 0.001767207184230309 0.00024966889033195278 3.5801895236740017e-05 0.00011244635570830987 0.00025058586577731502 -0.0001340951853619178 8.6760046067704626e-05 -0.0002161792460202168 -0.00031559377994123825 -1.9362636086575134e-05 -0.00042324679660971082 0.00037932162449332111 -0.00030962493498665617 -0.00054830080667248439 0.00024165422289765308 0.0010086534994770773 0.00026166255872402409 -2.1293057992200679e-05 0.00039228475117881795 -0.00010159583439306561 -0.00035227848939891704 0.00068105022300086495 -0.00018980710298902438 -0.00049980917095986978 0.00080168193383585841 -9.0203769655866983e-05 0.0003256610226081991 -0.0005162603193496801 2.385204630759925e-05 -0.00011686600451956284 -4.3630904154251422e-06 3.2180377902831769e-05 3.1935975886881354e-05 0.00043447951708609859 -0.00043712942074213565 -0.00040678478308836931 0.00086204580715275368 5.5255112606166991e-05 -1.8123591016575865e-05 -0.001677602940577675 -0.00096315409245088389 -0.00071158848618241874 -0.00039147159651937812 -0.00039222054323181509 6.098963638157017e-06 0.00027110839661742959 0.0022790754759093612
leaf_weight=864 20 28 36 25 20 28 28 3313 21 122 139 48 2504 516 1465 59 92 318 861 249 687 1782 39 169 53262 212 177 97 56 56 20 292 48 123 82 38 45 22 37 42 82 167 148 4626 387 26109 13926 20 21 58 40 24 861 550 22 47 22 55 30 3069 28 41
leaf_count=864 20 28 36 25 20 28 28 3313 21 122 139 48 2504 516 1465 59 92 318 861 249 687 1782 39 169 53262 212 177 97 56 56 20 292 48 123 82 38 45 22 37 42 82 167 148 4626 387 26109 13926 20 21 58 40 24 861 550 22 47 22 55 30 3069 28 41
internal_value=-8.58192e-14 -0.000291663 1.13781e-06 0.000254604 0.00169163 0.00204136 -1.84586e-07 5.6424e-05 -0.000499107 -0.000215511 -0.000114243 -0.000365114 -4.38903e-06 -2.10685e-06 8.01569e-05 0.000321103 0.000842614 0.000226681 -6.66862e-06 2.23563e-05 -7.56818e-05 0.000141601 0.000380422 -2.18691e-05 -1.78809e-05 -0.000123953 0.000271801 9.07949e-05 4.21342e-05 -0.000125575 0.000145253 0.000309547 -0.000192018 -9.55725e-08 0.000194733 0.000261447 0.000124618 0.000395097 -7.0514e-06 0.00011349 0.00027718 0.00018871 -0.000395044 -1.59092e-05 9.34567e-06 -6.34024e-07 2.81504e-05 0.000132843 -1.18558e-05 -0.000205436 2.82698e-05 0.000484723 9.90726e-05 -6.18263e-05 -0.000740249 -0.000817544 -0.0011946 -0.000654894 -0.000305969 3.21079e-05 -7.19928e-05 0.00252999
internal_weight=118375 460 117915 612 125 105 117303 8110 309 142 487 187 109193 105806 5559 985 151 834 100247 5793 3387 2317 244 3519 58964 1076 216 2274 300 170 1422 312 883 852 205 130 105 67 3350 2073 291 249 196 57888 41283 26970 14313 151 107 79 4574 44 1110 647 167 146 44 102 114 4534 58 69
internal_count=118375 460 117915 612 125 105 117303 8110 309 142 487 187 109193 105806 5559 985 151 834 100247 5793 3387 2317 244 3519 58964 1076 216 2274 300 170 1422 312 883 852 205 130 105 67 3350 2073 291 249 196 57888 41283 26970 14313 151 107 79 4574 44 1110 647 167 146 44 102 114 4534 58 69
is_linear=0
shrinkage=0.02


Tree=11
num_leaves=63
num_cat=0
split_feature=1 6 0 6 7 4 6 0 7 8 5 7 0 6 0 5 5 6 4 7 4 1 0 3 2 5 5 3 0 7 1 2 3 4 2 0 4 0 4 0 1 7 4 0 1 3 7 5 5 4 3 6 6 0 3 2 5 3 3 0 8 8
split_gain=0.0943198 0.0975791 0.0948947 0.778849 0.19272 0.115369 0.0670336 0.0565036 0.0458717 0.0593117 0.0435333 0.0570391 0.0722585 0.0951409 0.0866484 0.0420987 0.0392431 0.0595196 0.0375105 0.0675976 0.0367734 0.0340107 0.0339278 0.0294049 0.0270246 0.0266235 0.0300702 0.026574 0.0265399 0.0349034 0.025904 0.0256426 0.0246028 0.0288138 0.0233753 0.0229835 0.0314401 0.0674123 0.0223124 0.0218114 0.0204158 0.0416117 0.0217718 0.0323807 0.0194453 0.0192295 0.0262912 0.0192021 0.0178559 0.017028 0.016951 0.0574428 0.0566786 0.016823 0.0167621 0.0167429 0.0166595 0.0221107 0.0160045 0.0211965 0.0187973 0.0156484
threshold=0.49788432883687411 0.074376415991986425 0.28541921224907701 0.045528287603444725 1.1195797788725235 0.043731711155160516 0.077505418664557221 -0.09795348822719295 1.1712841456709715 84.15009154637481 1.1775775243492059 1.1102831877830643 0.10262694512694516 0.037431071559146635 0.19936070330299041 0.97893742336084488 2.5609170129762311 0.061261859932128994 0.043076969136328365 0.79489604921384116 0.08419313775632363 -0.20037422772088834 -0.11495871248034127 0.022504773123167704 0.25779896839709276 1.8092955803144031 3.9016908765343286 0.030953122829042352 0.16580450648454428 1.1900005080821865 0.099020464916243847 -0.017277871398484353 0.090511306773628938 0.077221405600681262 0.10195077689356492 0.0178020985666183 0.077221405600681262 0.21854652829407309 0.032486157639080283 0.21854652829407309 0.28900073804062004 1.0614440352728309 0.028952706327047037 0.10869998638836788 0.08306253735538173 0.063854593427267486 1.0643160563518101 1.9149340461806112 2.324174425563676 0.050182602811852432 0.078823937013957693 0.052597542002866211 0.05175879326983103 -0.022418781048527511 0.067144687493836078 0.17127322633223166 0.96311524678638782 0.040450981068971222 0.058377247206743615 0.0091444681867234329 66.652390668729424 13.624860903561499
decision_type=2 2 2 2 2 2 2 2 2 2 2 2 2 2 2 2 2 2 2 2 2 2 2 2 2 2 2 2 2 2 2 2 2 2 2 2 2 2 2 2 2 2 2 2 2 2 2 2 2 2 2 2 2 2 2 2 2 2 2 2 2 2
left_child=2 16 6 4 5 -4 10 18 25 -10 22 12 21 14 -14 20 17 -2 19 -8 39 38 -1 -23 30 -5 45 -21 58 -30 48 -32 53 -34 44 -3 -37 -38 -12 -9 42 -42 43 -24 -20 49 -47 -19 -17 -27 52 -52 -18 -26 -44 -43 57 -36 60 -60 -13 -29
right_child=1 35 3 8 -6 -7 7 15 9 -11 11 28 13 -15 -16 24 50 47 34 27 -22 23 40 -25 32 26 -28 61 29 -31 31 -33 33 -35 56 36 37 -39 -40 -41 41 55 54 -45 -46 46 -48 -49 -50 -51 51 -53 -54 -55 -56 -57 -58 -59 59 -61 -62 -63
leaf_value=7.1516836825061405e-05 0.00056217867498552167 0.00070409083063714217 0.0010827201245249146 -0.00018472286926987544 -0.00014156412472948434 0.0024793885316213835 0.0011867107867318042 -1.5172522752228822e-06 -0.00056712332485861765 0.00024831831758395613 -0.00033764458032501814 -0.00039894101410874557 0.00026881843612738392 6.2669421960602926e-05 0.0011739328669627077 0.00011046037129859474 -0.0012388763396302238 -0.00028444205246427483 5.6623365043946212e-05 -0.00022192227931684881 -0.00030928190544760129 -1.7564990622469163e-05 -2.3565465281451421e-05 3.0903457425878776e-05 -0.00030343243777847934 0.00033291823200020841 -0.00031755254202936261 0.0006692312205167012 -0.0001212748025285023 -0.00049517993777886096 0.00067881915656163084 0.0002157969848996131 0.00038443904642651718 -9.9563922927567238e-05 -0.00034042847209743091 -0.00025077387061173795 -0.00047055674134753643 0.00077934431212229856 -4.0719411577584718e-05 -0.00048981298768037071 -0.00083968025124208495 0.00022720133817562816 -2.8681016442561798e-06 0.00020424252702073989 0.000669650472257109 0.0011221990406158424 0.00031665239977473258 -0.00094404889408636979 -0.00038420271704671903 -0.00042047367209479923 0.00021489307009947618 -0.00096622497751377523 -0.00021845715289766141 -1.7761116003120234e-05 0.00011068373835411022 -0.0001570989927172586 5.3979329638613585e-05 0.00032694479021321894 -0.00022299718405183866 0.00016527070586179975 -5.9316005142102069e-05 0.00024523746136854573
leaf_weight=1915 28 20 36 123 20 69 34 3313 139 48 179 73 527 3362 46 1080 64 51 1436 42 169 7763 44090 14102 97 28 36 43 392 134 59 253 123 82 21 96 28 45 233 37 33 54 34301 251 21 21 71 27 30 21 28 40 33 550 528 283 172 365 73 245 609 183
leaf_count=1915 28 20 36 123 20 69 34 3313 139 48 179 73 527 3362 46 1080 64 51 1436 42 169 7763 44090 14102 97 28 36 43 392 134 59 253 123 82 21 96 28 45 233 37 33 54 34301 251 21 21 71 27 30 21 28 40 33 550 528 283 172 365 73 245 609 183
internal_value=1.0561e-12 -0.00028583 1.11506e-06 0.000249512 0.0016578 0.00200053 -1.80893e-07 5.52955e-05 -0.000111958 -0.000357812 -4.30125e-06 1.73391e-05 2.42591e-05 0.000103269 0.00034148 2.19092e-05 -0.000529092 -0.000228819 0.000138769 0.000346632 -2.14318e-05 1.03029e-05 -1.16705e-05 1.36951e-05 8.8979e-05 4.12915e-05 0.000198352 0.000240055 -0.000101525 -0.000216528 0.000142347 0.000303356 -9.36611e-08 0.000190838 0.000107615 6.29758e-05 -1.28958e-05 0.00029993 -0.000169723 -6.91037e-06 -1.36733e-05 -0.000161891 -1.29806e-05 -2.22759e-05 6.5459e-05 0.000330073 0.000500527 -0.000512767 9.70911e-05 1.0036e-05 -0.000721995 -0.000479882 -0.000891723 -6.05897e-05 -1.14668e-06 -9.55197e-05 0.000217689 0.000290637 -4.10336e-05 7.614e-05 -9.56688e-05 0.000325909
internal_weight=118375 460 117915 612 125 105 117303 8110 487 187 109193 27738 26212 3935 573 5793 271 106 2317 302 3519 22277 81455 21865 2274 300 177 268 1526 526 1422 312 852 205 2015 189 169 73 412 3350 79540 370 79170 44341 1457 141 92 78 1110 49 165 68 97 647 34829 337 558 386 1000 318 682 226
internal_count=118375 460 117915 612 125 105 117303 8110 487 187 109193 27738 26212 3935 573 5793 271 106 2317 302 3519 22277 81455 21865 2274 300 177 268 1526 526 1422 312 852 205 2015 189 169 73 412 3350 79540 370 79170 44341 1457 141 92 78 1110 49 165 68 97 647 34829 337 558 386 1000 318 682 226
is_linear=0
shrinkage=0.02


Tree=12
num_leaves=63
num_cat=0
split_feature=1 6 0 6 7 4 3 0 6 5 7 2 6 0 7 4 4 5 7 8 5 6 6 3 7 0 6 1 4 6 6 1 4 7 2 5 8 0 7 3 5 0 0 0 1 4 0 5 3 6 6 7 6 4 8 6 5 6 6 5 5 5
split_gain=0.0905848 0.0937356 0.0911369 0.748006 0.185088 0.1108 0.0646815 0.065487 0.114358 0.169929 0.116649 0.0902217 0.0503598 0.0803162 0.0474021 0.0559172 0.0511632 0.0594005 0.0440552 0.0569629 0.0427885 0.0531481 0.0335864 0.0335326 0.0451159 0.0644434 0.0351628 0.0349544 0.0317948 0.0262509 0.0271241 0.0256952 0.0248815 0.0499385 0.0589063 0.0257431 0.0243896 0.0306541 0.0315862 0.0216272 0.0276501 0.0252112 0.0206737 0.0198734 0.0191408 0.0178511 0.0335534 0.0168047 0.0165581 0.0544342 0.054342 0.0155905 0.0152726 0.0311662 0.0152688 0.0144138 0.0350494 0.0125793 0.0123712 0.0121318 0.0118607 0.0116589
threshold=0.49788432883687411 0.078338996527932483 0.28541921224907701 0.045528287603444725 1.1195797788725235 0.043731711155160516 0.036376167188329825 0.12371012624816548 0.035818181873135145 1.9556354078890286 1.0643160563518101 0.12057865519901768 0.037431071559146635 0.19936070330299041 0.86072281664835748 0.031523059707850583 0.053994087434506392 1.460080941058211 1.1712841456709715 84.15009154637481 2.5609170129762311 0.061261859932128994 0.063915561548128483 0.090511306773628938 1.096581321555212 0.21854652829407309 0.075863668794301328 0.39928904559583261 0.080166771924479366 0.057866653839370806 0.080227083625487153 0.18239106293913857 0.051349686846483077 1.0910178943371271 0.33854599696777027 2.2427344201043335 82.502894388816941 0.062552713227003967 1.2149170549025108 0.019325498819968322 1.1465493008056729 -0.047839357099548833 0.37034381242513087 0.063907379961318581 -0.16350844305809667 0.075228329276356018 0.19936070330299041 1.4098169284847637 0.078823937013957693 0.05175879326983103 0.052597542002866211 1.1063604284980022 0.039633296663496326 0.051349686846483077 74.922759328345805 0.040844470127353094 1.219156483145716 0.065440904306732647 0.054080123012280885 1.1775775243492059 1.5991039377938052 1.9149340461806112
decision_type=2 2 2 2 2 2 2 2 2 2 2 2 2 2 2 2 2 2 2 2 2 2 2 2 2 2 2 2 2 2 2 2 2 2 2 2 2 2 2 2 2 2 2 2 2 2 2 2 2 2 2 2 2 2 2 2 2 2 2 2 2 2
left_child=2 20 6 4 5 -4 7 31 9 10 11 -9 13 -8 15 -14 17 -17 29 -20 21 -2 55 24 27 -26 -25 -16 -28 32 51 39 35 -34 -35 -5 37 -3 -39 -1 41 -41 -23 -42 -18 -40 -47 -38 49 -22 -50 57 -7 -54 -53 56 -10 -31 -33 -24 -32 -44
right_child=1 36 3 18 -6 52 12 8 22 -11 -12 -13 14 -15 23 16 44 -19 19 -21 48 42 59 26 25 -27 28 -29 -30 30 60 58 33 34 -36 -37 47 38 45 40 43 -43 61 -45 -46 46 -48 -49 50 -51 -52 54 53 -55 -56 -57 -58 -59 -60 -61 -62 -63
leaf_value=-2.4925478356436299e-05 0.00055093512072094855 0.00051668285325701742 0.0010610657063726751 0.00041437889281345031 -0.00013873288035392761 0.0027898607030510903 0.00015018543564183123 0.0010229453266820991 0.00058527544902504556 -2.2488675663654883e-05 0.00017047872985939547 0.0024793640501728212 -0.00088498054892711703 0.0011823568154579482 2.5621861634347815e-05 0.00014994482015026733 -2.7890274345721826e-07 0.0005677547058586046 -0.00055578085834875695 0.00024335194187491044 -0.0012140988103419659 -0.00019933823125864396 -0.00020591685775798397 -0.00028456074405382848 -2.0444108934590236e-05 -0.00028597876664280197 0.00025779851852611256 -0.00077195470348339192 -3.1735495564213994e-05 -0.00091086855893742977 1.1852308442550046e-05 -7.3864476362740252e-05 0.0012198824236169458 -0.00065169839442453593 0.0007207167354123347 -0.00046442357579750635 4.0848155816396074e-05 0.00042911811709581387 -0.00091096521223611813 1.4749482138566813e-05 8.6755968720118518e-06 -2.0447837328164622e-05 -0.00043448911630548535 6.6802021275483845e-05 0.00031190544792884285 -0.00078310332394072001 0.00034748310245396127 0.00078373253351009199 0.00021059523270066296 -0.00021408801616141289 -0.00093241837352695998 -0.00038387782592326405 0.0016457786552962802 0.0027489400999620556 0.00026551484729030303 3.5501032277427392e-05 7.0017908579334182e-05 -0.00029710418931619431 -0.00025317376933500606 -0.00083383606999996114 0.00061307529564059917 -0.0011092117814613242
leaf_weight=27479 28 28 36 24 20 28 163 46 70 106 36 27 21 37 23558 409 618 204 139 48 64 61 32 71 4250 400 568 22 207 22 35 478 25 22 29 30 21 21 23 10957 11351 31664 20 2968 90 21 21 29 28 33 41 30 21 20 28 1009 215 34 227 20 21 21
leaf_count=27479 28 28 36 24 20 28 163 46 70 106 36 27 21 37 23558 409 618 204 139 48 64 61 32 71 4250 400 568 22 207 22 35 478 25 22 29 30 21 21 23 10957 11351 31664 20 2968 90 21 21 29 28 33 41 30 21 20 28 1009 215 34 227 20 21 21
internal_value=7.59361e-13 -0.000280113 1.09275e-06 0.000244521 0.00162464 0.00196052 -1.77276e-07 -9.00364e-06 0.000119365 0.000547683 0.00110216 0.00156162 2.48117e-05 0.000341137 2.27319e-05 0.000138945 0.000155222 0.000288988 -0.000109719 -0.000350656 -0.000492623 -0.000220898 5.09492e-05 1.73681e-05 1.36499e-05 -4.32858e-05 0.000141438 2.48777e-05 0.000180465 4.04657e-05 -0.000123136 -1.13577e-05 0.000254407 0.000487638 0.000128695 -7.38447e-05 0.000103442 -5.80844e-05 -0.000245218 -1.03535e-05 -3.32113e-06 -1.13993e-05 -0.000432773 2.07239e-05 3.94055e-05 -0.00046308 -0.00021781 0.000471721 -0.00070542 -0.000873889 -0.000468587 -0.000300198 0.0024298 0.00218391 -7.03779e-05 7.09766e-05 0.000196572 -0.000538226 -0.0001316 -0.000447424 0.000237311 -0.000780079
internal_weight=118375 460 117915 612 125 105 117303 86685 1561 215 109 73 30618 200 30418 1342 1321 613 487 187 296 130 1346 29076 28230 4650 846 23580 775 300 170 85124 130 76 51 54 164 114 86 84419 56940 42621 102 14319 708 65 42 50 166 97 69 114 69 41 58 1294 285 56 705 52 56 41
internal_count=118375 460 117915 612 125 105 117303 86685 1561 215 109 73 30618 200 30418 1342 1321 613 487 187 296 130 1346 29076 28230 4650 846 23580 775 300 170 85124 130 76 51 54 164 114 86 84419 56940 42621 102 14319 708 65 42 50 166 97 69 114 69 41 58 1294 285 56 705 52 56 41
is_linear=0
shrinkage=0.02


Tree=13
num_leaves=63
num_cat=0
split_feature=1 6 0 6 7 4 6 0 7 8 5 7 0 6 0 5 4 7 5 6 4 1 0 7 0 4 6 3 2 5 5 1 7 0 7 3 4 2 2 0 5 2 4 0 7 1 1 7 1 3 6 6 2 5 8 1 3 0 8 5 8 0
split_gain=0.0869976 0.0905609 0.0875279 0.718385 0.177759 0.106413 0.0625301 0.0535265 0.0423106 0.0547072 0.0405028 0.0533223 0.0678525 0.0882119 0.0728072 0.0401385 0.0354505 0.050683 0.035353 0.0602657 0.0352151 0.0328208 0.0321532 0.0286223 0.026492 0.0278031 0.0570371 0.0258886 0.0257755 0.0253303 0.029097 0.0250025 0.0250845 0.0248174 0.0333046 0.0228576 0.0272133 0.0221395 0.0216154 0.0207153 0.0189254 0.0292828 0.0187121 0.0296759 0.025843 0.0231118 0.0199155 0.040746 0.0184324 0.0182613 0.0536848 0.0437215 0.0174748 0.0164652 0.0156703 0.015518 0.0154203 0.0204078 0.0180509 0.015414 0.0148634 0.0146708
threshold=0.49788432883687411 0.069529426460320787 0.28541921224907701 0.045528287603444725 1.1195797788725235 0.043731711155160516 0.077505418664557221 -0.09795348822719295 1.1712841456709715 84.15009154637481 1.1775775243492059 1.1102831877830643 0.10262694512694516 0.038452191947973634 0.18611846486846487 0.97893742336084488 0.041889901250578433 0.79489604921384116 2.5609170129762311 0.061602328216196829 0.08419313775632363 -0.20037422772088834 -0.07439988833054155 0.88045449290014632 0.0178020985666183 0.077221405600681262 0.098299700803052878 0.030953122829042352 0.25779896839709276 1.8092955803144031 3.9016908765343286 0.099020464916243847 1.099741818217377 0.16580450648454428 1.1900005080821865 0.090511306773628938 0.077221405600681262 -0.30306856761411333 0.3240287253141832 0.21854652829407309 2.0484413548769518 0.3240287253141832 0.028952706327047037 0.10869998638836788 1.033215130008309 -0.12585351897768457 0.28900073804062004 1.0576931332970168 0.17620096742367999 0.078823937013957693 0.052597542002866211 0.05175879326983103 -0.25007347281264114 1.1233379425902656 82.502894388816941 0.26867284669733899 0.058377247206743615 -0.0059580397448623082 66.652390668729424 1.0358551872444639 11.110928109970823 0.17489963869931749
decision_type=2 2 2 2 2 2 2 2 2 2 2 2 2 2 2 2 2 2 2 2 2 2 2 2 2 2 2 2 2 2 2 2 2 2 2 2 2 2 2 2 2 2 2 2 2 2 2 2 2 2 2 2 2 2 2 2 2 2 2 2 2 2
left_child=2 18 6 4 5 -4 10 16 29 -10 22 12 21 14 -14 20 17 -8 19 -2 39 37 48 -23 -3 -26 54 -19 31 59 40 52 -33 56 -35 53 -37 -12 -18 55 -31 -42 43 45 -45 -24 61 -48 -1 51 -51 -20 -17 -30 -27 -9 58 -58 -13 -5 -29 -44
right_child=1 24 3 8 -6 -7 7 15 9 -11 11 33 13 -15 -16 28 38 27 49 -21 -22 23 42 -25 25 26 -28 60 35 30 -32 32 -34 34 -36 36 -38 -39 -40 -41 41 -43 46 44 -46 -47 47 -49 -50 50 -52 -53 -54 -55 -56 -57 57 -59 -60 -61 -62 -63
leaf_value=2.8588938078013832e-05 0.00048963149633979601 0.00069308142005909418 0.0010398444003011616 0.00028604338107549628 -0.0001359582026489079 0.0023812046989906523 0.0011632735162441219 -9.3384737564415216e-06 -0.00054466522481332687 0.00023848490436648718 -0.00040690977384136729 -0.00039052940152381379 0.00023813997059983044 5.6962301480335306e-05 0.00092391513958252781 0.00024162282064453284 9.0298504231221889e-05 -0.00020756209161705696 -0.0011898168298694145 -0.00064638002300040518 -0.00030309323054055008 0.00018715339345949506 -0.00012356616486065332 1.0208879172802835e-05 -0.00023825111237519813 0.00034531558718299494 -0.00055892031911450128 0.00086119688914290497 8.819722154483949e-05 0.00080973607432007638 -0.00031463284304158556 0.00045744953667300868 9.6638571002383267e-05 -0.00011636830965081961 -0.00048160954507829281 0.00037159430194358401 -9.877400065306575e-05 -7.7381421799024483e-05 0.00034596615158489575 -0.0004778091248905135 -0.00011532920695442175 0.00052317715768891747 -3.7595147585366357e-06 0.00044780369855813948 3.3081497338663454e-05 -2.3304380202744809e-05 -0.00087094882936698608 -8.8833582735898701e-05 -0.00035281538627767828 0.00020638330440436091 -0.00094775183236618578 -0.00027471729884705236 5.1385426027699802e-05 -0.00012810149189119164 0.0010589563781395555 0.0002513574483275582 -0.00025026117789468937 0.0001541529793369989 -5.7715448334011015e-05 -0.00028817455484531822 0.00029443044645048735 0.00011374232743387576
leaf_weight=8177 31 21 36 23 20 69 28 3219 139 48 112 73 604 3262 69 249 1931 39 64 47 169 372 941 21493 124 32 24 21 207 26 36 173 139 392 134 123 82 300 142 37 56 59 30708 97 158 40535 29 328 51 28 38 31 861 440 20 94 62 256 609 100 156 431
leaf_count=8177 31 21 36 23 20 69 28 3219 139 48 112 73 604 3262 69 249 1931 39 64 47 169 372 941 21493 124 32 24 21 207 26 36 173 139 392 134 123 82 300 142 37 56 59 30708 97 158 40535 29 328 51 28 38 31 861 440 20 94 62 256 609 100 156 431
internal_value=-1.01075e-12 -0.000274511 1.0709e-06 0.000239631 0.00159215 0.00192131 -1.73732e-07 5.34068e-05 -0.000107524 -0.000343643 -4.15327e-06 1.67203e-05 2.3411e-05 9.9974e-05 0.00030845 2.09119e-05 0.000134651 0.000362676 -0.000544358 -0.000194888 -2.1408e-05 9.88698e-06 -1.12614e-05 1.32193e-05 1.73154e-05 -5.364e-05 0.000247568 0.000258895 8.64016e-05 3.96564e-05 0.000192855 0.000138522 0.000296704 -9.82061e-05 -0.000209415 -5.88263e-07 0.000183447 -0.000166962 0.000107812 -7.19758e-06 0.000322427 0.000212252 -1.54734e-05 -2.42567e-05 0.000190839 -2.55791e-05 -3.83602e-06 -0.000152367 2.62249e-05 -0.000713667 -0.000458119 -0.000891205 9.40603e-05 -5.88993e-05 0.000619793 -1.94173e-06 -3.97104e-05 7.53049e-05 -9.33392e-05 -0.0001808 0.000361674 -2.13315e-06
internal_weight=118375 460 117915 612 125 105 117303 8110 487 187 109193 27738 26212 3935 673 5793 2317 244 239 78 3519 22277 81455 21865 221 200 76 216 2274 300 177 1422 312 1526 526 852 205 412 2073 3350 141 115 73227 41731 255 41476 31496 357 8228 161 66 95 1110 647 52 3313 1000 318 682 123 177 31139
internal_count=118375 460 117915 612 125 105 117303 8110 487 187 109193 27738 26212 3935 673 5793 2317 244 239 78 3519 22277 81455 21865 221 200 76 216 2274 300 177 1422 312 1526 526 852 205 412 2073 3350 141 115 73227 41731 255 41476 31496 357 8228 161 66 95 1110 647 52 3313 1000 318 682 123 177 31139
is_linear=0
shrinkage=0.02


Tree=14
num_leaves=63
num_cat=0
split_feature=1 6 0 6 7 4 3 0 6 5 7 2 6 0 7 4 4 5 7 8 5 6 6 4 7 2 6 3 7 0 1 6 4 5 0 4 6 1 2 6 3 5 0 0 1 6 2 8 6 8 7 6 4 2 6 5 0 4 6 7 8 1
split_gain=0.0835525 0.0869747 0.0840618 0.689937 0.17072 0.102199 0.0604895 0.0611951 0.107535 0.163611 0.111723 0.0865207 0.0470286 0.0747739 0.0443341 0.0533905 0.0485464 0.0561126 0.0406616 0.0392232 0.033953 0.0578792 0.0320846 0.0322247 0.0362719 0.0386115 0.0320199 0.0312953 0.0421944 0.0607795 0.0335921 0.0330472 0.0298423 0.0294842 0.0254429 0.0267021 0.0547784 0.024678 0.0225272 0.0224957 0.0203551 0.0257198 0.023695 0.0187358 0.0183508 0.0181978 0.0243126 0.0201998 0.0190651 0.0150497 0.0149005 0.0146678 0.029932 0.0138454 0.013498 0.0337897 0.0123955 0.0123178 0.0120359 0.0119408 0.0118773 0.0131464
threshold=0.49788432883687411 0.069529426460320787 0.28541921224907701 0.045528287603444725 1.1195797788725235 0.043731711155160516 0.036376167188329825 0.12371012624816548 0.035818181873135145 1.9556354078890286 1.0643160563518101 0.12057865519901768 0.037431071559146635 0.19936070330299041 0.86072281664835748 0.031523059707850583 0.053994087434506392 1.460080941058211 1.1571953686898462 84.15009154637481 2.5609170129762311 0.061602328216196829 0.057866653839370806 0.051349686846483077 1.0910178943371271 0.37320149734770774 0.063915561548128483 0.090511306773628938 1.096581321555212 0.21854652829407309 0.39928904559583261 0.075863668794301328 0.080166771924479366 2.2427344201043335 0.0178020985666183 0.077221405600681262 0.098299700803052878 0.18239106293913857 0.55958524998114778 0.080227083625487153 0.019325498819968322 1.1465493008056729 -0.047839357099548833 0.063907379961318581 -0.16350844305809667 0.042683527688101311 0.49999999999999994 89.352578692495939 0.050012728535323757 82.502894388816941 1.1063604284980022 0.039633296663496326 0.051349686846483077 0.3240287253141832 0.040844470127353094 1.219156483145716 0.17489963869931749 0.065796558594560295 0.065440904306732647 1.1712841456709715 84.15009154637481 0.19632189398493985
decision_type=2 2 2 2 2 2 2 2 2 2 2 2 2 2 2 2 2 2 2 2 2 2 2 2 2 2 2 2 2 2 2 2 2 2 2 2 2 2 2 2 2 2 2 2 2 2 2 2 2 2 2 2 2 2 2 2 2 2 2 2 2 2
left_child=2 20 6 4 5 -4 7 37 9 10 11 -9 13 -8 15 -14 17 -17 22 59 21 -2 23 33 -25 -26 54 28 30 -30 -16 -29 -33 -5 -3 56 49 40 -21 50 -1 42 -42 -43 -18 -22 48 57 -47 -37 58 -7 -53 -41 55 -10 -36 -48 -24 -20 -39 -62
right_child=1 34 3 18 -6 51 12 8 26 -11 -12 -13 14 -15 27 16 44 -19 19 38 45 -23 39 24 25 -27 -28 31 29 -31 -32 32 -34 -35 35 36 -38 60 -40 53 41 43 -44 -45 -46 46 47 -49 -50 -51 -52 52 -54 -55 -56 -57 -58 -59 -60 -61 61 -63
leaf_value=-2.4134215714868029e-05 0.00047983884330718749 0.00067921979535770201 0.0010190475111206373 0.00049216781361749212 -0.00013323903875425458 0.0026864393255008117 0.00014543385028502006 0.00099694260871531341 0.00057179103246224783 -2.874257641417229e-05 0.00016300568708478143 0.0024231760338362723 -0.00086614884882389265 0.0011413560500620184 2.4793923940746622e-05 0.00014543998306776535 -1.3928143973410954e-06 0.00055152194962098365 -7.4138393177202453e-05 0.00051337620285325574 -0.00015038254648624432 -0.00063345241865658374 -0.00089112785348499375 0.0011960796706378461 -0.00040461298078298569 0.00079694221525088605 -0.00043757068691215511 -0.00027632696536028577 -1.9672322825636537e-05 -0.00027754812823113753 -0.00075708594596521426 0.00024941398361032902 -3.1089185705298226e-05 -0.00049184624860384345 2.690146746792142e-05 0.00033840928030258509 -0.00054774193908087906 -0.00016238793271218098 -0.00031272923978774444 0.0004590468322567176 1.4384330886810071e-05 8.3172810637835855e-06 -1.9738239317799461e-05 6.4755547452328993e-05 0.00030428157096321231 -0.0015906253084540366 -0.0012775088083885966 -0.00035001232155115796 -0.00073743035458028329 0.0010377772776409984 -2.4822807598223048e-05 0.0015652389842129889 0.0026463370863348246 -0.00021175541263073684 3.4266204632532219e-05 6.5877305730218939e-05 -0.00038704799443411715 -0.00060754761018830792 -0.00029076686841161814 -0.00053377191368624466 -0.00036046022379940208 0.0001923410695332067
leaf_weight=27479 31 21 36 21 20 28 163 46 70 106 36 27 21 37 23558 409 618 204 27 31 21 47 22 25 20 23 52 71 4250 400 22 568 207 29 46 32 24 604 23 32 10957 11351 31664 2968 90 22 21 54 20 20 41 21 20 20 1009 215 78 23 34 139 22 79
leaf_count=27479 31 21 36 21 20 28 163 46 70 106 36 27 21 37 23558 409 618 204 27 31 21 47 22 25 20 23 52 71 4250 400 22 568 207 29 46 32 24 604 23 32 10957 11351 31664 2968 90 22 21 54 20 20 41 21 20 20 1009 215 78 23 34 139 22 79
internal_value=-7.53958e-13 -0.00026902 1.04948e-06 0.000234838 0.0015603 0.00188288 -1.70257e-07 -8.70582e-06 0.000115385 0.000530728 0.0010748 0.00152445 2.39954e-05 0.000329679 2.19855e-05 0.000134375 0.00015028 0.00028058 -0.000105374 -0.000306701 -0.000533471 -0.000190991 6.05137e-05 0.000306876 0.000590285 0.000238079 4.90415e-05 1.67982e-05 1.32063e-05 -4.18552e-05 2.40644e-05 0.000136658 0.000174492 -7.85603e-05 1.69691e-05 -5.25672e-05 0.000242616 -1.09814e-05 0.000161516 -0.000134592 -9.99731e-06 -3.1749e-06 -1.0966e-05 2.00156e-05 3.74641e-05 -0.000699393 -0.000781745 -0.000609204 -0.00118434 0.000607397 -0.000314522 0.00233358 0.0020926 0.000201046 6.85963e-05 0.000190137 -0.000233486 -0.000927302 -0.000526623 -0.000459012 -0.000128819 7.19289e-05
internal_weight=118375 460 117915 612 125 105 117303 86685 1561 215 109 73 30618 200 30418 1342 1321 613 487 220 239 78 267 118 68 43 1346 29076 28230 4650 23580 846 775 50 221 200 76 85124 54 149 84419 56940 42621 14319 708 161 140 98 42 52 97 69 41 52 1294 285 124 44 56 166 705 101
internal_count=118375 460 117915 612 125 105 117303 86685 1561 215 109 73 30618 200 30418 1342 1321 613 487 220 239 78 267 118 68 43 1346 29076 28230 4650 23580 846 775 50 221 200 76 85124 54 149 84419 56940 42621 14319 708 161 140 98 42 52 97 69 41 52 1294 285 124 44 56 166 705 101
is_linear=0
shrinkage=0.02


Tree=15
num_leaves=63
num_cat=0
split_feature=1 6 0 6 7 4 6 0 5 6 7 5 7 0 6 0 5 7 4 8 0 4 7 4 6 4 7 2 2 3 5 2 0 3 1 6 7 2 2 6 3 4 0 0 1 5 0 1 6 5 0 1 2 8 0 4 0 5 6 6 8 5
split_gain=0.0802438 0.0836347 0.0807329 0.662616 0.163959 0.0981516 0.0583237 0.0507122 0.0429608 0.0463811 0.0390514 0.0382947 0.0382887 0.0833667 0.149114 0.107837 0.196871 0.0432272 0.0384699 0.03767 0.0350843 0.0336711 0.0613953 0.0335835 0.030814 0.0309486 0.0348356 0.0370825 0.0295995 0.0564374 0.0283167 0.027503 0.0261633 0.0241159 0.0229607 0.0285478 0.0222673 0.0218817 0.0216351 0.0216049 0.0205408 0.0270515 0.0201625 0.0201373 0.0187602 0.0176451 0.0175148 0.0173511 0.0202145 0.0172905 0.0259297 0.0199575 0.0171678 0.0166332 0.0239578 0.0276432 0.0203162 0.0174612 0.0163781 0.0201885 0.0229328 0.0161545
threshold=0.49788432883687411 0.080227083625487153 0.28541921224907701 0.045528287603444725 1.1195797788725235 0.043731711155160516 0.077505418664557221 -0.09795348822719295 2.5609170129762311 0.059223317146068877 1.1571953686898462 0.99157062931683593 1.1102831877830643 0.10869998638836788 0.040549918745639117 0.17489963869931749 1.9556354078890286 1.0627811748506568 0.029071679033613716 84.15009154637481 0.15049038334247403 0.043076969136328365 0.79489604921384116 0.08419313775632363 0.057866653839370806 0.051349686846483077 1.0910178943371271 0.37320149734770774 -0.22737468671679192 0.030381811621625655 2.2427344201043335 0.25779896839709276 0.21854652829407309 0.030953122829042352 0.099020464916243847 0.098299700803052878 1.1900005080821865 0.10195077689356492 0.55958524998114778 0.080227083625487153 0.090511306773628938 0.077221405600681262 0.18611846486846487 0.071773155673400049 0.08306253735538173 2.324174425563676 0.056057866817256004 0.08113039668961787 0.054732479544538727 0.97893742336084488 -0.1224577964239336 0.22540393296091313 0.051013933264995821 82.502894388816941 0.062552713227003967 0.07325392210563321 0.24596992754512317 1.4098169284847637 0.042683527688101311 0.04746802025284174 89.352578692495939 0.96311524678638782
decision_type=2 2 2 2 2 2 2 2 2 2 2 2 2 2 2 2 2 2 2 2 2 2 2 2 2 2 2 2 2 2 2 2 2 2 2 2 2 2 2 2 2 2 2 2 2 2 2 2 2 2 2 2 2 2 2 2 2 2 2 2 2 2
left_child=2 8 6 4 5 -4 12 21 9 -2 24 23 13 18 15 17 -17 -15 28 -12 -14 22 -8 32 25 30 -27 -28 29 -1 -5 34 43 -24 45 -36 -22 44 -21 -26 -33 -42 -38 -9 -23 -13 -30 52 -49 50 -20 -51 -16 54 -3 -56 -57 -55 -10 -60 -61 -39
right_child=1 53 3 10 -6 -7 7 11 58 -11 19 31 20 14 47 16 -18 -19 49 38 36 37 33 -25 39 26 27 -29 46 -31 -32 40 -34 -35 35 -37 42 61 -40 -41 41 -43 -44 -45 -46 -47 -48 48 -50 51 -52 -53 -54 57 55 56 -58 -59 59 60 -62 -63
leaf_value=-4.8625491536069133e-05 0.00069631525222212088 0.00049021511762735567 0.00099866656483047541 0.0004823244780501617 -0.00013057422498241069 0.0022869090210187481 0.0011282097876948469 -2.05053428691339e-05 -0.0001473748961108781 -0.0003427665131013902 -0.00044983201407047596 0.00011109137151120732 -3.1979236759319215e-05 0.00029199580811830196 2.7772734442694406e-05 0.0016902909209257214 0.00021019791521172484 -3.8188053868894636e-05 0.00010729536001529486 0.00050310867459272906 -0.00012495485359013692 5.167791579339505e-05 -0.00021406533095398033 -0.00029042528711309255 -0.00030823143333503882 0.0011721580658107995 -0.00039652072731405493 0.00078100336391640737 -1.774889037543549e-05 -0.0004127876473676396 -0.00048200932789015875 -6.141112908330413e-05 -0.00052143484283125225 0.00030781464221494778 0.00024033727611911374 0.0009886549938131462 -1.0441321804440424e-05 0.00027947668837140005 -0.00030647464015561601 0.00019702504191977476 0.00036014904578526819 -0.00012208342834032679 -0.00048215499484433315 0.00011813091972370024 0.00065380971302233994 -0.00038090607797494158 2.2822075104406343e-05 4.1126311333050912e-05 -6.259636778558383e-05 2.9335126705011672e-05 -4.2552979117882814e-06 -0.000170392064364619 0.00016833730826500929 1.3025740161538123e-05 -0.00081238556697609877 -0.00029132034940024216 0.00046453445823863146 0.00081317818411965465 -0.0010914896948910925 -0.00083251723282349601 -0.00021428251429460941 4.6433572721536287e-05
leaf_weight=864 20 28 36 21 20 69 34 2896 21 122 166 1039 2504 621 898 59 92 213 861 31 687 1436 42 175 97 25 20 23 53262 212 29 627 39 226 279 22 48 386 23 52 120 76 148 490 21 30 4626 1837 1272 14110 26109 203 567 20 21 33 25 24 46 60 40 172
leaf_count=864 20 28 36 21 20 69 34 2896 21 122 166 1039 2504 621 898 59 92 213 861 31 687 1436 42 175 97 25 20 23 53262 212 29 627 39 226 279 22 48 386 23 52 120 76 148 490 21 30 4626 1837 1272 14110 26109 203 567 20 21 33 25 24 46 60 40 172
internal_value=1.2894e-12 -0.00026364 1.02849e-06 0.000230141 0.0015291 0.00184523 -1.6685e-07 5.15801e-05 -0.000452158 -0.000196417 -0.000103266 1.9951e-05 -4.01021e-06 -1.89126e-06 7.34978e-05 0.000296711 0.000788512 0.000207668 -6.07181e-06 -0.000300567 -7.02038e-05 0.00013066 0.000327598 -2.01833e-05 5.93034e-05 0.000300739 0.00057848 0.000233318 -1.64387e-05 -0.000120375 -7.69891e-05 8.58349e-05 -6.37526e-06 0.000226027 0.000140731 0.000295032 -0.0001786 0.000101143 0.000158286 -0.0001319 -5.54706e-06 0.000173161 -0.000366633 -4.428e-07 6.03565e-05 9.72841e-05 -1.45067e-05 2.54293e-05 -1.31024e-06 8.73504e-06 -6.94115e-07 2.65024e-05 8.21755e-05 0.000122136 -1.24699e-05 -0.000190637 3.44791e-05 0.000449473 -0.000669615 -0.000744732 -0.000585223 0.000207643
internal_weight=118375 460 117915 612 125 105 117303 8110 309 142 487 5793 109193 105806 5559 985 151 834 100247 220 3387 2317 302 3600 267 118 68 43 58964 1076 50 2193 3425 268 1370 301 883 2015 54 149 823 196 196 3386 1457 1069 57888 4574 3109 41283 26970 14313 1465 151 107 79 58 44 167 146 100 558
internal_count=118375 460 117915 612 125 105 117303 8110 309 142 487 5793 109193 105806 5559 985 151 834 100247 220 3387 2317 302 3600 267 118 68 43 58964 1076 50 2193 3425 268 1370 301 883 2015 54 149 823 196 196 3386 1457 1069 57888 4574 3109 41283 26970 14313 1465 151 107 79 58 44 167 146 100 558
is_linear=0
shrinkage=0.02


Tree=16
num_leaves=63
num_cat=0
split_feature=1 6 0 6 7 5 3 0 6 5 7 1 6 0 7 4 4 5 7 8 1 5 6 3 7 0 5 6 4 1 5 5 0 4 6 6 8 2 6 5 0 5 2 1 3 6 6 7 6 0 5 6 5 4 2 7 2 5 7 5 0 6
split_gain=0.0770662 0.0808342 0.0775359 0.636376 0.159183 0.0756313 0.0563963 0.0570517 0.111012 0.17306 0.126351 0.0873181 0.0442719 0.0657076 0.041616 0.051159 0.0459765 0.0530178 0.0376859 0.0497673 0.0359574 0.0310795 0.0542294 0.0291181 0.0393014 0.0566212 0.0324272 0.0311355 0.0280721 0.0244072 0.0242062 0.028539 0.0237447 0.0250269 0.0521623 0.0232168 0.0208093 0.0241239 0.0218199 0.0217281 0.0220348 0.0180754 0.0280168 0.0176011 0.0174898 0.0516932 0.0413049 0.0164211 0.0247123 0.0157296 0.0146094 0.0145675 0.0144499 0.0136275 0.0133714 0.027515 0.0128444 0.0128426 0.0127333 0.0121493 0.0117292 0.0110293
threshold=0.49788432883687411 0.069529426460320787 0.28541921224907701 0.045528287603444725 1.099741818217377 3.9016908765343286 0.036376167188329825 0.12812852305738856 0.035818181873135145 1.9556354078890286 1.0643160563518101 0.12555083182885865 0.037140423114628791 0.19936070330299041 0.86072281664835748 0.031523059707850583 0.053994087434506392 1.460080941058211 1.1712841456709715 86.435794335696855 0.26867284669733899 2.5609170129762311 0.061602328216196829 0.090511306773628938 1.096581321555212 0.21854652829407309 1.0136850892639482 0.075863668794301328 0.080166771924479366 0.18239106293913857 1.8092955803144031 3.9016908765343286 0.0178020985666183 0.077221405600681262 0.098299700803052878 0.053641095477008044 48.831989250432542 0.31090012520403015 0.070056380542774591 1.2120118233294301 -0.046333381395621979 2.0484413548769518 0.3240287253141832 -0.16350844305809667 0.078823937013957693 0.052597542002866211 0.05175879326983103 1.0224565944646404 0.039327996401072436 0.066932070048666095 1.752701450174067 0.054080123012280885 1.0358551872444639 0.046750137512916005 0.094667459235964771 1.0455313959859234 0.065332110164664239 3.9016908765343286 1.124761932094229 1.5158816394507484 0.17489963869931749 0.070651167747356511
decision_type=2 2 2 2 2 2 2 2 2 2 2 2 2 2 2 2 2 2 2 2 2 2 2 2 2 2 2 2 2 2 2 2 2 2 2 2 2 2 2 2 2 2 2 2 2 2 2 2 2 2 2 2 2 2 2 2 2 2 2 2 2 2
left_child=2 21 6 4 20 -6 7 29 9 10 11 -9 13 54 15 -14 17 -17 30 59 -4 22 -2 24 26 -26 -16 -25 -29 36 52 41 -3 60 50 47 37 38 -1 40 -38 -32 -43 -18 46 -46 -23 48 -10 -41 -35 -31 -5 -49 56 -56 -8 -22 -54 61 -34 -20
right_child=1 32 3 18 5 -7 12 8 35 -11 -12 -13 14 -15 23 16 43 -19 19 -21 57 44 -24 27 25 -27 -28 28 -30 51 31 -33 33 34 -36 -37 39 -39 -40 49 -42 42 -44 -45 45 -47 -48 53 -50 -51 -52 -53 58 -55 55 -57 -58 -59 -60 -61 -62 -63
