tree
version=v4
num_class=1
num_tree_per_iteration=1
label_index=0
max_feature_idx=8
objective=regression
feature_names=momentum_5 momentum_10 momentum_20 volatility_10 volatility_20 volume_ratio atr_ratio ma_ratio rsi14
feature_infos=[-0.41082136382652346:1.48854041013269] [-0.46901428988043159:2.3641808346213291] [-0.56081967213114758:4.2564102564102564] [0.001923531505185909:0.1386270268055218] [0.0026071955431309418:0.12584267499988602] [0.11359522172905784:11.129063848829022] [0.0071301247771836176:0.19526756498587483] [0.63549362204989102:1.8211185599624633] [0:99.9999307616701]
tree_sizes=2997 2973 2991 3011 3002 3001 2997 3023 3001 3027 3012 3018 3039 2991 3017 3008 3032 2981 3025 2999 3030 3019 3020 3027 2983 3045 2949 3066 2998 3001 2999 3031 3008 3046 2945 3001 3012 3055 3010 3000 3041 2978 2992 3043 3045 2944 3001 2983 3023 2956 2943 2999 3036 3010 3014 2975 3002 3004 3011 3010 3004 3050 3032 3058 2980 2933 2923 2947 2935 2952 2967 2929 2975 2960 2920 3013 2897 2894 2910 2905 3026 2941 2945 2998 2951 2987 2974 2992 2998 2993 2940 2935 3008 2975 2942 2921 2887 2958 2922 2983 2972 2978 2963 2963 2965 2937 2953 2932 2967 2954 2940 2944 2921 2974 2951 2917 2921 2965 2956 2991 2901 2984 2981 2911 2998 2957 2978 2923 2932 2893 2946 2920 2942 3002 2902 2902 2948 2939 2958 2982 2930 2925 2935 2927 2987 2903 2921 2923 2949 3034 3009 3001 2950 2919 2960 2931 3000 2929 2910 2920 3031 2936 2956 2918 2975 2941 2964 2901 2903 2959 2923 2957 2943 2936 2940 2945 2956 2973 2943 2955 2966 2950 2961 2951 2967 2988 2979 2947 2896 2987 2901 2911 2956 2924 2921 2963 2943 2932 2973 2988

Tree=0
num_leaves=31
num_cat=0
split_feature=7 5 5 6 6 3 2 8 2 3 7 0 0 7 3 6 2 6 6 6 2 2 6 3 6 6 0 3 8 2
split_gain=5.57285 3.08554 2.35255 1.57346 1.66913 2.05432 1.49007 1.24948 1.11613 2.15469 0.783934 0.77102 0.755441 1.30479 0.930235 1.11561 0.907421 0.728575 0.713065 0.809247 0.728258 0.636548 0.903528 0.675442 1.26514 0.6123 0.608256 0.688566 0.604687 0.832462
threshold=0.86072281664835748 1.0908826981519166 1.4879021829574082 0.03947729081407219 0.089144339630454747 0.090511306773628938 -0.33343944146860366 58.947740764482653 -0.2163448456763962 0.027543823411017819 0.94899918973109387 -0.09795348822719295 0.28541921224907701 1.2149170549025108 0.078823937013957693 0.098299700803052878 0.67890594760754142 0.087587859075432109 0.060331324982585324 0.02702284427408715 -0.086210321537681753 0.42367024935117353 0.11529481124935674 0.070870304560445407 0.10206783054479328 0.082374110384338187 -0.11136130870252724 0.04255496784174282 65.034099645389361 -0.031726831300838913
decision_type=2 2 2 2 2 2 2 2 2 2 2 2 2 2 2 2 2 2 2 2 2 2 2 2 2 2 2 2 2 2
left_child=2 3 -1 -2 5 28 11 -7 9 -3 -6 -4 13 18 -15 16 25 -14 19 -10 -20 -12 23 -23 -25 -16 -11 -28 29 -5
right_child=1 8 6 4 10 7 -8 -9 12 26 21 -13 17 14 15 -17 -18 -19 20 -21 -22 22 -24 24 -26 -27 27 -29 -30 -31
leaf_value=0.0018792012055945996 -0.00063822474351096325 -0.0013591531722562441 0.012470884864533616 8.3481224147098827e-05 9.9498151891506915e-05 -0.0015952363941044059 0.0038466918280605513 0.0099265424022616164 -0.00054606824712035524 0.0048249676851961094 -0.00285845175957408 0.0035521204583658502 -0.00094271687962670754 -0.00015807809031862099 0.0060341588569150992 -0.0029664211721065229 -0.0012089076590981369 -0.0072733741642018049 0.00088221318141372819 0.00046735699809507739 -0.00063018932148057325 -0.0011216208587553323 -0.0053642822440219985 -3.7902831490255626e-05 0.011289274132232373 0.012600418861261255 0.00044046092219669194 0.0052633799438719714 0.00043759572704935127 -0.00041560463279468446
leaf_weight=1133 23200 345 111 17926 492 33 203 82 2181 379 1002 31 627 119 97 34 29 49 1013 20349 3715 145 69 67 39 56 240 107 5052 15649
leaf_count=1133 23200 345 111 17926 492 33 203 82 2181 379 1002 31 627 119 97 34 29 49 1013 20349 3715 145 69 67 39 56 240 107 5052 15649
internal_value=-6.61781e-05 -0.000114539 0.00297997 -0.000309811 -0.000121942 -5.25333e-05 0.00659496 0.00662029 0.000309788 0.00189416 -0.00160432 0.0105238 0.000249762 0.000290219 0.00339167 0.00534732 0.00690043 -0.0014016 0.000252102 0.000369253 -0.000306149 -0.00223842 -0.000296963 0.00109604 0.00412964 0.0084375 0.00344016 0.00192764 -7.23996e-05 -0.000149138
internal_weight=94574 93096 1478 63756 40556 38742 345 115 29340 1071 1814 142 28269 27593 335 216 182 676 27258 22530 4728 1322 320 251 106 153 726 347 38627 33575
internal_count=94574 93096 1478 63756 40556 38742 345 115 29340 1071 1814 142 28269 27593 335 216 182 676 27258 22530 4728 1322 320 251 106 153 726 347 38627 33575
is_linear=0
shrinkage=1


Tree=1
num_leaves=31
num_cat=0
split_feature=7 5 5 6 6 3 2 8 2 3 7 0 0 7 3 6 2 6 6 6 0 1 1 0 3 3 2 6 3 6
split_gain=5.0295 2.7847 2.12317 1.42005 1.50639 1.85403 1.34479 1.12765 1.00731 1.9446 0.707628 0.695846 0.681786 1.17757 0.839537 1.00684 0.818948 0.657539 0.644281 0.727629 0.675084 0.809847 0.599157 0.783644 0.583257 0.579781 0.576508 0.815434 0.609586 1.14565
threshold=0.86072281664835748 1.0908826981519166 1.4879021829574082 0.03947729081407219 0.089144339630454747 0.090511306773628938 -0.33343944146860366 58.947740764482653 -0.2163448456763962 0.027543823411017819 0.94969242412517396 -0.09795348822719295 0.28541921224907701 1.2149170549025108 0.078823937013957693 0.098299700803052878 0.67890594760754142 0.087587859075432109 0.060637417447684819 0.02702284427408715 -0.036383143280051093 0.16005576055956641 0.037384597903587842 0.07010950451939181 0.090511306773628938 0.090511306773628938 0.42367024935117353 0.11529481124935674 0.070870304560445407 0.1064661281050746
decision_type=2 2 2 2 2 2 2 2 2 2 2 2 2 2 2 2 2 2 2 2 2 2 2 2 2 2 2 2 2 2
left_child=2 3 -1 -2 5 -5 11 -7 9 -3 -6 -4 13 18 -15 16 25 -14 19 -10 21 -20 23 -22 -8 -16 -12 28 -28 -30
right_child=1 8 6 4 10 7 24 -9 12 -11 26 -13 17 14 15 -17 -18 -19 20 -21 22 -23 -24 -25 -26 -27 27 -29 29 -31
leaf_value=0.0018437221784995202 -0.00054783237355191308 -0.0012327144703949276 0.011905821600115045 -1.02984860572558e-05 0.00014640483239840838 -0.001456993436758322 0.0048936602400242602 0.0094886963612047914 -0.00046028374084828747 0.0033266315926009484 -0.0026622167453649935 0.0034329954752578373 -0.00083709995430205633 -9.1693278215238599e-05 0.0038462629065110863 -0.0027596189928076726 -0.0010899813524607954 -0.0068512244074016198 0.0003690910295608569 0.000500444220721113 -0.00057467576060751195 0.0054308534555527139 -0.0011328068154897628 0.0023359850134533279 -0.0023701841426483237 0.010314856652752497 -0.0010070587726759498 -0.0050375871215520961 0.001321439030912838 0.014138782811774451
leaf_weight=1133 23200 345 111 38627 495 33 170 82 2181 726 999 31 627 119 53 34 29 49 1333 20452 762 84 2114 332 33 100 145 69 84 22
leaf_count=1133 23200 345 111 38627 495 33 170 82 2181 726 999 31 627 119 53 34 29 49 1333 20452 762 84 2114 332 33 100 145 69 84 22
internal_value=-4.3881e-06 -5.0331e-05 0.00288945 -0.000235839 -5.7364e-05 8.57448e-06 0.0063237 0.00634776 0.00035278 0.00185793 -0.00146563 0.0100561 0.000295755 0.000334189 0.00328057 0.00513843 0.00661389 -0.00127304 0.000297978 0.000407865 -0.000239766 0.000669153 -0.000641244 0.000308633 0.00371284 0.0080741 -0.0020706 -0.000223634 0.00109972 0.00398164
internal_weight=94574 93096 1478 63756 40556 38742 345 115 29340 1071 1814 142 28269 27593 335 216 182 676 27258 22633 4625 1417 3208 1094 203 153 1319 320 251 106
internal_count=94574 93096 1478 63756 40556 38742 345 115 29340 1071 1814 142 28269 27593 335 216 182 676 27258 22633 4625 1417 3208 1094 203 153 1319 320 251 106
is_linear=0
shrinkage=0.05


Tree=2
num_leaves=31
num_cat=0
split_feature=7 5 5 4 4 6 6 3 4 0 1 0 4 4 4 7 6 3 0 1 7 0 0 6 6 8 4 8 6 3
split_gain=4.53912 2.51319 1.91616 2.1174 1.89327 1.5052 1.4343 1.04413 1.84721 1.35823 1.911 0.908693 0.784243 0.7742 0.757664 1.01025 0.784435 1.15835 0.841003 0.696644 0.64786 0.559408 0.523061 0.487992 0.464049 0.459428 0.479806 0.453427 0.442083 0.418232
threshold=0.86072281664835748 1.0908826981519166 1.4879021829574082 0.052560209092310621 0.08419313775632363 0.077505418664557221 0.03947729081407219 0.078823937013957693 0.053994087434506392 -0.024780694189534821 0.16510782074781374 -0.1695825075288058 0.013015940560734211 0.020518329263167961 0.042797267939414539 1.2149170549025108 0.098299700803052878 0.090511306773628938 0.15787700490959958 0.09698569187590235 0.93830767124840342 0.14422705683279238 -0.053279275514085393 0.10206783054479328 0.098299700803052878 59.767030496647813 0.044774872605087175 60.621364547499432 0.065841495572588046 0.085536567110894343
decision_type=2 2 2 2 2 2 2 2 2 2 2 2 2 2 2 2 2 2 2 2 2 2 2 2 2 2 2 2 2 2
left_child=2 4 -1 5 6 -4 -2 8 13 10 23 25 -13 -8 -14 20 17 -17 -19 21 -16 22 -15 -9 -5 26 -3 -12 -23 -11
right_child=1 11 3 24 -6 -7 7 9 -10 29 27 12 14 19 15 16 -18 18 -20 -21 -22 28 -24 -25 -26 -27 -28 -29 -30 -31
leaf_value=0.0017515361107380497 -0.0005204407949324166 0.0043331784005284186 0.0048427523488236458 -0.0005031038734596222 -0.0046381566629981746 0.013501659218589061 0.0014914815083158044 0.0020607557252328343 -0.0010597559626157518 0.0010170153693448251 0.0020356530417172639 -0.00113577697517296 0.00047613180593788151 0.00024411551531173994 0.0013208506417669008 0.00079398882251897895 -0.0044212346213559307 0.0097967364430108939 0.0024293347960337996 0.00062458191062319786 -0.00060815032912384754 0.00087005340775369471 -0.00021344304345059068 -0.0034151127061145068 0.0056586875432086264 0.0091689785799154867 0.00064918194647677172 0.0090098677265035704 0.0062127722918674287 -0.0030764026501856282
leaf_weight=1133 23200 159 97 100 242 104 916 187 4136 130 28 917 22705 8811 484 327 45 76 79 4173 4323 106 21455 52 44 26 199 139 61 120
leaf_count=1133 23200 159 97 100 242 104 916 187 4136 130 28 917 22705 8811 484 327 45 76 79 4173 4323 106 21455 52 44 26 199 139 61 120
internal_value=-4.16869e-06 -4.78144e-05 0.00274498 0.00600751 -0.000224047 0.00932298 -0.000207229 -2.69807e-05 -5.97077e-05 0.00195151 0.00373681 0.000335141 0.000303097 5.67328e-05 0.000350154 -0.000186088 0.00189212 0.00248154 0.00604174 1.87559e-05 -0.000413926 -6.43155e-05 -8.02392e-05 0.000869353 0.00137967 0.00275145 0.00228537 0.00784054 0.00282159 -0.000947825
internal_weight=94574 93096 1478 345 63756 201 63514 40314 39658 656 406 29340 28956 35522 28039 5334 527 482 155 34606 4807 30433 30266 239 144 384 358 167 167 250
internal_count=94574 93096 1478 345 63756 201 63514 40314 39658 656 406 29340 28956 35522 28039 5334 527 482 155 34606 4807 30433 30266 239 144 384 358 167 167 250
is_linear=0
shrinkage=0.05


Tree=3
num_leaves=31
num_cat=0
split_feature=7 5 5 4 4 6 6 2 6 4 7 0 4 4 4 7 2 0 2 4 1 6 6 4 2 0 4 6 0 1
split_gain=4.09656 2.26816 1.72934 1.91096 1.70868 1.35845 1.29445 0.87263 1.02264 0.780176 0.704063 1.32418 1.05399 0.685079 0.691107 0.921054 0.871536 0.830618 0.541622 0.8847 0.791425 0.627224 0.53511 0.651955 0.571716 0.530024 0.622777 0.595202 0.494173 0.486931
threshold=0.86072281664835748 1.0908826981519166 1.4879021829574082 0.052560209092310621 0.08419313775632363 0.077505418664557221 0.03947729081407219 -0.2163448456763962 0.050200848034997129 0.020518329263167961 1.1102831877830643 -0.12712913325743228 0.053994087434506392 0.013015940560734211 0.040059477533715353 1.2149170549025108 -0.079719702024534697 0.15787700490959958 -0.2218715723999625 0.027775732224085806 -0.083450211298312524 0.043954262939713232 0.098299700803052878 0.064583371798879144 0.67890594760754142 0.10869998638836788 0.080166771924479366 0.068034089073362627 0.047873803963912505 -0.15008204558856356
decision_type=2 2 2 2 2 2 2 2 2 2 2 2 2 2 2 2 2 2 2 2 2 2 2 2 2 2 2 2 2 2
left_child=2 4 -1 5 6 -4 -2 8 -3 -8 12 -12 18 -9 29 16 -16 22 19 -11 21 -21 23 -17 -25 -13 27 -27 -23 -15
right_child=1 7 3 -5 -6 -7 9 13 -10 10 11 25 -14 14 15 17 -18 -19 -20 20 -22 28 -24 24 -26 26 -28 -29 -30 -31
leaf_value=0.0016639592632618867 -0.00049441876124779066 -0.00081619168000480417 0.0046006148087866508 0.0013106824818856291 -0.0044062488822050943 0.012826576603737733 0.0014169073673882767 -0.0010789881129018985 0.0026607906473930594 -0.0011921304810167867 0.0071006938951407991 0.0011369081592961163 -0.00087555535643872486 -0.0012512203872497825 0.0011643590469878728 0.0015632922739826775 -0.00058026046987958693 0.00026083992742115231 -5.7185754631607327e-05 0.011123241289030939 -0.00034228356220936183 0.0020913751142221113 -0.0020173839068618315 0.0094085457435155867 6.2663906719535588e-05 0.00028369459626497297 0.0078590732696466152 -0.0033273606112093797 0.0091166947225037095 0.00048275290193081679
leaf_weight=1133 23200 290 97 144 242 104 916 917 781 361 82 1291 3981 413 836 71 4981 328 32135 21 332 672 29 90 20 288 20 189 26 20584
leaf_count=1133 23200 290 97 144 242 104 916 917 781 361 82 1291 3981 413 836 71 4981 328 32135 21 332 672 29 90 20 288 20 189 26 20584
internal_value=-3.96027e-06 -4.54237e-05 0.00260773 0.00570714 -0.000212845 0.00885683 -0.000196867 0.000318384 0.00171931 -2.56316e-05 -5.91706e-05 0.000887711 -0.000106353 0.000265308 0.000310377 -0.000146468 -0.00032953 0.00183284 -1.50724e-05 0.000943363 0.00167687 0.00260922 0.00428815 0.00529843 0.00770929 0.000602776 -0.000784679 -0.0011471 0.00235306 0.000448647
internal_weight=94574 93096 1478 345 63756 201 63514 29340 1071 40314 39398 1870 37528 28269 27352 6355 5817 538 33547 1412 1051 719 210 181 110 1788 497 477 698 20997
internal_count=94574 93096 1478 345 63756 201 63514 29340 1071 40314 39398 1870 37528 28269 27352 6355 5817 538 33547 1412 1051 719 210 181 110 1788 497 477 698 20997
is_linear=0
shrinkage=0.05


Tree=4
num_leaves=31
num_cat=0
split_feature=2 3 5 4 4 5 6 3 0 8 4 6 4 4 1 0 8 1 4 0 2 0 2 1 4 3 0 6 1 4
split_gain=3.69504 2.90754 2.02205 1.95436 1.90035 1.78331 1.56692 1.06319 1.38321 1.52841 0.915153 1.32741 0.899184 0.772524 0.758711 0.790264 0.67926 0.662636 0.636837 0.619039 0.56422 0.609717 0.692551 0.613336 0.511696 0.938625 1.0162 0.636074 0.587792 0.58163
threshold=-0.2218715723999625 0.029945962733472338 1.1711582843162589 0.08419313775632363 0.067164653542780811 1.0908826981519166 0.08353038527956895 0.078823937013957693 -0.024780694189534821 58.947740764482653 0.05615403588806888 0.042992241142737225 0.027330779430607442 0.052560209092310621 -0.090979480249380615 0.042680913222686419 64.292887515136925 0.11112582976405995 0.013015940560734211 -0.1695825075288058 0.25779896839709276 0.12371012624816548 0.42367024935117353 0.20529331775645868 0.042797267939414539 0.085536567110894343 0.026840207196273006 0.10206783054479328 -0.15848579690171175 0.05615403588806888
decision_type=2 2 2 2 2 2 2 2 2 2 2 2 2 2 2 2 2 2 2 2 2 2 2 2 2 2 2 2 2 2
left_child=1 19 14 5 6 7 -4 10 9 -9 11 -2 -13 -8 15 -3 -14 -11 -7 -1 -18 22 -22 -24 -20 29 28 -28 -27 -26
right_child=3 2 4 -5 -6 18 13 8 -10 17 -12 12 16 -15 -16 -17 20 -19 24 -21 21 -23 23 -25 25 26 27 -29 -30 -31
leaf_value=0.0072909421947163836 -0.00042426061803706606 0.0016824573170002661 0.004118737540966322 -0.0040273996976270101 7.165564551646487e-05 -0.0010250386931508679 0.011965465222550721 -0.00037814496980346677 -0.0011150984748623581 -1.9928919878234535e-06 -0.0010399827474889777 0.00069792338463956893 -0.00017746224226957796 0.00562432257141932 -0.00049275992409899703 0.0068015447893915813 0.00016630837880443706 0.0072735325694316434 0.00042013267950630331 -0.00034485295907891631 0.0015357725422406295 -0.00064196753417317056 0.0083282773999365962 0.0014697573571798527 2.7944806460190734e-05 -0.0012975169764831663 0.00092842370637168971 -0.0057159269961994143 0.0058214928586305999 -0.0011515319629458443
leaf_weight=27 28658 1089 568 311 209 917 114 143 242 37 3289 4582 20786 83 397 81 2731 203 22148 1568 694 251 78 56 3139 35 362 40 169 1567
leaf_count=27 28658 1089 568 311 209 917 114 143 242 37 3289 4582 20786 83 397 81 2731 203 22148 1568 694 251 78 56 3139 35 362 40 169 1567
internal_value=-3.76227e-06 0.00145767 0.00250799 -7.05979e-05 0.00429702 -5.69442e-05 0.0054514 -0.000207716 0.00184404 0.00371378 -0.000228696 -0.00018256 5.4834e-05 0.00929382 0.00139598 0.00203686 -6.49674e-05 0.00615189 0.000271145 -0.000215595 0.000548764 0.00151678 0.00217118 0.00546203 0.00031443 -0.000126291 0.00172586 0.000267294 0.00460009 -0.000364796
internal_weight=94574 4136 2541 90438 974 90127 765 61750 625 383 61125 57836 29178 197 1567 1170 24596 240 28377 1595 3810 1079 828 134 27460 5312 606 402 204 4706
internal_count=94574 4136 2541 90438 974 90127 765 61750 625 383 61125 57836 29178 197 1567 1170 24596 240 28377 1595 3810 1079 828 134 27460 5312 606 402 204 4706
is_linear=0
shrinkage=0.05


Tree=5
num_leaves=31
num_cat=0
split_feature=7 5 5 4 4 3 0 8 4 3 2 7 4 4 8 4 4 8 2 3 0 2 4 8 2 7 1 0 4 3
split_gain=3.315 2.39028 1.4949 1.53876 1.14305 1.00756 1.31973 1.68411 1.09165 0.951572 0.938395 0.929006 1.24559 0.96396 1.07587 0.882757 1.11509 0.924741 0.840082 1.4924 0.720478 0.719273 0.649388 0.582435 0.568289 0.528805 0.525039 0.508193 0.488207 0.579702
threshold=0.86072281664835748 1.0908826981519166 1.5158816394507484 0.055438019953199788 0.08419313775632363 0.078823937013957693 -0.024780694189534821 58.947740764482653 0.064583371798879144 0.017373690164231983 0.27672959952517601 1.1900005080821865 0.055438019953199788 0.08419313775632363 76.140022535991747 0.068614170701029376 0.075228329276356018 71.279274154111192 -0.2163448456763962 0.027670574852404109 -0.039584009301319383 0.24912744308106219 0.015711005521469621 53.397902260484848 -0.33343944146860366 0.96731328715764564 0.090666681895827508 -0.11136130870252724 0.019767385679064182 0.021491517068892473
decision_type=2 2 2 2 2 2 2 2 2 2 2 2 2 2 2 2 2 2 2 2 2 2 2 2 2 2 2 2 2 2
left_child=2 4 -1 24 5 8 7 -7 9 25 23 12 18 14 15 21 17 -17 19 -3 -14 -13 -20 -10 -4 -2 -9 -21 -11 -30
right_child=1 11 3 -5 -6 6 -8 26 10 28 -12 13 20 -15 -16 16 -18 -19 22 27 -22 -23 -24 -25 -26 -27 -28 -29 29 -31
leaf_value=0.0015058315092375514 -7.1240120922710039e-05 -0.00091393049791431392 0.010694640525943383 0.00077762076923706556 -0.0036288864469014824 -0.00035639305815437779 -0.0010751926713961453 -0.0012941053802413601 -0.0015626074570008848 0.00046477747959184365 0.00011823017004439901 0.0075618427165824445 0.00099463995093553113 -0.0048548554599013496 0.000582515914000759 0.0069598192808085256 0.0021174278844830019 0.017010797565693365 -0.00053374648109740007 0.0047234347345816467 -0.0014280450052951202 0.00043136369425756255 0.0004001714232236168 -0.0040910812412062649 0.0054589140592460443 -0.00079238533565902276 0.0069889927356298152 0.0017745439021865754 -0.00055757224608843012 -5.3017652948900925e-05
leaf_weight=1159 3628 312 98 118 243 163 251 21 674 3771 569 46 384 48 381 70 71 34 2019 317 1528 153 23837 344 110 8493 215 271 6676 38656
leaf_count=1159 3628 312 98 118 243 163 251 21 674 3771 569 46 384 48 381 70 71 34 2019 317 1528 153 23837 344 110 8493 215 271 6676 38656
internal_value=3.41792e-06 -3.39365e-05 0.00234719 0.00533839 -0.000206186 -0.00019308 0.00176537 0.00355229 -0.000213348 -0.000179788 -0.00150804 0.000338396 0.000291413 0.00201574 0.00245255 0.00435758 0.00694795 0.0102457 0.000379516 0.0018812 -0.000941481 0.00207962 0.000327245 -0.00241702 0.00792575 -0.000576536 0.00625194 0.00336434 -8.18509e-05 -0.000127323
internal_weight=94660 93175 1485 326 63704 63461 650 399 62811 61224 1587 29471 28668 803 755 374 175 104 26756 900 1912 199 25856 1018 208 12121 236 588 49103 45332
internal_count=94660 93175 1485 326 63704 63461 650 399 62811 61224 1587 29471 28668 803 755 374 175 104 26756 900 1912 199 25856 1018 208 12121 236 588 49103 45332
is_linear=0
shrinkage=0.05


Tree=6
num_leaves=31
num_cat=0
split_feature=2 1 5 4 4 5 6 4 7 4 8 4 8 4 1 0 6 2 4 4 8 4 0 0 4 6 4 8 2 6
split_gain=3.0037 2.13631 1.91415 1.72935 1.34413 1.45578 1.14636 0.892136 1.2805 0.982345 0.97097 0.886435 0.900679 0.852492 0.955895 1.53955 1.07039 0.859701 0.796688 1.00637 0.834579 0.79256 0.78059 0.727378 0.939287 0.9616 0.98409 0.680316 0.649144 0.614296
threshold=-0.2218715723999625 -0.087131187622423598 1.0908826981519166 0.027889242904560754 0.065796558594560295 0.82521078000178705 0.075863668794301328 0.08419313775632363 1.1900005080821865 0.055438019953199788 76.140022535991747 0.053994087434506392 16.415642352536548 0.08419313775632363 0.066267547577640432 -0.075615445320520433 0.087587859075432109 0.45614633172285773 0.068614170701029376 0.075228329276356018 71.279274154111192 0.067164653542780811 -0.029509047464662482 0.073431721315172296 0.046321871020512266 0.042252904528238329 0.028013641762214266 58.540803028283982 0.24912744308106219 0.095379259840134165
decision_type=2 2 2 2 2 2 2 2 2 2 2 2 2 2 2 2 2 2 2 2 2 2 2 2 2 2 2 2 2 2
left_child=1 3 13 -1 5 -5 -7 8 9 -4 18 -8 -13 14 23 27 -17 -18 28 20 -20 -19 -11 24 25 -2 -27 -16 -10 -9
right_child=2 -3 7 4 -6 6 11 29 10 22 -12 12 -14 -15 15 16 17 21 19 -21 -22 -23 -24 -25 -26 26 -28 -29 -30 -31
leaf_value=-0.00014093176159653867 -0.00046374840729470392 -0.0006486772776042927 0.00032001677450589524 0.0013659725750589536 0.00016794522479650614 0.0030546472087484748 0.0076461917911924849 0.00061153519904780154 0.0071837506350636007 0.0013096878636178538 0.00055339010572152611 -0.0037974889445231879 0.0052745246128844368 -0.0032713067787853256 2.692405980875871e-05 0.00022054856450064611 -0.0044991366604210624 -0.0048810968162944996 0.0066118282844711621 0.0020115565095411639 0.016160257703022048 0.0042122869998874038 -0.0014097628579112724 0.00070819179259227246 -0.0010122398442244098 0.00057785070168100917 -0.00020680852816043444 0.0044793076720978271 0.00040979551376711752 -0.0074377501820443231
leaf_weight=727 24913 1024 26015 675 442 755 325 38 46 324 381 37 105 227 120 9011 218 37 70 71 34 68 1422 1774 4488 5396 15400 301 153 63
leaf_count=727 24913 1024 26015 675 442 755 325 38 46 324 381 37 105 227 120 9011 218 37 70 71 34 68 1422 1774 4488 5396 15400 301 153 63
internal_value=3.247e-06 0.00132864 -5.66058e-05 0.00198904 0.00265107 0.00322964 0.00425907 0.000281603 0.000298218 0.000242963 0.00232992 0.00620627 0.00291069 -0.00021283 -0.000201582 0.000252577 0.000119176 -0.00270891 0.0041397 0.00660056 0.00973343 0.00100795 -0.000905123 -0.000286828 -0.000321993 -0.00025422 -3.21066e-06 0.00321022 0.00197563 -0.00440931
internal_weight=94660 4090 90570 3066 2339 1897 1222 28617 28516 27761 755 467 142 61953 61726 9755 9334 323 374 175 104 105 1746 51971 50197 45709 20796 421 199 101
internal_count=94660 4090 90570 3066 2339 1897 1222 28617 28516 27761 755 467 142 61953 61726 9755 9334 323 374 175 104 105 1746 51971 50197 45709 20796 421 199 101
is_linear=0
shrinkage=0.05


Tree=7
num_leaves=31
num_cat=0
split_feature=7 5 4 6 5 5 4 6 7 6 4 3 3 4 0 1 2 3 4 0 4 2 6 2 6 4 4 3 6 0
split_gain=2.74933 1.94813 1.2879 1.97479 1.0017 0.954466 0.942961 0.884907 0.757808 1.0704 1.01356 1.01259 0.730919 1.36993 1.14038 1.40086 0.689678 1.28117 0.619535 0.587323 0.586072 0.559827 0.553187 0.511461 0.637111 0.537207 0.501554 0.569192 0.490649 0.489758
threshold=0.86072281664835748 1.0908826981519166 0.053994087434506392 0.08353038527956895 1.0275351021405157 0.88295317074685842 0.08419313775632363 0.040701959455614521 1.1900005080821865 0.098299700803052878 0.055438019953199788 0.085536567110894343 0.078823937013957693 0.053234994128254998 -0.024780694189534821 0.072679772220346286 -0.2163448456763962 0.027670574852404109 0.020518329263167961 -0.029509047464662482 0.015711005521469621 0.24912744308106219 0.065058859753039475 0.67890594760754142 0.073723269768540434 0.068614170701029376 0.019767385679064182 0.016016161334055735 0.082374110384338187 0.051279432178308555
decision_type=2 2 2 2 2 2 2 2 2 2 2 2 2 2 2 2 2 2 2 2 2 2 2 2 2 2 2 2 2 2
left_child=2 6 3 5 -5 -1 7 26 10 11 16 21 13 18 15 -14 17 -3 -9 -12 -18 -10 -23 24 -13 -26 27 -2 -15 -20
right_child=1 8 -4 4 -6 -7 -8 12 9 -11 19 23 14 28 -16 -17 20 -19 29 -21 -22 22 -24 -25 25 -27 -28 -29 -30 -31
leaf_value=-0.00067043318468220162 -0.00045992061307483271 -0.00088689943271068241 0.00060947950110629113 0.0032730424299370498 0.010822705144232329 0.003588014480536915 -0.0032951736139083749 0.0015445556953085167 0.006856567880793198 -0.0038673486886546017 0.00083051752948124923 0.0020905506010953485 -0.00077367416917062978 -0.0004613423388960589 -0.0010008770585502127 0.0054549856287145352 -0.00052306000245428666 0.0030770482920451951 -5.5031902513700901e-05 -0.0013065155962861434 0.00036416196864303427 0.0022072881160081952 -0.0014320882637709783 5.848817122371301e-06 0.0017010791145730766 0.0091816593415569511 -0.00060286600457790042 0.00026173352336950956 -0.0015518725062160135 0.00048946662885949869
leaf_weight=201 6453 312 715 70 118 381 243 686 37 75 409 77 138 2637 251 261 2019 588 27680 1503 23837 215 203 46 30 120 14068 4739 1694 4854
leaf_count=201 6453 312 715 70 118 381 243 686 37 75 409 77 138 2637 251 261 2019 588 27680 1503 23837 215 203 46 30 120 14068 4739 1694 4854
internal_value=3.08464e-06 -3.09338e-05 0.00213754 0.00355645 0.00801166 0.00211731 -0.000186438 -0.000174535 0.000305202 0.00182013 0.000262769 0.00240607 -2.27092e-05 -5.14841e-05 0.00163964 0.00330071 0.000342243 0.00170288 5.75603e-05 -0.000849378 0.000294882 0.00096164 0.00043984 0.00481345 0.00578768 0.00768554 -0.000404142 -0.000154352 -0.000887885 2.62061e-05
internal_weight=94660 93175 1485 770 188 582 63704 63461 29471 803 28668 728 38201 37551 650 399 26756 900 33220 1912 25856 455 418 273 227 150 25260 11192 4331 32534
internal_count=94660 93175 1485 770 188 582 63704 63461 29471 803 28668 728 38201 37551 650 399 26756 900 33220 1912 25856 455 418 273 227 150 25260 11192 4331 32534
is_linear=0
shrinkage=0.05


Tree=8
num_leaves=31
num_cat=0
split_feature=2 1 5 5 6 4 4 7 8 4 1 0 6 4 0 2 8 4 4 8 0 4 2 2 8 6 4 2 6 4
split_gain=2.51622 1.83576 1.56278 0.787168 1.26455 1.28613 0.775126 1.05034 0.824715 0.798173 0.733391 1.14527 1.40919 0.798894 0.814308 0.688715 0.827809 0.664064 0.887736 0.747769 0.648615 0.60264 0.741711 0.599722 0.588335 0.541919 0.54155 0.539999 0.529032 1.10121
threshold=-0.2218715723999625 -0.13973490370907707 1.0908826981519166 1.5158816394507484 0.071245273977795662 0.048079319678491807 0.08419313775632363 1.1900005080821865 76.140022535991747 0.055438019953199788 0.066267547577640432 -0.075615445320520433 0.087587859075432109 0.068614170701029376 0.17489963869931749 0.24912744308106219 54.734468735296737 0.068614170701029376 0.075228329276356018 71.279274154111192 -0.029509047464662482 0.018452573279067134 0.12352718159619581 0.45614633172285773 58.540803028283982 0.095379259840134165 0.015711005521469621 0.24912744308106219 0.042252904528238329 0.028013641762214266
decision_type=2 2 2 2 2 2 2 2 2 2 2 2 2 2 2 2 2 2 2 2 2 2 2 2 2 2 2 2 2 2
left_child=1 3 10 -1 -5 -6 7 9 17 26 13 24 21 14 28 16 -15 27 19 -19 -11 22 -13 -14 -12 -8 -4 -9 -2 -30
right_child=2 -3 6 4 5 -7 25 8 -10 20 11 12 23 15 -16 -17 -18 18 -20 -21 -22 -23 -24 -25 -26 -27 -28 -29 29 -31
leaf_value=0.0016816029233909843 -0.00041241895103696804 7.3148517281908197e-05 -0.00049739814144846072 0.001194709562537948 0.0093631586345887721 0.0025003781474042049 0.00059706138195715066 0.0065516206132167068 0.00047203078419898989 0.001203223392947643 -0.00016440968663168192 0.0016200717597431647 -0.0044772251052250045 -0.0019331824660959883 0.004895727582239582 -0.00011011799546931946 -0.0069328418256750764 0.0060115649857159174 0.001713903625430146 0.015049764412619612 -0.0012757005778607207 0.00015167303491771201 0.010061725766037501 -0.00046805472912428046 0.0038426337447986098 -0.006963184628162593 0.00035485150123480621 0.00037333101537869942 0.0005380466053784128 -0.00026029670427741441
leaf_weight=1695 25314 1890 2021 230 149 126 38 46 381 324 129 162 232 406 77 366 104 70 71 34 1422 8835 31 156 316 63 23994 153 5484 20341
leaf_count=1695 25314 1890 2021 230 149 126 38 46 381 324 129 162 232 406 77 366 104 70 71 34 1422 8835 31 156 316 63 23994 153 5484 20341
internal_value=2.93042e-06 0.00121602 -5.18507e-05 0.00219784 0.00393058 0.00621876 0.000253744 0.000269231 0.00210931 0.000219187 -0.000193009 0.000202386 8.52447e-05 -0.000267858 -0.000242249 -0.00176506 -0.00295272 0.00377723 0.00602394 0.00896636 -0.000815694 0.000212051 0.00297599 -0.00286529 0.00268104 -0.00411874 0.000288644 0.00180148 -0.000249986 -9.07666e-05
internal_weight=94660 4090 90570 2200 505 275 28617 28516 755 27761 61953 9861 9416 52092 51216 876 510 374 175 104 1746 9028 193 388 445 101 26015 199 51139 25825
internal_count=94660 4090 90570 2200 505 275 28617 28516 755 27761 61953 9861 9416 52092 51216 876 510 374 175 104 1746 9028 193 388 445 101 26015 199 51139 25825
is_linear=0
shrinkage=0.05


Tree=9
num_leaves=31
num_cat=0
split_feature=2 3 5 5 4 3 4 7 3 4 0 4 7 0 3 2 2 0 3 3 0 4 4 0 7 4 2 0 2 1
split_gain=2.27089 2.02063 1.41041 1.30659 1.43829 1.63938 0.699552 0.947936 0.762643 0.720351 0.68512 0.671267 0.780587 0.882943 0.92173 0.666179 0.647928 1.54546 0.822669 0.672418 0.585375 0.580629 0.565401 0.509333 0.506384 0.822426 0.496604 0.650461 0.494494 0.494156
threshold=-0.2218715723999625 0.029945962733472338 1.0908826981519166 0.85946776440221384 0.053994087434506392 0.045495882189519325 0.08419313775632363 1.1900005080821865 0.085536567110894343 0.055438019953199788 -0.11495871248034127 0.08419313775632363 1.0671516524911466 -0.064088926893386508 0.078823937013957693 -0.33343944146860366 -0.053328257345829737 0.14422705683279238 0.043935860141293651 0.021491517068892473 -0.029509047464662482 0.050182602811852432 0.021643635700223204 0.11565820200613754 1.0627811748506568 0.019510423030225914 0.39645224373950821 0.08937693363781142 0.28736109396221771 0.31352813732775814
decision_type=2 2 2 2 2 2 2 2 2 2 2 2 2 2 2 2 2 2 2 2 2 2 2 2 2 2 2 2 2 2
left_child=1 -1 11 23 5 10 7 9 29 -4 -5 12 16 14 -14 -7 17 -2 19 24 -11 28 -21 -3 -18 -26 -10 -28 -15 -9
right_child=2 3 6 4 -6 15 -8 8 26 20 -12 -13 13 21 -16 -17 18 -19 -20 22 -22 -23 -24 -25 25 -27 27 -29 -30 -31
leaf_value=-0.00024987613859335983 -6.1808189565193067e-05 0.00026273960506083917 0.00027421144465974312 0.0041057890086360731 0.00081750433012712826 0.010106721244679363 -0.0039127989810439625 0.003410957439829452 0.0065408718550500804 0.001143062200108146 0.00097057282677185915 -0.0028973459180833983 0.00073123761541289722 0.00022171529430056118 0.0049640121419565397 0.0053464270079111821 -0.00061173048779041776 0.0055572627662166174 -0.0011577872009783292 0.00096368761304859655 -0.00121191550341153 -0.00065988424090212042 -0.0001729302359268479 0.0062534141052212264 0.012173497185576707 0.00041540913657156812 0.0066354481912899903 -2.6346910700975161e-05 0.0016619676321670282 -0.00020620122829458906
leaf_weight=1574 23815 864 26015 349 553 102 101 130 118 324 348 227 351 2887 203 263 11747 123 3050 1174 1422 1465 16082 37 20 58 56 106 751 345
leaf_count=1574 23815 864 26015 349 553 102 101 130 118 324 348 227 351 2887 203 263 11747 123 3050 1174 1422 1465 16082 37 20 58 56 106 751 345
internal_value=2.78388e-06 0.00115522 -4.92582e-05 0.00203424 0.0028853 0.00396203 0.000241057 0.000255769 0.00200384 0.000208228 0.00254043 -0.000183359 -0.000173378 0.000386399 0.00228224 0.0066767 -0.000229856 -3.29359e-05 -0.000376564 -0.00029463 -0.000774909 0.00018058 -9.56012e-05 0.00050875 -0.000585068 0.0034303 0.00407363 0.0022765 0.00051903 0.000783758
internal_weight=94660 4090 90570 2516 1615 1062 28617 28516 755 27761 697 61953 61726 5657 554 365 56069 23938 32131 29081 1746 5103 17256 901 11825 78 280 162 3638 475
internal_count=94660 4090 90570 2516 1615 1062 28617 28516 755 27761 697 61953 61726 5657 554 365 56069 23938 32131 29081 1746 5103 17256 901 11825 78 280 162 3638 475
is_linear=0
shrinkage=0.05


Tree=10
num_leaves=31
num_cat=0
split_feature=2 1 4 3 0 3 3 0 6 8 5 3 4 4 1 4 0 2 4 2 4 3 0 1 0 0 3 3 4 6
split_gain=2.43892 1.6805 1.36543 1.4036 1.34664 1.17964 1.06442 1.13251 1.03657 1.0014 0.878596 0.830332 0.658265 0.620493 0.634033 1.02043 0.95057 0.670192 0.606635 0.584005 0.705983 0.554491 0.548943 0.5469 0.820062 0.515783 0.508651 0.483654 0.480176 0.631013
threshold=-0.25946839406045136 -0.090979480249380615 0.08419313775632363 0.090511306773628938 -0.075615445320520433 0.016437136402170007 0.096718677553792959 -0.1695825075288058 0.10206783054479328 59.352889460394273 0.93504253290755412 0.040450981068971222 0.046321871020512266 0.067164653542780811 0.07107408963892882 0.017594569829801111 0.11977756827563736 -0.019610123119015051 0.052560209092310621 0.24912744308106219 0.075228329276356018 0.073403936579598747 0.075022588193017783 0.25188352315513124 0.28541921224907701 0.047873803963912505 0.047336056006874273 0.10405492977276236 0.0211015710473061 0.036116776013392575
decision_type=2 2 2 2 2 2 2 2 2 2 2 2 2 2 2 2 2 2 2 2 2 2 2 2 2 2 2 2 2 2
left_child=1 6 3 5 9 -2 7 18 23 27 13 -9 -12 14 16 -16 28 -18 26 -15 -21 -14 -17 -6 -25 -22 -1 -5 29 -7
right_child=2 -3 -4 4 8 10 -8 11 -10 -11 12 -13 21 19 15 22 17 -19 -20 20 25 -23 -24 24 -26 -27 -28 -29 -30 -31
leaf_value=0.0050719097435392227 -0.00048757353900357668 -0.00092982388089720097 -0.0032392858193168125 -0.0013358288487732605 -0.00044997669408544238 -0.00011338677155575544 -0.00088117256723103119 0.0010148159631574378 -0.0050444140390896088 0.0081293858417861714 0.00029023338867542858 0.0037216363647866665 -0.0005765482309365034 -0.0024076121238184828 0.011126389140686529 0.0006118464946023919 0.0050154700488533399 -1.6874693600194797e-05 0.0018211625214258021 -0.001740409333198782 0.00081651450067498461 0.00063020467690911653 -0.00052621165445438203 0.0052016006676893767 -0.0016527950946086398 0.0068541036950959325 0.0098863949746261417 0.0072326124124431415 -0.00028450361052137973 0.0011262078696778178
leaf_weight=170 13355 502 334 58 169 3546 222 711 67 135 30879 471 4234 574 22 4397 149 119 89 248 143 1228 1396 160 60 47 81 23 29725 1445
leaf_count=170 13355 502 334 58 169 3546 222 711 67 135 30879 471 4234 574 22 4397 149 119 89 248 143 1228 1396 160 60 47 81 23 29725 1445
internal_value=-8.61658e-06 0.00161939 -4.81407e-05 -3.65779e-05 0.00224019 -5.32978e-05 0.00235316 0.00282492 0.000699707 0.00549231 2.09134e-05 0.00209342 0.000200735 -0.000135383 -0.000105047 0.000378414 -0.000185407 0.00278096 0.00536796 -0.00135839 1.66277e-05 -0.000305239 0.000337597 0.00168905 0.00333222 0.00231002 0.00662559 0.00109719 -0.000208307 0.000245502
internal_weight=94759 2246 92513 92179 672 91507 1744 1522 456 216 78152 1182 36341 41811 40799 5815 34984 268 340 1012 438 5462 5793 389 220 190 251 81 34716 4991
internal_count=94759 2246 92513 92179 672 91507 1744 1522 456 216 78152 1182 36341 41811 40799 5815 34984 268 340 1012 438 5462 5793 389 220 190 251 81 34716 4991
is_linear=0
shrinkage=0.05


Tree=11
num_leaves=31
num_cat=0
split_feature=0 4 3 7 2 3 4 2 4 4 1 5 3 0 1 2 2 4 1 0 8 0 4 4 3 0 4 4 4 4
split_gain=2.22626 1.19552 1.20506 1.08031 1.05197 1.7829 0.937427 0.965808 0.850043 0.698652 0.697592 0.685633 0.585602 0.579298 0.573733 0.55702 0.553898 0.581567 0.437599 0.415417 1.68164 0.396419 0.395315 0.394419 0.466831 0.452008 0.719721 0.386809 0.398965 0.384327
threshold=-0.1695825075288058 0.08419313775632363 0.017373690164231983 1.2615670664354313 -0.2163448456763962 0.041943617573130289 0.045515846140030215 -0.2218715723999625 0.047176447273648676 0.042797267939414539 0.11940748369969424 0.93504253290755412 0.062445398026537931 0.022151149458302436 -0.084588797416263281 0.28736109396221771 0.55958524998114778 0.067164653542780811 -0.044744387767599085 -0.095699589355795298 59.352889460394273 0.28541921224907701 0.01898133223827907 0.0211015710473061 0.024794478545324714 0.066932070048666095 0.01830661217973335 0.075228329276356018 0.071471150246126547 0.07325392210563321
decision_type=2 2 2 2 2 2 2 2 2 2 2 2 2 2 2 2 2 2 2 2 2 2 2 2 2 2 2 2 2 2
left_child=6 2 18 4 5 14 7 -1 11 13 -8 15 21 -7 -4 23 17 -5 22 20 -14 -10 -2 25 -25 -6 -27 28 -19 -11
right_child=1 -3 3 16 8 9 10 -9 12 29 -12 -13 19 -15 -16 -17 -18 27 -20 -21 -22 -23 -24 24 -26 26 -28 -29 -30 -31
leaf_value=0.0059505701606327819 0.00032821243580213308 -0.0030160536342682736 0.00064196157200731925 -0.00027730691911918777 0.00027080413050076306 0.0036752901166714779 0.00059726083317084835 0.00076643436667883267 -0.0006404828939435952 0.0022100160157801944 0.0057920454745827663 0.00025164926037176321 -0.00089844680318436278 0.0097642338439903192 -0.0010125510874694496 0.0014647341089217497 0.0010889966333065602 0.0059568196611228183 -0.00060458412372620053 -9.2759397634977243e-05 0.0056467968360461957 -0.0039993623674296503 -0.00053359495728488935 -0.00046948466916504108 -3.5699817104784067e-05 0.012291174562415109 0.0012917358131180037 0.0029444245451789659 0.01355611637324816 -0.0010243073474140267
leaf_weight=261 3018 335 1728 35 4214 259 631 137 6755 688 72 29329 259 46 752 574 173 39 10627 3321 158 89 2380 9086 19542 20 58 36 31 106
leaf_count=261 3018 335 1728 35 4214 259 631 137 6755 688 72 29329 259 46 752 574 173 39 10627 3321 158 89 2380 9086 19542 20 58 36 31 106
internal_value=-8.18576e-06 -3.44623e-05 -2.37594e-05 5.80485e-05 4.61107e-05 0.000883163 0.00222707 0.00416608 5.29861e-06 0.00255957 0.0011293 7.51303e-05 -0.000409276 0.00459362 0.000140271 -7.94385e-05 0.00298486 0.00531099 -0.000418367 9.40188e-05 0.00158153 -0.000684162 -5.17619e-05 -0.000106363 -0.000173375 0.000340613 0.0041121 0.00715618 0.00932222 0.00177823
internal_weight=94759 93658 93323 77298 76984 3579 1101 398 73405 1099 703 62823 10582 305 2480 33494 314 141 16025 3738 417 6844 5398 32920 28628 4292 78 106 70 794
internal_count=94759 93658 93323 77298 76984 3579 1101 398 73405 1099 703 62823 10582 305 2480 33494 314 141 16025 3738 417 6844 5398 32920 28628 4292 78 106 70 794
is_linear=0
shrinkage=0.05


Tree=12
num_leaves=31
num_cat=0
split_feature=2 1 4 3 0 3 7 3 6 4 8 4 0 2 3 7 4 3 1 2 4 4 0 8 6 0 7 3 2 4
split_gain=2.02567 1.41414 1.13312 1.15607 1.16695 0.971381 0.969828 0.912235 0.972635 0.982133 0.846749 0.720847 0.72872 1.41542 0.821999 0.71837 0.700123 0.65446 0.613392 0.789318 0.606821 0.78866 0.559268 0.543663 0.540045 0.542451 0.534151 0.525155 0.965451 0.806089
threshold=-0.25946839406045136 -0.090979480249380615 0.08419313775632363 0.090511306773628938 -0.075615445320520433 0.016437136402170007 1.2615670664354313 0.096718677553792959 0.084802061465725928 0.041336968164545886 59.352889460394273 0.05615403588806888 0.042680913222686419 0.0039602900673241246 0.04884234563803002 1.0348385075571651 0.03674979239075641 0.073403936579598747 0.22540393296091313 0.22167679267319965 0.042209987794792007 0.03960419441927035 -0.14660597200070882 19.699380971908308 0.10206783054479328 0.18611846486846487 0.97908303502061456 0.04255496784174282 -0.084840489450847198 0.026004394116993606
decision_type=2 2 2 2 2 2 2 2 2 2 2 2 2 2 2 2 2 2 2 2 2 2 2 2 2 2 2 2 2 2
left_child=1 7 3 5 10 -2 24 8 22 -10 -5 12 15 14 -14 26 -15 18 19 -13 21 -16 -1 -24 25 -6 27 29 -29 -7
right_child=2 -3 -4 4 6 11 -8 -9 9 -11 -12 17 13 16 20 -17 -18 -19 -20 -21 -22 -23 23 -25 -26 -27 -28 28 -30 -31
leaf_value=0.0037731577709826367 -0.0004425188794962583 -0.00086256613473355065 -0.0029508270992185366 0.0010188715429660393 0.0014240838498618931 0.00028240560403847972 0.0046401493652021078 -0.00084517891160053836 0.011357219034107403 0.0037611456205379605 0.0074853044126292753 -0.0011885774587542459 0.00078462586957643912 0.0003440202878557741 0.00065536803355956054 0.00037541728716600431 -0.00041566267405658563 0.00035044192069567698 -0.0025558810323235912 0.0003489157512761847 0.0018338886653377019 0.0080799007125085948 -0.00019489499903714634 0.0023711478582324639 -0.0051621115950279337 -0.0035901626719957373 -0.00030843479062058615 0.0014596535553194204 -0.00083785144937932132 -0.00030419791192429072
leaf_weight=271 13355 502 334 81 215 10969 112 222 48 375 135 2323 4635 7871 56 9091 4934 1548 470 1303 521 99 392 436 57 72 19575 1542 650 12565
leaf_count=271 13355 502 334 81 215 10969 112 222 48 375 135 2323 4635 7871 56 9091 4934 1548 470 1303 521 99 392 436 57 72 19575 1542 650 12565
internal_value=-7.77646e-06 0.00147591 -4.37968e-05 -3.32635e-05 0.00203302 -4.84377e-05 0.000598997 0.00214902 0.00258576 0.00462311 0.00506039 1.89049e-05 6.12713e-05 0.00033593 0.00102218 -3.02076e-05 5.13006e-05 -0.000525374 -0.00085637 -0.000636081 0.00265099 0.00539749 0.00180159 0.00115631 -0.000716727 0.000166154 -0.000111608 3.81576e-05 0.000778368 -3.07869e-05
internal_weight=94759 2246 92513 92179 672 91507 456 1744 1522 423 216 78152 72508 18116 5311 54392 12805 5644 4096 3626 676 155 1099 828 344 287 45301 25726 2192 23534
internal_count=94759 2246 92513 92179 672 91507 456 1744 1522 423 216 78152 72508 18116 5311 54392 12805 5644 4096 3626 676 155 1099 828 344 287 45301 25726 2192 23534
is_linear=0
shrinkage=0.05


Tree=13
num_leaves=31
num_cat=0
split_feature=7 4 3 6 8 0 5 4 6 4 3 2 7 2 6 5 0 6 2 0 6 7 6 6 4 6 2 3 0 6
split_gain=1.8579 0.973444 1.10408 0.991342 1.04443 1.87315 0.901958 1.0317 1.47636 0.900277 1.07661 0.667996 0.650716 0.647542 0.74811 0.636439 0.506456 0.515191 0.479692 0.50453 0.658596 0.49668 0.463922 0.462959 0.458704 0.653382 0.422803 0.532797 0.401201 0.465768
threshold=0.86871272134669086 0.08419313775632363 0.081689137874149761 0.10206783054479328 58.947740764482653 -0.025982498421658281 0.93132122155133179 0.053994087434506392 0.084802061465725928 0.05615403588806888 0.017373690164231983 0.085805351232848839 1.2615670664354313 0.49999999999999994 0.079260986654325752 0.77431018732083889 -0.13904404789510297 0.087587859075432109 0.17538464670172119 0.21854652829407309 0.060033836659163495 0.95120464328061682 0.054080123012280885 0.086111002396079342 0.069943061377766208 0.068503455216219297 -0.25946839406045136 0.02939327969821684 0.37034381242513087 0.065841495572588046
decision_type=2 2 2 2 2 2 2 2 2 2 2 2 2 2 2 2 2 2 2 2 2 2 2 2 2 2 2 2 2 2
left_child=6 2 9 4 -4 -6 -1 8 -8 10 -2 -5 28 14 -14 -12 -3 -18 21 22 -21 -11 -20 -9 -23 -26 27 -17 -7 -30
right_child=1 16 3 11 5 12 7 23 -10 18 15 -13 13 -15 -16 26 17 -19 19 20 -22 24 -24 -25 25 -27 -28 -29 29 -31
leaf_value=0.00022643342891038744 -0.00038308401078580173 0.0021691663980322041 -0.00040273969262146208 0.0022662825442537607 0.0064746464515337727 0.00088323513718697631 0.0025486395558292825 -0.0010161137757073741 0.0085034133567720247 -0.00013629763988796012 -0.00013324144954659923 -0.0041419385953378853 0.0030831660798867236 0.00081958447077215232 0.012696367570349729 -0.00088381342253544273 0.00057605565196999743 -0.0045547767615689424 0.0033080200807226248 0.00042386902365753237 -0.0041693501682130941 -0.0012185125697490686 -7.1685241601100538e-05 0.0021845505992001469 -0.00033076368411002479 -0.0047773254827432367 0.00016779541473840897 0.0028927739347822919 -0.0004699092343798839 -0.0093470790762115608
leaf_weight=769 15896 46 331 61 255 309 539 223 129 840 24459 122 50 87 34 135 62 232 107 145 169 1524 1989 229 128 233 45286 303 45 22
leaf_count=769 15896 46 331 61 255 309 539 223 129 840 24459 122 50 87 34 135 62 232 107 145 169 1524 1989 229 128 233 45286 303 45 22
internal_value=-7.38763e-06 -3.8963e-05 -2.91504e-05 0.00140876 0.00196029 0.00293555 0.00154497 0.00245029 0.00369859 -4.9896e-05 -1.15298e-05 -0.00200586 0.0012857 0.00384292 0.00697422 7.26248e-05 -0.00270944 -0.00347276 -0.000693036 -0.000179163 -0.00204828 -0.00114751 0.000100847 0.000605462 -0.00159813 -0.00320071 0.000182748 0.00172876 0.000122707 -0.0033848
internal_weight=94759 92870 92530 1316 1133 802 1889 1120 668 91214 86079 183 547 171 84 70183 340 294 5135 2410 314 2725 2096 452 1885 361 45724 438 376 67
internal_count=94759 92870 92530 1316 1133 802 1889 1120 668 91214 86079 183 547 171 84 70183 340 294 5135 2410 314 2725 2096 452 1885 361 45724 438 376 67
is_linear=0
shrinkage=0.05


Tree=14
num_leaves=31
num_cat=0
split_feature=0 5 7 6 7 1 0 2 6 3 2 6 2 8 2 3 7 0 3 1 0 6 3 0 1 0 7 0 6 6
split_gain=1.72872 0.968479 0.955037 0.746694 0.850283 0.698335 0.760531 0.838036 0.729765 1.34615 0.656146 0.808871 0.583315 0.582093 0.577282 1.04348 0.567398 0.894091 0.56384 0.506724 0.460148 0.432562 0.486396 0.666938 0.742154 0.532812 0.652376 0.479538 0.675225 0.423853
threshold=-0.1695825075288058 0.97107485805783089 0.86072281664835748 0.11529481124935674 1.2615670664354313 0.074304722166864692 0.11239655041946063 -0.019610123119015051 0.090955466493947007 0.085536567110894343 0.55958524998114778 0.075093385010699995 0.45614633172285773 22.536307229205715 -0.28464945648531947 0.090511306773628938 0.98738587605686201 0.003162952901687555 0.046387788404331304 0.11940748369969424 -0.071862718549963886 0.025311583587657841 0.038698852485050901 -0.030092247093720433 0.22540393296091313 0.087218324046217779 1.0348385075571651 -0.05169326316385147 0.043632714200712054 0.028925176621093847
decision_type=2 2 2 2 2 2 2 2 2 2 2 2 2 2 2 2 2 2 2 2 2 2 2 2 2 2 2 2 2 2
left_child=14 5 13 4 16 6 -2 18 9 -7 11 -6 20 -3 15 -1 17 -4 -8 -16 -10 -18 25 24 -24 26 -23 28 -28 -27
right_child=1 2 3 -5 10 8 7 -9 12 -11 -12 -13 -14 -15 19 -17 21 -19 -20 -21 -22 22 23 -25 -26 29 27 -29 -30 -31
leaf_value=0.0052228476615602164 -0.00025353146041412602 0.00073848528941486131 9.0531521654435473e-05 -0.0048219785449634261 0.00065499142079648593 0.00034298671249839306 0.00032233365013131072 -0.00032495769766473632 0.00041328963112997983 0.0067910323589585909 0.00073982617528103726 0.00857489868061748 0.00080788438553335495 0.0039325763540210366 0.00067838200458077971 -0.0004645266473981674 -0.0008597206492218266 0.00092682875702852568 0.0055192294215458664 0.0051012392627954907 -0.0052649237169874099 -0.00023589987907117729 0.00044039427190226647 -0.00050025195040603876 0.0051122671447604174 0.0048851218168443492 0.011784247665200384 0.00043078631312850902 0.0019920775538142519 0.00070621071608563282
leaf_weight=270 47318 316 9777 76 54 6276 77 243 48 82 176 80 108 260 644 115 1483 4748 162 72 139 7630 989 6400 93 62 20 4049 147 2845
leaf_count=270 47318 316 9777 76 54 6276 77 243 48 82 176 80 108 260 644 115 1483 4748 162 72 139 7630 989 6400 93 62 20 4049 147 2845
internal_value=-7.01825e-06 -3.01732e-05 0.000159315 0.000129181 0.000138941 -0.000166601 -0.000233402 0.00174268 0.00031335 0.000426148 0.002747 0.00538329 -0.00211775 0.00218026 0.00196268 0.00352402 0.0001178 0.000363904 0.00384492 0.00112314 -0.00380741 -3.29152e-05 2.223e-05 -0.000306151 0.000841951 0.000188769 3.99171e-05 0.000539083 0.00316479 0.000795338
internal_weight=94759 93658 39205 38629 38553 54453 47800 482 6653 6358 310 134 295 576 1101 385 38243 14525 239 716 187 23718 22235 7482 1082 14753 11846 4216 167 2907
internal_count=94759 93658 39205 38629 38553 54453 47800 482 6653 6358 310 134 295 576 1101 385 38243 14525 239 716 187 23718 22235 7482 1082 14753 11846 4216 167 2907
is_linear=0
shrinkage=0.05


Tree=15
num_leaves=31
num_cat=0
split_feature=7 4 5 6 5 4 6 3 8 6 4 8 2 6 3 7 3 4 2 5 8 4 3 4 1 3 2 6 3 2
split_gain=1.56867 1.04213 1.02325 0.788906 0.681791 0.842669 0.814126 0.594793 1.282 0.91878 0.841046 0.633467 0.581398 0.550303 0.5418 0.515445 0.578754 0.584286 0.837313 1.15652 0.607339 0.482605 0.48736 0.468996 0.44995 0.871863 0.472974 0.443578 0.432033 0.42764
threshold=0.86072281664835748 0.080166771924479366 1.0908826981519166 0.040701959455614521 1.4879021829574082 0.052560209092310621 0.077505418664557221 0.078823937013957693 63.802191624751295 0.10206783054479328 0.047176447273648676 69.420717900263512 0.28736109396221771 0.075093385010699995 0.081689137874149761 0.97908303502061456 0.085536567110894343 0.03712720334551229 0.23472715444750883 1.1233379425902656 72.936290206070908 0.023880003143725553 0.015702124799087957 0.020394349790431063 -0.090979480249380615 0.033166905776939815 -0.2163448456763962 0.084802061465725928 0.043550755040580098 0.67890594760754142
decision_type=2 2 2 2 2 2 2 2 2 2 2 2 2 2 2 2 2 2 2 2 2 2 2 2 2 2 2 2 2 2
left_child=4 2 3 21 -1 6 -6 10 9 -9 12 14 23 -14 -10 24 17 18 -17 20 -20 22 -2 -5 25 -4 -27 -25 -23 -3
right_child=1 29 15 7 5 -7 -8 8 11 -11 -12 -13 13 -15 -16 16 -18 -19 19 -21 -22 28 -24 27 -26 26 -28 -29 -30 -31
leaf_value=0.0010236926968722252 -0.00052807592635309853 -0.0027969312770948678 -0.00048464662816146559 0.0014006572127892125 0.0021303075249306858 0.00046764010882103136 0.0084282363316794222 0.001237916680818356 0.012919892652919799 -0.0045174960263593255 -0.00051525396612843986 0.001447560866970731 0.0011793321613357746 0.0076892927929293371 0.005199769212647456 0.00012630567175221993 0.0017776557110790428 -0.00037984871719254961 0.0040818568452128346 0.0013789223938603244 0.016256409403868018 -0.00073148296698657641 -2.6728178605757381e-06 2.2122642900103616e-05 0.00080667740726030133 0.0024856097047912733 0.0004503485152670417 0.0026702718208774594 0.0052819607961767665 0.00014953368672321226
leaf_weight=1147 7359 477 2311 644 94 133 113 358 33 86 6771 69 718 34 73 12867 492 5783 21 695 20 6803 11028 29034 5785 434 834 159 30 166
leaf_count=1147 7359 477 2311 644 94 133 113 358 33 86 6771 69 718 34 73 12867 492 5783 21 695 20 6803 11028 29034 5785 434 834 159 30 166
internal_value=-4.56409e-06 -3.03021e-05 -1.63491e-05 -0.000129505 0.0016066 0.00357305 0.00556831 1.44503e-05 0.00155168 0.00012313 -1.10193e-05 0.00517612 0.000100595 0.00147367 0.0076032 0.000228208 8.41289e-05 4.11487e-05 0.000220126 0.00186032 0.0100207 -0.000346289 -0.000212954 6.59887e-05 0.000534062 9.34135e-05 0.00114696 3.65458e-05 -0.000705081 -0.00203626
internal_weight=94571 93084 92441 63199 1487 340 207 37979 619 444 37360 175 30589 752 106 29242 19878 19386 13603 736 41 25220 18387 29837 9364 3579 1268 29193 6833 643
internal_count=94571 93084 92441 63199 1487 340 207 37979 619 444 37360 175 30589 752 106 29242 19878 19386 13603 736 41 25220 18387 29837 9364 3579 1268 29193 6833 643
is_linear=0
shrinkage=0.05


Tree=16
num_leaves=31
num_cat=0
split_feature=7 4 5 6 4 5 6 0 7 4 6 5 7 2 6 8 7 0 4 2 5 4 0 1 4 4 0 2 6 1
split_gain=1.41573 0.940527 0.923487 0.711987 0.623281 0.958016 0.709758 0.48018 0.69256 0.633077 0.62862 0.470198 0.469924 0.577448 0.76279 0.672294 0.52857 0.468696 0.444133 0.755675 1.04376 0.548953 0.529264 0.499299 0.435551 0.430758 0.445892 1.04666 0.507936 0.425847
threshold=0.86072281664835748 0.080166771924479366 1.0908826981519166 0.040701959455614521 0.054760737631936472 0.85946776440221384 0.077505418664557221 -0.00076716634002516038 1.0755194490671252 0.042797267939414539 0.043954262939713232 1.5813346380153273 1.2615670664354313 0.55958524998114778 0.079260986654325752 72.470653415659413 0.97908303502061456 -0.042353785735399656 0.03712720334551229 0.23472715444750883 1.1233379425902656 0.031658037489017632 -0.013900881140357866 0.23794422953011254 0.023880003143725553 0.052560209092310621 0.051279432178308555 -0.19406488401918168 0.040844470127353094 0.058701630629180442
decision_type=2 2 2 2 2 2 2 2 2 2 2 2 2 2 2 2 2 2 2 2 2 2 2 2 2 2 2 2 2 2
left_child=4 2 3 24 5 -1 -7 8 9 -5 -11 -8 16 14 -14 -16 17 -4 19 -18 21 -21 23 -20 -2 26 -9 -28 -29 -12
right_child=1 -3 12 7 -6 6 11 25 -10 10 29 -13 13 -15 15 -17 18 -19 22 20 -22 -23 -24 -25 -26 -27 27 28 -30 -31
leaf_value=-2.3823651033436205e-05 -0.00020230638199869165 -0.0019344447117434103 0.00011798357119268587 0.00023142980313399736 0.0003803933113960573 0.002062990712284721 0.0036941968099240005 -0.00032751090065595182 0.001251147298318115 0.0046256593537333688 -0.00065096454696406429 0.0081319104838750763 0.0016026455092574715 -6.7873166866417296e-05 0.0048205550077060864 0.016655303242150695 0.0001199903976621664 0.000828726207687644 0.00036307575516339842 0.015165762259580551 0.0013099763001085084 0.0035911900852806863 -0.00052800168592697283 0.0042108063152029541 -0.00066982713663456045 -0.00085248027954822059 0.0051059467002580114 0.0066566125893344485 0.00012961007232988842 0.00084511901175017611
leaf_weight=267 18387 643 4234 16965 660 318 135 7847 1359 61 4224 107 76 122 30 20 12867 5130 1009 21 695 20 4926 92 6833 2209 110 30 4638 536
leaf_count=267 18387 643 4234 16965 660 318 135 7847 1359 61 4224 107 76 122 30 20 12867 5130 1009 21 695 20 4926 92 6833 2209 110 30 4638 536
internal_value=-4.33588e-06 -2.8787e-05 -1.55317e-05 -0.00012303 0.00152627 0.00244075 0.00361583 1.37278e-05 0.000156059 8.77482e-05 -0.000417865 0.00565633 0.000216798 0.00238405 0.00475813 0.00955445 0.00019826 0.000507359 5.08128e-05 0.00020912 0.00176731 0.00951963 -0.000306487 0.000684594 -0.000328974 -0.000208347 -9.56431e-05 0.000285158 0.000171557 -0.000482498
internal_weight=94571 93084 92441 63199 1487 827 560 37979 23145 21786 4821 242 29242 248 126 50 28994 9364 19630 13603 736 41 6027 1101 25220 14834 12625 4778 4668 4760
internal_count=94571 93084 92441 63199 1487 827 560 37979 23145 21786 4821 242 29242 248 126 50 28994 9364 19630 13603 736 41 6027 1101 25220 14834 12625 4778 4668 4760
is_linear=0
shrinkage=0.05


Tree=17
num_leaves=31
num_cat=0
split_feature=7 4 5 5 4 6 6 0 7 2 6 8 7 1 2 5 4 5 2 5 6 4 2 0 6 1 8 0 6 4
split_gain=1.28029 0.899719 0.801235 0.657866 0.776404 0.711609 0.57557 0.507737 0.481606 0.522809 0.747943 0.570367 0.42844 0.454103 0.434624 0.424608 0.867006 0.741334 0.698108 0.461402 0.709197 0.658072 0.411908 0.595972 0.73495 0.678748 0.410902 0.410569 0.4836 0.396987
threshold=0.86871272134669086 0.080166771924479366 1.0045334309047156 1.3878485155539169 0.052560209092310621 0.086111002396079342 0.040701959455614521 0.11565820200613754 1.2615670664354313 0.55958524998114778 0.079260986654325752 72.470653415659413 0.98738587605686201 -0.0070017690200619423 -0.046177935442967548 1.4339666377831921 0.030982515595217964 1.8092955803144031 -0.086210321537681753 1.5308901931398422 0.0397812345849516 0.028132951268526517 0.67890594760754142 0.28541921224907701 0.11529481124935674 0.22540393296091313 61.482795380400958 -0.060294954159138152 0.048341071152422914 0.03712720334551229
decision_type=2 2 2 2 2 2 2 2 2 2 2 2 2 2 2 2 2 2 2 2 2 2 2 2 2 2 2 2 2 2
left_child=3 2 6 7 5 -5 -2 -1 12 10 -10 -12 13 14 27 -15 17 18 -17 20 -20 -21 26 24 25 -24 -3 28 -4 -14
right_child=1 22 8 4 -6 -7 -8 -9 9 -11 11 -13 29 15 -16 16 -18 -19 19 21 -22 -23 23 -25 -26 -27 -28 -29 -30 -31
leaf_value=0.00059705685068637551 -0.00032975533005306836 -0.0017507251865218247 -0.00062304318957997476 0.003098302050896634 0.00032013496576094254 0.0088443657090621335 -3.9553941989569225e-06 0.0075216145271918295 0.0014572270260825278 3.4193552398521988e-05 0.0050589022808708254 0.015822538188658655 0.00016123065836391945 0.00038742956065227944 -0.00043818752789135133 -9.089816286827305e-05 0.00015447899263261144 0.0010200880262923543 0.0060840452819740263 0.0054372737996698341 -0.0023136044102834495 0.012743146963513051 0.0098335288801333978 -0.0048281796089763391 -0.0036620727047706261 0.00075130972801768327 -0.0050623550041634666 0.00066892913317022123 0.00052105692109221768 -0.00029668481857495762
leaf_weight=1355 22612 342 1754 234 186 70 33849 27 78 126 32 20 14935 1438 1979 70 527 296 65 147 41 39 36 43 39 48 129 5174 1951 6929
leaf_count=1355 22612 342 1754 234 186 70 33849 27 78 126 32 20 14935 1438 1979 70 527 296 65 147 41 39 36 43 39 48 129 5174 1951 6929
internal_value=-4.11908e-06 -3.02624e-05 -1.73051e-05 0.00129046 0.0028646 0.00442141 -0.000134435 0.000732341 0.000168455 0.00232933 0.00455384 0.00919876 0.000152804 0.000374499 0.000231869 0.00096492 0.00166571 0.00287606 0.00439366 0.00546872 0.0028359 0.00696915 -0.00190291 0.000238779 0.00201016 0.00464369 -0.00265773 0.000381215 -2.05764e-05 1.6111e-05
internal_weight=94571 92699 92062 1872 490 304 56461 1382 35601 256 130 52 35345 13481 10858 2623 1185 658 362 292 106 186 637 166 123 84 471 8879 3705 21864
internal_count=94571 92699 92062 1872 490 304 56461 1382 35601 256 130 52 35345 13481 10858 2623 1185 658 362 292 106 186 637 166 123 84 471 8879 3705 21864
is_linear=0
shrinkage=0.05


Tree=18
num_leaves=31
num_cat=0
split_feature=7 4 5 3 6 4 6 3 4 8 4 7 7 2 4 2 5 6 4 2 3 3 4 3 3 2 4 7 3 1
split_gain=1.16305 0.786792 0.758204 0.580895 0.663022 0.71015 0.569025 0.480708 0.7672 0.750408 0.416909 0.396659 0.453425 0.627496 0.48936 0.586467 0.873453 0.490242 0.410248 1.01313 0.821417 0.455988 0.391613 0.439282 0.39007 0.379073 0.588332 0.641251 0.378238 0.718048
threshold=0.86072281664835748 0.08419313775632363 1.0908826981519166 0.096718677553792959 0.084802061465725928 0.043076969136328365 0.040701959455614521 0.078823937013957693 0.053994087434506392 59.549553919861729 0.020394349790431063 0.97908303502061456 1.1900005080821865 0.3240287253141832 0.03712720334551229 0.23472715444750883 1.1233379425902656 0.048341071152422914 0.069943061377766208 0.67890594760754142 0.090511306773628938 0.051233624034969935 0.023880003143725553 0.015702124799087957 0.043550755040580098 0.21509525534226739 0.068614170701029376 1.0217808450291177 0.039665718965477555 -0.11900563761270137
decision_type=2 2 2 2 2 2 2 2 2 2 2 2 2 2 2 2 2 2 2 2 2 2 2 2 2 2 2 2 2 2
left_child=3 2 6 4 -1 -6 22 8 10 -9 -8 28 14 -14 15 -13 17 -17 21 20 -20 -15 23 -2 -24 26 -10 -28 29 -4
right_child=1 -3 11 -5 5 -7 7 9 25 -11 -12 12 13 18 -16 16 -18 -19 19 -21 -22 -23 24 -25 -26 -27 27 -29 -30 -31
leaf_value=0.0009359709352305904 -0.00047783602388588685 -0.0024094054598379814 -0.00062479612127970075 -0.0011380946458615141 0.0079814308155935418 0.0024720359726264482 0.0013221592189915129 -0.00045740362287003116 -0.00063649769197521484 0.002922030571239599 3.8505015411101335e-05 0.00010331888771306696 0.0041356786101747088 0.0047850586776621643 -0.00037392584132124894 0.014281445177039132 0.0011451729313920473 0.0032107369229197507 0.014124605132244707 -0.0027586753164288266 0.0032744853782187243 -0.00082049651960588586 -0.00064703322606443462 2.097881304653254e-05 0.0050669134074511632 1.2599651219294404e-05 -0.0014119735910697979 -0.0052560776457345739 0.0011226126567875541 0.00056077157282924362
leaf_weight=836 7359 345 1622 198 69 384 645 308 2197 352 32732 12867 152 40 5604 20 686 20 21 61 103 390 6804 11028 30 1393 392 150 1756 6007
leaf_count=836 7359 345 1622 198 69 384 645 308 2197 352 32732 12867 152 40 5604 20 686 20 21 61 103 390 6804 11028 30 1393 392 150 1756 6007
internal_value=-3.91313e-06 -2.60751e-05 -1.72089e-05 0.0013834 0.00177072 0.00331122 -0.000114488 7.28533e-06 -1.62521e-05 0.00134496 6.33112e-05 0.000192901 6.68702e-05 0.00125898 1.92403e-05 0.000181331 0.00156396 0.00874609 0.000547997 0.00251681 0.00511201 -0.00029905 -0.000298777 -0.000178661 -0.00062195 -0.00065894 -0.00100047 -0.00247584 0.000460996 0.000308708
internal_weight=94571 93084 92739 1487 1289 453 63390 38169 37509 660 33377 29349 19964 767 19197 13593 726 40 615 185 124 430 25221 18387 6834 4132 2739 542 9385 7629
internal_count=94571 93084 92739 1487 1289 453 63390 38169 37509 660 33377 29349 19964 767 19197 13593 726 40 615 185 124 430 25221 18387 6834 4132 2739 542 9385 7629
is_linear=0
shrinkage=0.05


Tree=19
num_leaves=31
num_cat=0
split_feature=7 4 3 2 4 6 4 3 0 1 4 3 6 1 2 7 7 7 2 2 2 8 6 3 1 2 4 6 3 3
split_gain=1.05373 0.752104 0.644862 0.55318 0.57886 0.595467 0.621988 0.501887 0.866948 1.32194 0.771761 0.623494 0.691761 0.553744 0.612583 0.750864 0.630479 0.505423 1.01202 0.56093 0.63874 0.954018 0.494606 0.449293 0.427925 0.420057 0.387608 0.743236 0.635533 0.613552
threshold=0.86871272134669086 0.08419313775632363 0.015702124799087957 -0.18325649420288828 0.071471150246126547 0.084802061465725928 0.043076969136328365 0.078823937013957693 -0.028928898291459944 0.16005576055956641 0.056973091929967239 0.081689137874149761 0.10206783054479328 0.22540393296091313 0.085805351232848839 0.95667931417540364 0.92395544666518459 1.1900005080821865 0.49999999999999994 -0.071995896380182486 0.55958524998114778 73.866111675067671 0.065058859753039475 0.062445398026537931 -0.22901669777244379 -0.25007347281264114 0.018580161756452676 0.035095156227941744 0.021491517068892473 0.01823468970638616
decision_type=2 2 2 2 2 2 2 2 2 2 2 2 2 2 2 2 2 2 2 2 2 2 2 2 2 2 2 2 2 2
left_child=3 2 -2 4 5 24 -7 10 9 -9 26 -11 -13 14 15 -12 -16 19 -19 -10 -21 -22 -18 -15 -1 -8 27 -4 -28 -29
right_child=1 -3 7 -5 -6 6 25 8 17 11 13 12 -14 23 16 -17 22 18 -20 20 21 -23 -24 -25 -26 -27 28 29 -30 -31
leaf_value=-0.00034827458511184285 -0.00036788250730262887 -0.0023712949373814293 0.00017352558202226342 -0.0013426358065920128 -0.000605718620098486 0.0077988426779795963 0.0034653657107099993 0.00037205213252218034 0.0034217280049822019 0.011004135669586627 9.2533767251657339e-05 0.0050364715124369078 -0.0032090809003546324 -0.0042639231025970665 -0.0084762855920763238 -0.0020883798776537977 0.0017546815342057553 0.0035679548461516591 -0.0014533923915325759 -0.0018542653517557427 0.011426048118459143 -0.0035054544988088313 -0.00015383020440846553 -0.0011964561038390351 0.0019092748314258811 -0.0011366156746679154 -0.00030922267169386877 0.00019229283791541687 8.833604661672238e-05 0.0026461400581727504
leaf_weight=300 11571 341 4566 196 281 70 265 366 68 37 694 207 29 166 21 915 425 230 178 532 23 20 1687 425 699 61 12208 430 56935 625
leaf_count=300 11571 341 4566 196 281 70 265 366 68 37 694 207 29 166 21 915 425 230 178 532 23 20 1687 425 699 61 12208 430 56935 625
internal_value=-3.71748e-06 -2.74351e-05 -1.87812e-05 0.00117075 0.00146468 0.00188173 0.00352249 3.122e-05 0.000883807 0.00233617 1.30035e-05 0.00496937 0.00402325 -0.000635755 -0.000411123 -0.0011477 0.000144504 7.84132e-07 0.00137727 -0.000872631 -0.00138049 0.00448116 0.000230222 -0.00205805 0.00123133 0.00260426 5.06027e-05 0.000449892 1.81424e-05 0.00164599
internal_weight=94571 92699 92358 1872 1676 1395 396 80787 1690 639 79097 273 236 4333 3742 1609 2133 1051 408 643 575 43 2112 591 999 326 74764 5621 69143 1055
internal_count=94571 92699 92358 1872 1676 1395 396 80787 1690 639 79097 273 236 4333 3742 1609 2133 1051 408 643 575 43 2112 591 999 326 74764 5621 69143 1055
is_linear=0
shrinkage=0.05


Tree=20
num_leaves=31
num_cat=0
split_feature=2 3 4 5 5 6 4 1 1 6 3 4 7 2 3 4 8 3 6 7 6 6 3 5 7 6 4 3 4 3
split_gain=1.03263 1.22178 0.812104 0.919501 0.670605 0.559354 0.523806 0.48963 0.46882 0.760388 0.971868 0.590978 0.582267 0.556825 0.77651 0.897786 0.523799 0.520772 0.543346 0.517706 0.509126 0.881891 0.487936 0.460698 0.448781 0.776502 0.768803 0.51114 0.437445 0.62385
threshold=-0.2163448456763962 0.029945962733472338 0.067164653542780811 0.86956092144867414 1.2263326039382381 0.08353038527956895 0.043076969136328365 -0.15008204558856356 0.07592658336398185 0.087587859075432109 0.081689137874149761 0.018452573279067134 0.9832640058514619 -0.079719702024534697 0.044294127750060017 0.028607561152843523 19.699380971908308 0.068981015715543131 0.11529481124935674 1.0089128409848065 0.032924519623856313 0.037290262469676892 0.047829750042089343 1.1465493008056729 0.94260261302244885 0.040844470127353094 0.01816456436019822 0.022504773123167704 0.043404770773867417 0.019899838521230003
decision_type=2 2 2 2 2 2 2 2 2 2 2 2 2 2 2 2 2 2 2 2 2 2 2 2 2 2 2 2 2 2
left_child=1 -1 3 -3 8 -5 -7 -6 13 10 11 20 22 14 15 24 -16 19 -19 -11 -10 -22 -13 -18 -2 26 27 -26 29 -15
right_child=4 2 -4 5 7 6 -8 -9 9 17 -12 12 -14 28 16 -17 23 18 -20 -21 21 -23 -24 -25 25 -27 -28 -29 -30 -31
leaf_value=-0.00030661447393072195 -0.00018579311782300132 0.00052372206273086446 -0.00037457971497782401 0.0020706501635818822 -0.001232538023198191 0.0082926294014656118 0.0033746526853734764 0.00025366027072041885 0.0015206959203024892 0.003826495934150775 0.0035097711699792022 0.0020625714267732635 0.00012874128450658765 -0.00048190104841275023 -0.0047141475300933868 -0.00051024435057687859 0.0010871228421396675 0.00037343465734670779 -0.0045505825489231232 -0.0042584840845342519 0.014924959866171282 0.00041802307358011607 0.010002046122985043 0.0049038689331306765 0.00084376048352565478 0.0013228804860804574 -0.00030787494575292674 0.0076482955732249799 -0.00068550336204743182 -4.1242594945305738e-05
leaf_weight=1712 4142 851 524 1058 570 70 239 19973 107 22 231 122 9248 12891 37 6425 1345 342 67 198 22 20 23 84 1924 1939 3337 28 5561 21308
leaf_count=1712 4142 851 524 1058 570 70 239 19973 107 22 231 122 9248 12891 37 6425 1345 342 67 198 22 20 23 84 1924 1939 3337 28 5561 21308
internal_value=-1.73342e-06 0.000741414 0.00139576 0.001814 -3.85249e-05 0.00261725 0.00448876 0.000212423 -0.000112783 0.000196721 0.000305174 0.000227594 0.000178035 -0.000167331 5.33223e-05 -3.77994e-05 0.0011594 -0.00148835 -0.000433189 -0.00344999 0.00335184 0.00801689 0.00332194 0.00131148 0.000229171 0.000466967 0.00015318 0.000941367 -0.000274222 -0.000207345
internal_weight=94420 4454 2742 2218 89966 1367 309 20543 69423 10402 9773 9542 9393 59021 19261 17795 1466 629 409 220 149 42 145 1429 11370 7228 5289 1952 39760 34199
internal_count=94420 4454 2742 2218 89966 1367 309 20543 69423 10402 9773 9542 9393 59021 19261 17795 1466 629 409 220 149 42 145 1429 11370 7228 5289 1952 39760 34199
is_linear=0
shrinkage=0.05


Tree=21
num_leaves=31
num_cat=0
split_feature=0 5 4 1 6 2 0 3 4 6 7 4 5 3 1 4 4 6 4 0 3 2 7 2 1 6 0 2 0 2
split_gain=1.21676 0.657788 0.541338 0.651142 0.630119 0.506769 1.43761 0.832647 0.72795 0.619118 0.87513 0.605429 0.63702 0.507139 0.476392 0.499942 0.452062 0.640758 0.903527 2.08996 0.654154 0.616369 0.42356 0.523979 0.550763 0.460394 0.572711 0.423091 0.421687 0.582826
threshold=-0.1695825075288058 1.2263326039382381 0.044774872605087175 0.13887499236110526 0.086111002396079342 -0.079719702024534697 0.14422705683279238 0.042258550018128498 0.01816456436019822 0.084802061465725928 1.0755194490671252 0.053994087434506392 1.1346502717990703 0.090511306773628938 -0.25524320131952677 0.047176447273648676 0.045147400483202198 0.033249930813290411 0.017886741155429813 0.053631986310255793 0.02192912556396857 0.16721276814333366 1.2615670664354313 0.49999999999999994 0.23794422953011254 0.098299700803052878 0.12812852305738856 -0.2218715723999625 0.027587381377431223 -0.17089433673489204
decision_type=2 2 2 2 2 2 2 2 2 2 2 2 2 2 2 2 2 2 2 2 2 2 2 2 2 2 2 2 2 2
left_child=2 5 4 -4 27 6 7 8 -2 10 16 12 28 -12 -11 -16 17 -7 19 20 -19 -18 23 -3 -25 26 -24 -1 -9 -30
right_child=1 22 3 -5 -6 9 -8 11 -10 14 13 -13 -14 -15 15 -17 21 18 -20 -21 -22 -23 25 24 -26 -27 -28 -29 29 -31
leaf_value=0.0036834058588975475 0.00072131541761983383 0.00022993026652971438 0.00036166705440003198 0.0054355362855962354 0.008032965056777917 -0.00049146343846496196 0.0046176513784032848 0.00071858722979492508 -0.00015989083711823361 0.0055535438431737333 0.00043787664137963508 -0.00026555776679574331 0.0049950745198934863 0.0050263614813629235 0.0025290320974021233 -0.0013056258684479424 -0.0011246727795334805 0.00085457938416032958 -7.8649677529066636e-05 0.014802656589308755 0.0096655262062664751 0.00021303852094041551 0.007035907114290499 0.0018495319855980068 -0.0028743550653567602 -0.0037149847324552208 0.001450330696526616 -0.00011632372648148846 0.0050573872206344586 0.001123822940349682
leaf_weight=205 2715 20722 654 70 57 10836 175 1200 17133 27 4699 734 118 61 89 1890 2839 496 27294 30 22 1236 63 81 259 29 169 114 150 253
leaf_count=205 2715 20722 654 70 57 10836 175 1200 17133 27 4699 734 118 61 89 1890 2839 496 27294 30 22 1236 63 81 259 29 169 114 150 253
internal_value=-1.64675e-06 -2.1134e-05 0.00165158 0.000852235 0.00319073 -9.33764e-05 0.000103514 6.8094e-05 -3.9351e-05 -0.00018275 -0.000146423 0.000936757 0.00144954 0.000496679 -0.00104317 -0.00113317 -0.000218024 -0.000165251 -3.82901e-05 0.00197188 0.00122879 -0.000718928 0.000222792 0.000197985 -0.00174896 0.00222465 0.0029671 0.00232551 0.00118855 0.00258793
internal_weight=94420 93320 1100 724 376 71997 22478 22303 19848 49519 47513 2455 1721 4760 2006 1979 42753 38678 27842 548 518 4075 21323 21062 340 261 232 319 1603 403
internal_count=94420 93320 1100 724 376 71997 22478 22303 19848 49519 47513 2455 1721 4760 2006 1979 42753 38678 27842 548 518 4075 21323 21062 340 261 232 319 1603 403
is_linear=0
shrinkage=0.05


Tree=22
num_leaves=31
num_cat=0
split_feature=0 5 2 0 3 6 7 5 6 0 3 3 5 6 1 1 8 3 6 6 7 3 7 2 1 6 0 6 2 6
split_gain=1.09813 0.593654 0.457359 1.29745 0.751464 0.565939 0.846863 0.520703 0.437669 0.426634 0.42069 0.505781 0.44052 0.418039 0.656721 0.386415 0.467196 0.722956 0.40868 0.401158 0.384616 0.384607 0.382263 0.472891 0.497064 0.415506 0.516871 0.381166 0.355519 0.343182
threshold=-0.1695825075288058 1.2263326039382381 -0.079719702024534697 0.14422705683279238 0.042258550018128498 0.081228160579395081 1.0814131208091584 1.1346502717990703 0.027882672898086141 0.24596992754512317 0.017373690164231983 0.045089125665082601 0.58175534950941443 0.057091853223461143 0.055987188008638673 0.13887499236110526 23.755462135698128 0.068981015715543131 0.090955466493947007 0.086111002396079342 0.86871272134669086 0.090511306773628938 1.2615670664354313 0.49999999999999994 0.23794422953011254 0.098299700803052878 0.12812852305738856 0.066257700186271626 0.2667206268282058 0.0245037432346468
decision_type=2 2 2 2 2 2 2 2 2 2 2 2 2 2 2 2 2 2 2 2 2 2 2 2 2 2 2 2 2 2
left_child=15 2 3 4 8 6 10 13 29 20 -4 28 -13 14 -6 16 17 19 -17 -1 -7 -8 23 -3 -25 26 -24 -26 -12 -2
right_child=1 22 5 -5 7 9 21 -9 -10 -11 11 12 -14 -15 -16 18 -18 -19 -20 -21 -22 -23 25 24 27 -27 -28 -29 -30 -31
leaf_value=0.0027817500085562225 -0.00025486267677806936 0.0002184337506928889 -0.00049314952665664095 0.0043867688282459441 0.0017378404013495153 0.0059344698431059014 0.00052693510455394772 0.0035595928164205842 -9.8539205203155954e-05 -0.0054230721786106923 -8.1445327227845085e-05 -0.0023963839114818585 -0.000517644545510795 0.00041888046229691277 0.010508775258558277 0.0081910931459238199 0.00034338905187555684 -0.00040226889108767533 0.00034245012190054966 0.0068283060242609328 -0.00086052037584902121 0.0057921690440603663 0.0066841118577276428 0.0017570553753574606 -0.00083460217423537986 -0.0035292355151012029 0.0013778141446407477 -0.0046711107582268598 0.0010899025382444015 0.0014721183751846302
leaf_weight=242 444 20722 9414 175 296 21 3834 170 18587 51 30167 357 2476 1966 23 43 557 149 27 82 2502 35 63 81 131 29 169 128 662 817
leaf_count=242 444 20722 9414 175 296 21 3834 170 18587 51 30167 357 2476 1966 23 43 557 149 27 82 2502 35 63 81 131 29 169 128 662 817
internal_value=-1.56441e-06 -2.00773e-05 -8.87076e-05 9.83384e-05 6.46893e-05 -0.000173613 -0.000134033 0.000889919 -3.73834e-05 -0.000895484 -0.000197677 -0.000115045 -0.000754394 0.0006913 0.00237023 0.001569 0.00132469 0.00248027 0.00516376 0.00380588 -0.000803963 0.000574566 0.000211653 0.000188086 -0.00166151 0.00211342 0.00281875 -0.00273064 -5.62926e-05 0.000864046
internal_weight=94420 93320 71997 22478 22303 49519 46945 2455 19848 2574 43076 33662 2833 2285 319 1100 1030 473 70 324 2523 3869 21323 21062 340 261 232 259 30829 1261
internal_count=94420 93320 71997 22478 22303 49519 46945 2455 19848 2574 43076 33662 2833 2285 319 1100 1030 473 70 324 2523 3869 21323 21062 340 261 232 259 30829 1261
is_linear=0
shrinkage=0.05


Tree=23
num_leaves=31
num_cat=0
split_feature=0 5 7 6 8 7 2 0 3 8 3 0 6 7 8 2 6 8 1 3 2 2 0 7 3 0 5 2 1 1
split_gain=0.991059 0.539964 0.474335 0.564707 0.439041 0.430398 0.469441 0.914995 0.632487 0.418913 0.542426 0.437065 0.761092 0.417764 0.541696 0.496296 0.423335 0.603735 0.516946 0.462769 0.583326 0.561438 0.501628 0.448648 0.405108 0.404326 0.395253 0.383602 0.375821 0.348739
threshold=-0.1695825075288058 0.97107485805783089 0.86871272134669086 0.11529481124935674 20.734671712719635 1.0755194490671252 -0.079719702024534697 0.12371012624816548 0.043211817745565255 76.786103699229741 0.026246781224904859 0.053631986310255793 0.03626819793199177 1.2615670664354313 77.483554661391636 0.67890594760754142 0.059754734013646442 69.076125330364675 0.39928904559583261 0.032195877132414091 -0.064350834883845784 0.2667206268282058 0.16580450648454428 1.1900005080821865 0.021491517068892473 -0.053279275514085393 0.58571539205689083 0.18932930513595173 0.015364147853957568 0.13887499236110526
decision_type=2 2 2 2 2 2 2 2 2 2 2 2 2 2 2 2 2 2 2 2 2 2 2 2 2 2 2 2 2 2
left_child=29 5 4 13 -3 6 7 -2 9 24 11 -11 -13 16 15 -15 -4 18 19 21 22 -18 -21 -22 -8 -19 -10 -25 -28 -1
right_child=1 2 3 -5 -6 -7 8 -9 26 10 -12 12 -14 14 -16 -17 17 25 -20 20 23 -23 -24 27 -26 -27 28 -29 -30 -31
leaf_value=0.001258458762459465 1.6914399197750462e-05 7.66001731684556e-05 0.00017234821651689893 -0.0042648725878648664 0.0025241941691296682 0.00041235472668690334 -0.00043413301271032147 0.0037921661654067582 -0.0019593171354605498 6.3904093202346796e-06 0.0085594341420801353 0.011682447460286009 -9.6377195404784288e-05 0.0052374599219783295 -0.00013384952709444246 -0.0025835854893860718 -0.0014870456212424312 0.0042877849846263416 -0.0061022704087996061 0.00078653546058653179 -0.00028799972812793131 0.0060001237273144617 0.0049590258856034401 0.0086897225193256003 -5.9160276378168753e-05 -0.0014066119448432027 -3.9329520473610827e-05 0.0014732190573421117 -0.0012370163125391999 0.0049055715326020233
leaf_weight=1030 17300 344 30778 74 392 3537 12286 162 719 221 26 24 32 131 158 24 677 32 35 1380 3515 26 76 22 17410 1206 1315 113 1305 70
leaf_count=1030 17300 344 30778 74 392 3537 12286 162 719 221 26 24 32 131 158 24 677 32 35 1380 3515 26 76 22 17410 1206 1315 113 1305 70
internal_value=-1.48619e-06 -1.90734e-05 0.000122922 9.8728e-05 0.00138021 -0.000120945 -0.000158077 5.19385e-05 -0.00026808 -0.000195423 0.0016543 0.00100616 0.00495169 0.000107187 0.00192637 0.00402646 9.21473e-05 -0.000256402 -4.39207e-05 -7.41834e-06 0.000158173 -0.00121014 0.00100433 -0.000179362 -0.000214296 -0.00125942 -0.000920867 0.00264924 -0.000635887 0.00149055
internal_weight=94420 93320 38983 38247 736 54337 50800 17462 33338 29999 303 277 56 38173 313 155 37860 7082 5844 5809 5106 703 1456 3650 29696 1238 3339 135 2620 1100
internal_count=94420 93320 38983 38247 736 54337 50800 17462 33338 29999 303 277 56 38173 313 155 37860 7082 5844 5809 5106 703 1456 3650 29696 1238 3339 135 2620 1100
is_linear=0
shrinkage=0.05


Tree=24
num_leaves=31
num_cat=0
split_feature=0 5 4 6 2 6 4 2 6 6 7 2 0 0 6 4 6 1 4 6 1 7 1 4 0 7 2 5 0 2
split_gain=0.89443 0.498261 0.464751 0.534274 0.504504 0.48766 0.383126 0.625231 0.568311 0.533704 1.20925 0.702488 0.525748 0.516498 0.661632 0.558483 0.455696 0.454853 0.452823 0.743912 0.778182 0.542496 0.466203 0.444841 0.390781 0.376048 0.368833 0.325947 0.325579 0.318909
threshold=-0.1695825075288058 1.2263326039382381 0.044774872605087175 0.086111002396079342 0.092479953305123055 0.090955466493947007 0.068614170701029376 0.39645224373950821 0.11529481124935674 0.089144339630454747 0.95793813021135132 0.24912744308106219 -0.061276124657825885 0.28541921224907701 0.1064661281050746 0.077221405600681262 0.040844470127353094 0.26867284669733899 0.018713855372291654 0.035531060324018836 0.08113039668961787 1.0627811748506568 -0.024626085495650759 0.021643635700223204 0.12812852305738856 0.88500829939075665 -0.2218715723999625 1.8779907519711467 -0.068335620739499489 -0.13190593148278143
decision_type=2 2 2 2 2 2 2 2 2 2 2 2 2 2 2 2 2 2 2 2 2 2 2 2 2 2 2 2 2 2
left_child=2 6 3 26 27 -6 16 9 13 11 -11 -8 -13 14 17 -16 18 -9 19 21 -21 22 -2 -18 25 -20 -1 -4 -12 -24
right_child=1 -3 4 -5 5 -7 7 8 -10 10 28 12 -14 -15 15 -17 23 -19 24 20 -22 -23 29 -25 -26 -27 -28 -29 -30 -31
leaf_value=0.00331328265743739 0.00028082429415860551 0.00019417749799537277 -0.00046761058349906312 0.0073009292141681436 0.0071362407528795307 0.00088709348551551433 -0.0011916535651625146 0.00021794057472175 -0.0034450289018319123 0.0004551053558524935 -0.0021533262330847673 0.0086511241898326024 0.0011951429778491729 -0.0062382081723106764 0.013733990937471392 0.0026204544226997176 0.00095213097140106877 0.0046520476732338362 0.0049488677854903724 0.0012461901120320834 0.011231256664032116 0.006422022859078425 -0.0042364942920997883 1.4460035516861757e-05 0.0030970682285475994 -0.00039351460324908683 -0.00023444767585922884 0.0026369728482392271 -0.0050304012844331137 -0.00037445928953566221
leaf_weight=205 4421 21323 494 57 54 74 589 294 70 244 156 29 128 21 20 26 1306 72 33 801 20 32 54 40158 81 17897 114 102 266 5279
leaf_count=205 4421 21323 494 57 54 74 589 294 70 244 156 29 128 21 20 26 1306 72 33 801 20 32 54 40158 81 17897 114 102 266 5279
internal_value=-1.41188e-06 -1.81197e-05 0.00141602 0.00284215 0.000675378 0.00352345 -8.09948e-05 -0.000778749 0.000734949 -0.00131798 -0.00234679 -0.000399495 0.00257236 0.0014107 0.00180057 0.00745243 -6.19285e-05 0.00109022 -0.000215397 4.3774e-05 0.00148943 -7.75099e-05 -9.8833e-05 4.3994e-05 -0.000368028 -0.000383682 0.00204544 6.37107e-05 -0.00396684 -0.000413565
internal_weight=94420 93320 1100 376 724 128 71997 1915 503 1412 666 746 157 433 412 46 70082 366 28618 10607 821 9786 9754 41464 18011 17930 319 596 422 5333
internal_count=94420 93320 1100 376 724 128 71997 1915 503 1412 666 746 157 433 412 46 70082 366 28618 10607 821 9786 9754 41464 18011 17930 319 596 422 5333
is_linear=0
shrinkage=0.05


Tree=25
num_leaves=31
num_cat=0
split_feature=2 3 4 0 4 7 0 0 4 4 3 3 3 6 4 4 6 8 6 3 6 2 2 8 6 4 4 6 4 3
split_gain=0.801803 0.917644 1.00184 0.975329 0.644609 0.433422 1.05334 1.02986 1.03617 0.784016 0.7636 0.738004 0.600779 0.599723 0.570793 0.564169 1.14886 0.544999 0.524398 0.515478 0.47559 0.649569 0.579742 0.459701 0.454516 1.03994 0.520599 0.484621 0.549309 1.36757
threshold=-0.2163448456763962 0.041943617573130289 0.053994087434506392 -0.14660597200070882 0.08419313775632363 1.0465509958230699 0.073431721315172296 -0.050901952827407775 0.026758872825033451 0.044774872605087175 0.078823937013957693 0.037475296524099803 0.096718677553792959 0.11529481124935674 0.062304677261415704 0.01698079347615675 0.033423846828924901 37.920326946612484 0.040243598703978568 0.034038536327054718 0.035531060324018836 0.012024682275944333 0.097089771134089689 60.621364547499432 0.042838456307694277 0.028726623866274576 0.023272181097576016 0.033598746077445667 0.017594569829801111 0.022279870084779552
decision_type=2 2 2 2 2 2 2 2 2 2 2 2 2 2 2 2 2 2 2 2 2 2 2 2 2 2 2 2 2 2
left_child=1 3 -3 -1 5 6 9 8 -7 24 14 15 -11 23 -10 16 -9 -14 19 -17 22 -22 -8 -12 26 -26 27 -2 29 -29
right_child=4 2 -4 -5 -6 7 20 11 10 12 13 -13 17 -15 -16 18 -18 -19 -20 -21 21 -23 -24 -25 25 -27 -28 28 -30 -31
leaf_value=0.002754017170091062 -0.00020474401576913559 0.0029087042412460568 0.00034764671250937882 -0.0001510819162795333 -0.002232379040098749 0.012218174743677744 0.0011510863208169496 0.0012035864042677443 0.001108414761886841 -0.00071797412713640874 0.0010171387174287465 -0.00023879957876252945 -0.0018035589975294319 -0.0047667628069492903 -0.0020559715286133243 -0.00044736904369587659 0.012481806221707114 0.0081853777836335614 0.00065053102847958066 0.0030659516498086638 0.0010361844177340638 -0.00010912939235130633 0.0049013313131053438 0.0049255024991291599 0.00058129360280953946 -0.00011148579250413226 -0.00045146899005454855 0.0010369204031789459 0.00010479958244828231 0.013354291251111454
leaf_weight=324 15920 789 740 2668 325 22 610 102 1007 5735 108 7913 22 22 166 2052 29 36 5498 110 2306 2673 124 248 7867 17394 11411 1114 7319 23
leaf_count=324 15920 789 740 2668 325 22 610 102 1007 5735 108 7913 22 22 166 2052 29 36 5498 110 2306 2673 124 248 7867 17394 11411 1114 7319 23
internal_value=2.29633e-05 0.000672736 0.00166921 0.000163508 -9.62046e-06 -1.57873e-06 -5.51727e-05 0.000223487 0.00144322 -0.00011087 0.00129039 0.000101311 -0.000666768 0.00324473 0.000660599 0.000446748 0.00370029 0.00439647 0.000391106 -0.000268615 0.000596476 0.000421317 0.00178464 0.00373982 -5.81195e-05 0.000104266 -0.000172742 -4.22636e-05 0.000263636 0.00128608
internal_weight=94677 4521 1529 2992 90156 89831 72554 17277 1573 66841 1551 15704 5793 378 1173 7791 131 58 7660 2162 5713 4979 734 356 61048 25261 35787 24376 8456 1137
internal_count=94677 4521 1529 2992 90156 89831 72554 17277 1573 66841 1551 15704 5793 378 1173 7791 131 58 7660 2162 5713 4979 734 356 61048 25261 35787 24376 8456 1137
is_linear=0
shrinkage=0.05


Tree=26
num_leaves=31
num_cat=0
split_feature=2 1 4 4 4 5 0 7 0 6 4 8 2 6 6 4 0 1 1 5 2 0 6 4 1 2 4 8 6 5
split_gain=0.723627 0.78819 0.58176 0.467393 0.479714 0.58102 0.47448 0.393717 0.438991 0.472963 0.526884 0.526782 0.491466 0.398686 0.734938 0.692383 0.465882 0.385245 0.37813 0.370693 0.867234 0.369295 0.361126 0.650265 0.5434 0.380709 0.590145 1.24824 0.350139 0.408531
threshold=-0.2163448456763962 -0.087131187622423598 0.08419313775632363 0.026980699675961162 0.065796558594560295 0.85946776440221384 0.030844302827009454 1.1571953686898462 -0.052443477167857348 0.065058859753039475 0.069943061377766208 67.814358069728584 0.67890594760754142 0.080227083625487153 0.073723269768540434 0.07325392210563321 0.28541921224907701 -0.18228550641249378 0.18239106293913857 1.1070248647972514 0.67890594760754142 0.37034381242513087 0.081228160579395081 0.047176447273648676 0.28900073804062004 0.29853958471895986 0.027775732224085806 82.502894388816941 0.074376415991986425 2.0010422956006599
decision_type=2 2 2 2 2 2 2 2 2 2 2 2 2 2 2 2 2 2 2 2 2 2 2 2 2 2 2 2 2 2
left_child=1 3 7 -1 5 6 -5 22 18 12 11 -11 21 14 -12 -16 19 -4 -9 20 -15 -10 25 -24 -25 -2 27 -27 29 -7
right_child=2 -3 17 4 -6 28 -8 8 9 10 13 -13 -14 16 15 -17 -18 -19 -20 -21 -22 -23 23 24 -26 26 -28 -29 -30 -31
leaf_value=-0.00013584733508989236 -1.3009320088021359e-05 -0.0004938559929384814 0.0029154494048698864 0.00034688532327529549 -0.00016504016222417803 0.0020269114008036491 0.0056184286562105026 -0.0023568993986204821 0.0018094216213549342 0.0017081899063425587 -0.0011943173391046004 -0.001723035002668831 0.0072164911078289153 -0.00089375675080292341 0.015173201863548126 0.0023191061754187104 -0.0054093008395284421 -0.0027091831714154903 0.0040674699176278658 -0.00024405618314631285 0.010515136106480513 -0.0013708147855961811 0.00159126256022724 -0.00063126337469186875 -0.0048836006668045544 0.013540757673413116 0.00051467046979384353 -0.00076790249008419262 0.0033169091417177957 -0.0015520424193577068
leaf_weight=691 82378 1146 34 830 451 766 45 27 475 142 30 527 36 36 22 20 29 291 151 122 31 113 332 3091 77 27 2130 35 503 89
leaf_count=691 82378 1146 34 830 451 766 45 27 475 142 30 527 36 36 22 20 29 291 151 122 31 113 332 3091 77 27 2130 35 503 89
internal_value=2.18152e-05 0.0006391 -9.13944e-06 0.0010238 0.00132235 0.00162276 0.000617993 -1.4998e-06 0.000738759 0.000474038 -0.000223112 -0.000994733 0.00154546 0.00155694 0.00478282 0.0090522 0.000491511 -0.00212076 0.00309299 0.00139693 0.00438498 0.00119825 -1.63016e-05 -0.000513992 -0.000734619 4.29573e-06 0.00065464 0.00546329 0.00227017 0.00165437
internal_weight=94677 4521 90156 3375 2684 2233 875 89831 1761 1583 959 669 624 290 72 42 218 325 178 189 67 588 88070 3500 3168 84570 2192 62 1358 855
internal_count=94677 4521 90156 3375 2684 2233 875 89831 1761 1583 959 669 624 290 72 42 218 325 178 189 67 588 88070 3500 3168 84570 2192 62 1358 855
is_linear=0
shrinkage=0.05


Tree=27
num_leaves=31
num_cat=0
split_feature=2 3 4 0 4 3 4 7 0 3 6 3 6 8 3 6 3 0 2 4 6 3 3 4 4 2 6 0 2 0
split_gain=0.653074 0.780708 0.865643 0.842983 0.525038 0.394515 0.404546 0.414225 0.6921 0.955248 0.594179 0.510771 0.580643 0.587262 0.504071 0.621763 0.485036 0.447672 0.66594 0.571306 0.735778 0.575712 0.557458 0.538809 0.499584 0.666662 0.488666 0.708166 0.488635 0.427538
threshold=-0.2163448456763962 0.041943617573130289 0.067164653542780811 -0.14660597200070882 0.08419313775632363 0.016437136402170007 0.023880003143725553 1.07200086281277 -0.039584009301319383 0.035970757533089516 0.048172259415557715 0.078823937013957693 0.11529481124935674 60.621364547499432 0.034432290872933681 0.0413011179907092 0.10405492977276236 0.073431721315172296 -0.037708469849488328 0.044774872605087175 0.040844470127353094 0.045495882189519325 0.049409251824960691 0.029071679033613716 0.032914193138080812 -0.069492265314555088 0.037140423114628791 0.11239655041946063 0.097089771134089689 -0.081177282694025618
decision_type=2 2 2 2 2 2 2 2 2 2 2 2 2 2 2 2 2 2 2 2 2 2 2 2 2 2 2 2 2 2
left_child=1 3 -3 -1 5 -2 -7 16 11 10 14 -9 13 -13 -10 -16 17 19 22 20 21 -8 -19 -22 25 29 27 -20 -29 -25
right_child=4 2 -4 -5 -6 6 7 8 9 -11 -12 12 -14 -15 15 -17 -18 18 26 -21 23 -23 -24 24 -26 -27 -28 28 -30 -31
leaf_value=0.0025457922575214194 -0.00025427333175025548 0.0022572075221909764 -0.00041010952764413008 -0.00015502264748492813 -0.0020147220727342826 0.0002448173900304837 -0.00054399847837302421 0.0007326965512119794 -0.00022633380509450767 -0.00022054666772195646 0.0016868461947148767 -0.00025980377432484276 -0.0052448796853423116 0.0047072598525133742 0.0092355340551875994 0.00082238751363807494 0.0050497825290380131 0.00058350131611762019 -8.7460704534711095e-05 -0.00056636781182857119 0.00039307334689232028 0.0079511131277831739 0.0026987102688961185 0.00011169107029318932 9.1261774758166482e-05 -5.981324121671993e-05 -0.00012536747865965717 0.0010284937131182607 0.0058006601245142522 -0.0014438568300092849
leaf_weight=324 13166 1110 419 2668 325 18616 7093 796 1010 5923 1298 78 20 251 32 70 46 1012 298 6833 8099 20 450 573 12887 4277 4838 97 120 1928
leaf_count=324 13166 1110 419 2668 325 18616 7093 796 1010 5923 1298 78 20 251 32 70 46 1012 298 6833 8099 20 450 573 12887 4277 4838 97 120 1928
internal_value=2.07244e-05 0.000607145 0.00152627 0.000137445 -8.68247e-06 -1.42481e-06 4.19979e-05 -2.30452e-05 0.000279312 0.000120933 0.00096018 0.00143195 0.00302682 0.00352966 0.000111967 0.00346181 -8.20463e-05 -8.69111e-05 0.0002888 -0.000148299 -6.63918e-05 -0.000520112 0.00123456 4.98492e-05 -9.15071e-05 -0.000439005 3.04973e-05 0.00149472 0.00366748 -0.00108747
internal_weight=94677 4521 1529 2992 90156 89831 76665 58049 9478 8333 2410 1145 349 329 1112 102 48571 48525 6815 41710 34877 7113 1462 27764 19665 6778 5353 515 217 2501
internal_count=94677 4521 1529 2992 90156 89831 76665 58049 9478 8333 2410 1145 349 329 1112 102 48571 48525 6815 41710 34877 7113 1462 27764 19665 6778 5353 515 217 2501
is_linear=0
shrinkage=0.05


Tree=28
num_leaves=31
num_cat=0
split_feature=0 4 8 3 1 5 0 6 3 0 6 4 1 7 8 5 3 4 3 0 7 0 6 4 6 6 0 1 6 5
split_gain=0.587815 0.620073 0.613585 0.638401 0.437332 0.396986 0.433498 0.449065 0.470103 0.349745 0.333072 0.323688 0.315231 0.313109 0.45624 0.309519 0.290745 0.288044 0.27623 0.261299 0.259484 0.397859 0.487082 0.503488 0.455272 0.774988 0.407461 0.379058 0.946132 0.363505
threshold=-0.14660597200070882 0.08419313775632363 22.950788878138599 0.068981015715543131 0.16005576055956641 0.67352651815930642 -0.05169326316385147 0.092921241776518435 0.081689137874149761 0.17489963869931749 0.086111002396079342 0.012608518843473712 0.026329396269759834 0.83084050364716588 20.224700075031361 0.61863605033766877 0.051941181319660454 0.069943061377766208 0.090511306773628938 0.014357501945689079 1.1712841456709715 -0.037678142076848435 0.065058859753039475 0.069943061377766208 0.080227083625487153 0.074376415991986425 0.28541921224907701 0.28900073804062004 0.060331324982585324 2.5609170129762311
decision_type=2 2 2 2 2 2 2 2 2 2 2 2 2 2 2 2 2 2 2 2 2 2 2 2 2 2 2 2 2 2
left_child=2 5 3 10 -4 6 7 8 -2 12 -1 -7 -8 14 19 -3 -9 -14 -16 -13 27 -22 29 -24 25 -25 -26 -15 -29 -23
right_child=1 15 4 -5 -6 11 9 16 -10 -11 -12 13 17 20 18 -17 -18 -19 -20 -21 21 22 23 24 26 -27 -28 28 -30 -31
leaf_value=0.0023798970147258462 0.00028487851635172697 0.00092591801371711953 -5.0620581304600992e-05 -0.00078701162136575161 0.0035733391576731168 -0.00053570346971480915 -0.00042692986702432087 0.0002649278530678776 0.0072998970805201683 0.0039183027692476519 0.0058176735823508357 0.00073198618260034392 0.0001694752954970141 7.6944380844942402e-05 0.0047486531181493777 -0.0029257838111169058 -0.0037905452458549659 -0.0027426044195729853 0.00011727128400128674 -0.004096812981333642 0.0034806411996591703 0.002698843786912623 -0.0011457365763370645 -0.00042517813126323749 0.0013645855117396547 0.010415962153210251 -0.0051278085584334776 0.00060667090680843793 -0.0029173457298516271 -0.00058004037153137769
leaf_weight=437 4867 65 1110 148 90 2158 13035 73 24 49 84 225 3546 66026 120 264 112 87 44 32 123 319 519 32 145 34 29 407 358 115
leaf_count=437 4867 65 1110 148 90 2158 13035 73 24 49 84 225 3546 66026 120 264 112 87 44 32 123 319 519 32 145 34 29 407 358 115
internal_value=1.96882e-05 2.00828e-06 0.00089761 0.00211094 0.000221176 9.71687e-06 -0.000176854 0.000227837 0.000319301 -0.000299736 0.00293416 6.7238e-05 -0.000312136 8.62251e-05 0.0014456 -0.00216481 -0.00219028 9.97393e-05 0.00350609 0.000130735 7.78222e-05 0.000773103 0.000493952 -0.000270016 0.00162373 0.00515965 0.00028252 6.41229e-05 -0.00104248 0.00183002
internal_weight=94677 92808 1869 669 1200 92479 21793 5076 4891 16717 521 70686 16668 68528 421 329 185 3633 164 257 68107 1316 1193 759 240 66 174 66791 765 434
internal_count=94677 92808 1869 669 1200 92479 21793 5076 4891 16717 521 70686 16668 68528 421 329 185 3633 164 257 68107 1316 1193 759 240 66 174 66791 765 434
is_linear=0
shrinkage=0.05


Tree=29
num_leaves=31
num_cat=0
split_feature=2 3 4 0 4 8 4 4 0 5 4 0 3 4 0 7 5 6 2 3 0 7 2 4 0 7 7 3 0 6
split_gain=0.554612 0.693451 0.78245 0.697871 0.430365 0.372243 0.422776 0.371628 0.361988 0.434772 0.355947 0.350342 0.335386 0.367368 0.418005 0.386461 0.491972 0.424111 0.410607 0.741055 3.14782 0.379284 0.588451 0.37186 0.362304 1.38382 0.361175 0.614734 0.827066 0.549111
threshold=-0.2163448456763962 0.041943617573130289 0.053994087434506392 -0.14660597200070882 0.08419313775632363 25.578532588735666 0.067164653542780811 0.056973091929967239 0.043698834953517902 0.92341408194162133 0.042209987794792007 -0.089900679715800222 0.016437136402170007 0.023880003143725553 -0.059342572129378983 0.98793087810430646 1.4879021829574082 0.023561303522848163 0.17127322633223166 0.026246781224904859 0.041643530914965206 0.94260261302244885 -0.16015723386668226 0.021329292730660036 -0.05169326316385147 1.0254503438849583 1.07200086281277 0.035970757533089516 -0.039584009301319383 0.048172259415557715
decision_type=2 2 2 2 2 2 2 2 2 2 2 2 2 2 2 2 2 2 2 2 2 2 2 2 2 2 2 2 2 2
left_child=1 3 8 -1 12 7 -7 -4 9 -3 -10 -6 -2 14 -14 16 21 -18 24 -20 -21 -16 23 -23 25 -17 -15 29 -29 -28
right_child=4 2 5 -5 11 6 -8 -9 10 -11 -12 -13 13 26 15 18 17 -19 19 20 -22 22 -24 -25 -26 -27 27 28 -30 -31
leaf_value=0.002307715551855106 -0.00023495638206422941 0.00057679890375799954 -0.0056155201148342451 -0.00014966815897205488 0.00095603733761457819 0.0028545282593196528 -0.00056314371213603926 -0.0003342681002344718 0.010233333886467987 0.003129960169686339 0.0033079935506578877 -0.0027937735315809353 -0.00038101093639813442 -7.886428872427891e-05 -0.0002510522664809542 0.00071433247235264477 0.0079551439542599311 0.0015707300711159874 0.00054143484035110699 0.02207991226195273 -0.00029841391549615022 0.0010066973434857511 0.0005600154223234365 0.0064031871002902035 -3.9030778969617316e-05 0.014605864077311709 0.00011523106654417467 0.0013170139264695117 -0.0002117866893503968 0.0015996758487158867
leaf_weight=324 13166 270 37 2668 84 210 159 334 28 436 55 241 2423 48571 1524 173 27 711 273 22 55 58 5434 71 7825 20 1137 1040 5923 1378
leaf_count=324 13166 270 37 2668 84 210 159 334 28 436 55 241 2423 48571 1524 173 27 711 273 22 55 58 5434 71 7825 20 1137 1040 5923 1378
internal_value=1.87038e-05 0.000559113 0.00142535 0.000116439 -8.39579e-06 0.000257421 0.00138187 -0.00086097 0.00252075 0.00215354 0.00564425 -0.00182459 -1.82497e-06 3.82117e-05 0.000231487 0.000323137 0.000575733 0.00180431 8.69309e-05 0.00176331 0.00609539 0.000447797 0.000639248 0.00397686 1.37542e-05 0.00215387 -2.37707e-05 0.000258562 1.65564e-05 0.000928577
internal_weight=94677 4521 1529 2992 90156 740 369 371 789 706 83 325 89831 76665 18616 16193 7825 738 8368 350 77 7087 5563 129 8018 193 58049 9478 6963 2515
internal_count=94677 4521 1529 2992 90156 740 369 371 789 706 83 325 89831 76665 18616 16193 7825 738 8368 350 77 7087 5563 129 8018 193 58049 9478 6963 2515
is_linear=0
shrinkage=0.05


Tree=30
num_leaves=31
num_cat=0
split_feature=2 3 3 5 1 6 3 5 6 3 0 5 1 7 6 1 2 0 7 0 2 8 0 2 1 2 0 0 0 5
split_gain=0.577719 1.0442 0.660159 0.499329 0.440576 0.414802 0.379403 0.326377 0.397106 0.530864 0.841761 0.448605 0.391215 0.363806 0.342699 0.989866 0.53467 1.09466 0.384002 0.335606 0.342382 0.433979 0.498951 0.343652 0.330389 0.373797 0.314721 0.308985 0.302077 0.335667
threshold=-0.2163448456763962 0.045089125665082601 0.090511306773628938 1.0405316776709654 -0.068946779934558042 0.11529481124935674 0.025879434629233877 0.72443163990104009 0.1064661281050746 0.096718677553792959 0.033336582829661461 0.75506348425643133 -0.041400489086588325 1.2149170549025108 0.080227083625487153 0.28900073804062004 0.67890594760754142 0.091798292362118908 1.1712841456709715 -0.045034509894615431 0.14479165433554367 62.843707470592527 -0.071862718549963886 0.28736109396221771 0.031824612562163408 -0.055735871819329756 0.14422705683279238 0.13319812544431822 -0.052443477167857348 0.32462234629383552
decision_type=2 2 2 2 2 2 2 2 2 2 2 2 2 2 2 2 2 2 2 2 2 2 2 2 2 2 2 2 2 2
left_child=1 4 3 -3 6 -5 -1 24 9 14 -11 -10 -13 -14 18 16 19 -18 -9 20 -16 23 -23 -22 26 -26 28 -20 29 -2
right_child=7 2 -4 5 -6 -7 -8 8 11 10 -12 12 13 -15 15 -17 17 -19 27 -21 21 22 -24 -25 25 -27 -28 -29 -30 -31
leaf_value=-0.000425652776502137 0.0032548923061206294 0.001210315682055807 -0.00020667745801602441 0.0031214497180379231 -0.00098338692012197811 0.0094866119946042712 0.00086775974749507426 4.7258742037278954e-05 0.0057222062558867047 0.0042051164177726455 -0.00060673310369581987 -0.00032653517977531375 -0.0050179814955649471 -3.5017616498996229e-05 -0.0001636724876020561 -0.003567413751581117 -0.0026961838736409144 0.010121673493995332 0.0024319542346112485 -0.00083287854842635208 0.0050086706719672039 -0.004853728348508668 0.0047057107423565218 2.3351980373263362e-05 0.0012682080169715861 2.321634339141459e-05 0.0049522167023528241 0.00041752894461279978 -0.00036891909778497922 1.2229021057418073e-05
leaf_weight=893 81 476 328 492 759 27 1553 59410 20 194 171 181 130 51 620 243 31 36 294 1347 112 39 21 50 701 4308 29 540 16170 5422
leaf_count=893 81 476 328 492 759 27 1553 59410 20 194 171 181 130 51 620 243 31 36 294 1347 112 39 21 50 701 4308 29 540 16170 5422
internal_value=5.72259e-06 0.000556834 0.00173863 0.0023799 6.8996e-05 0.00345259 0.000395553 -2.19426e-05 3.97476e-05 4.94764e-05 0.0019508 -0.00156749 -0.00197024 -0.00361394 3.84157e-05 -0.000535328 -0.000208733 0.00419102 6.22154e-05 -0.000343399 0.000439651 0.00212461 -0.00150792 0.00346999 -0.000168576 0.000197451 -0.000253058 0.00112765 -0.000260023 5.99586e-05
internal_weight=94729 4528 1323 995 3205 519 2446 90201 63490 63108 365 382 362 181 62743 2499 2256 67 60244 2189 842 222 60 162 26711 5009 21702 834 21673 5503
internal_count=94729 4528 1323 995 3205 519 2446 90201 63490 63108 365 382 362 181 62743 2499 2256 67 60244 2189 842 222 60 162 26711 5009 21702 834 21673 5503
is_linear=0
shrinkage=0.05


Tree=31
num_leaves=31
num_cat=0
split_feature=2 6 5 4 4 0 0 1 8 4 5 4 1 7 0 0 2 6 0 6 2 7 0 1 2 4 8 4 4 2
split_gain=0.521392 0.545049 0.705081 0.430807 0.389097 0.715854 0.396571 0.357769 0.502528 0.306136 0.294556 0.412896 0.331622 0.343386 0.495665 0.487718 1.1905 0.612251 0.464916 0.70238 0.746018 0.583068 0.448086 0.431863 0.412588 0.4421 0.586472 0.371114 0.366319 0.792107
threshold=-0.2163448456763962 0.08353038527956895 1.060128069407086 0.052560209092310621 0.054760737631936472 0.030099451170506612 -0.14660597200070882 -0.061995567427578051 25.578532588735666 0.041336968164545886 0.72443163990104009 0.08419313775632363 -0.21299160275009285 0.98533533717226451 -0.057542915463756054 -0.05169326316385147 0.047689468199914049 0.080227083625487153 0.084979160702923232 0.037576695020769102 0.03625835383042731 1.033215130008309 0.21854652829407309 0.08499762583095917 0.27672959952517601 0.068614170701029376 61.942570443118079 0.053234994128254998 0.036576328168271437 0.31090012520403015
decision_type=2 2 2 2 2 2 2 2 2 2 2 2 2 2 2 2 2 2 2 2 2 2 2 2 2 2 2 2 2 2
left_child=1 4 -3 -4 5 6 -1 8 -7 -10 -2 12 -12 14 -14 16 -15 18 21 -20 23 -17 24 -21 27 -26 -27 -19 29 -22
right_child=10 2 3 -5 -6 7 -8 -9 9 -11 11 -13 13 15 -16 17 -18 22 19 20 28 -23 -24 -25 25 26 -28 -29 -30 -31
leaf_value=0.001752918633731059 -0.00016014692316313665 0.00031337019353484472 0.0054188819611900967 0.0019704044143752262 -0.00091385214329685002 -0.001462377686984837 7.4992491959300909e-05 0.0010026238188918404 0.010718863160424941 0.0044457715339731516 -0.0016330143176835441 -0.0021445856998516997 -0.00017461751106727868 -0.00027284771224104484 0.00033990918603445499 -0.00034533103930224824 0.0015031180098548748 0.00083785291787617929 0.0015351590085340766 0.0023225441117896129 4.4734827263393824e-05 0.00013913791168581517 -0.0038136024367749137 0.00037328893854332248 -0.0012703022545448453 -0.0025616237636675206 0.0021872782943197912 -0.0023746476699389911 -0.00045277109570924742 0.0031172961554802123
leaf_weight=409 26711 439 143 247 585 20 2533 74 37 41 293 216 6389 2178 17506 15740 1665 110 984 526 1953 10258 137 618 367 83 300 492 3440 235
leaf_count=409 26711 439 143 247 585 20 2533 74 37 41 293 216 6389 2178 17506 15740 1665 110 984 526 1953 10258 137 618 367 83 300 492 3440 235
internal_value=5.43646e-06 0.000528992 0.00168777 0.00323485 0.000269294 0.000491561 0.00030826 0.00362687 0.00560844 0.00742147 -2.08455e-05 3.77603e-05 4.52102e-05 5.30176e-05 0.000202336 -3.82673e-05 0.000496599 -9.65907e-05 -5.282e-05 0.000286919 0.000105545 -0.000154175 -0.00108882 0.00126954 -0.000812718 -3.01763e-05 0.00115814 -0.00178765 -0.000131059 0.00037474
internal_weight=94729 4528 829 390 3699 3114 2942 172 98 78 90201 63490 63274 62981 23895 39086 3843 35243 33754 7756 6772 25998 1489 1144 1352 750 383 602 5628 2188
internal_count=94729 4528 829 390 3699 3114 2942 172 98 78 90201 63490 63274 62981 23895 39086 3843 35243 33754 7756 6772 25998 1489 1144 1352 750 383 602 5628 2188
is_linear=0
shrinkage=0.05


Tree=32
num_leaves=31
num_cat=0
split_feature=2 3 4 1 3 4 4 1 3 2 4 4 3 6 4 2 6 6 6 4 7 5 0 3 2 2 2 1 2 0
split_gain=0.470556 0.892879 1.0265 0.380659 0.328541 0.387768 1.04668 0.452112 0.307977 0.317663 0.304553 0.297949 0.439115 0.637821 0.681318 0.417645 0.499793 0.407869 0.416495 0.376903 0.369834 0.490212 0.760319 0.978898 0.570913 0.61857 0.362967 0.446181 0.361321 0.485775
threshold=-0.2163448456763962 0.045089125665082601 0.043404770773867417 -0.068946779934558042 0.025879434629233877 0.035834453913997248 0.038345884142727896 -0.14638562098939598 0.014724537707110725 -0.088791957962434206 0.03674979239075641 0.0211015710473061 0.021605124887726739 0.046969390314587051 0.028726623866274576 -0.13190593148278143 0.034604361511785364 0.045221849434865145 0.052169042901620825 0.017291195824467826 0.98898693404610938 1.4339666377831921 0.019877590248083336 0.019899838521230003 -0.055735871819329756 -0.031726831300838913 -0.17695903480791067 -0.11119115376946863 -0.16829485381757001 -0.018985439586462646
decision_type=2 2 2 2 2 2 2 2 2 2 2 2 2 2 2 2 2 2 2 2 2 2 2 2 2 2 2 2 2 2
left_child=1 3 -3 4 5 -1 -7 -8 9 -2 -11 15 13 -13 28 17 20 -10 26 -18 21 -17 -23 24 -24 -26 -19 -28 -15 -30
right_child=8 2 -4 -5 -6 6 7 -9 11 10 -12 12 -14 14 -16 16 19 18 -20 -21 -22 22 23 -25 25 -27 27 -29 29 -31
leaf_value=-0.00085274172167936792 0.00026996842095001734 0.0042009319322497338 0.00085090945200707018 -0.0009267715612626446 0.00079439339195815908 0.012030405824771152 0.006959494265902322 -0.0013116439144850072 -0.00080639577805125505 -0.00047723630974347135 0.0029347919164027909 -0.00054816245917361497 2.0174631605286017e-05 -0.00080837214363541098 -0.00024817828031290147 0.00027062434434198197 0.0023014413274270317 -9.2909534043651452e-05 -0.0034449470123067375 0.00065449055678401275 -0.0001946208003535663 0.00063817753968578475 0.0029660393358663779 0.0011420061704460773 0.019203793681226673 0.0074064097199589007 0.011419571576301349 0.0028749023407581265 0.0035080494471539285 0.00048489955481748011
