{"learner":{"attributes":{"best_iteration":"26","best_score":"0.9991198477745112"},"feature_names":["atr14","boll_lower","boll_middle","boll_upper","ema10","ema20","ema5","ma10","ma20","ma5","ma60","macd","macd_histogram","macd_signal","mfi14","momentum_10","momentum_20","momentum_5","obv","roc_10","roc_20","roc_5","rsi12","rsi24","rsi6","volume_ma10","volume_ma20","volume_ma5","volume_ratio","vwap"],"feature_types":[],"gradient_booster":{"model":{"cats":{"enc":[],"feature_segments":[],"sorted_idx":[]},"gbtree_model_param":{"num_parallel_tree":"1","num_trees":"47"},"iteration_indptr":[0,1,2,3,4,5,6,7,8,9,10,11,12,13,14,15,16,17,18,19,20,21,22,23,24,25,26,27,28,29,30,31,32,33,34,35,36,37,38,39,40,41,42,43,44,45,46,47],"tree_info":[0,0,0,0,0,0,0,0,0,0,0,0,0,0,0,0,0,0,0,0,0,0,0,0,0,0,0,0,0,0,0,0,0,0,0,0,0,0,0,0,0,0,0,0,0,0,0],"trees":[{"base_weights":[-6.3959234E-3,1.1851904E-2,-2.6946867E-1,-1.9685175E-2,1.7004576E-1,-1.7724793E-2,-4.5996115E-1,-3.6548134E-2,2.2321826E-1,-5.9144616E-1,1.9562866E-1,-3.0102587E-1,4.6613014E-1,-5.270525E-1,1.937564E-2,9.703566E-2,-7.2969735E-2,1.4798938E-1,8.08918E-1,-0E0,-9.079423E-1,1.3041031E-1,4.6758756E-1,-4.6368295E-1,3.0258749E-2,-1.1405452E-2,6.3838524E-1,-0E0,-6.382632E-1,3.1971487E-1,-1.7418612E-2,-8.2082905E-2,6.784912E-1,4.9710232E-1,4.6818595E-2,3.0672976E-1,6.725689E-2,-5.603058E-2,-2.3678966E-2,3.125223E-1,-8.372841E-2,6.2502277E-1,-3.709635E-1,-2.7766448E-1,-7.223388E-2,8.983163E-1,-0E0,-6.995513E-1,6.975316E-1,-8.196826E-1,-2.9474822E-1,3.971914E-1,-3.512317E-1,-4.6112865E-2,7.542157E-1,-2.9413062E-1,-6.599473E-2,1.149529E0,-1.002958E-2,6.209175E-2,2.9246134E-1,-4.4813253E-2,1.08435355E-1,2.7282892E-2,-2.1648586E-3,1.3415377E-1,5.2515244E-1,8.403322E-2,-4.2501947E-1,-1.7168486E-1,7.405791E-1,4.092608E-3,-4.2985573E-2,-4.3095353E-1,4.0258374E-2,8.041619E-3,1.1715993E0,-1.5954588E-2,-4.544518E-2,1.2282478E-2,4.5876537E-2,-6.612717E-1,-1.0699027E0,1.3022688E-1,-7.237117E-1,9.303784E-1,2.965938E-1,1.1320132E-1,-5.6111418E-2,3.997871E-2,-6.83625E-2,5.605716E-2,1.480311E-2,1.5220958E-2,-4.538172E-1,-5.2077245E-2,-3.1178275E-1,2.1185162E-2,7.316767E-2,-8.962156E-3,4.6903595E-1,-4.3137002E-1,2.4040756E-1,1.9967292E-1,-4.9173665E-1,8.404636E-1,2.6352876E-1,-1.1695189E-1,5.559952E-1,6.360047E-2,-8.6893576E-1,2.1535592E-2,-4.0552694E-2,8.501565E-1,-1.8717876E-2,-7.274253E-1,-2.0823474E-1,6.878641E-2,3.0446311E-2,-7.7834356E-1,7.8262435E-3,-2.1509226E-2,-5.760711E-2,4.561027E-2,-2.7878156E-1,-9.606973E-1,-1.9658303E-3,6.3812095E-1,7.097253E-2,1.9350396E-1,7.7711856E-1,-1.3225062E-2,3.1741463E-2,-9.545387E-2,5.076338E-1,-1.2769918E-1,2.6803164E-2,-1.2137028E-1,-5.4113996E-1,-4.5839578E-2,-5.912786E-1,-9.2253305E-2,-4.761626E-1,6.0172714E-2,1.521061E-1,-6.46728E-1,1.3376886E-2,9.03368E-1,1.2258738E-1,4.298855E-1,-0E0,-6.7213983E-3,-3.2933623E-2,2.0112208E-1,1.1079692E0,-3.0848184E-1,4.3449894E-1,-1.7715283E-1,2.3510648E-2,5.5874795E-2,3.4109417E-1,5.5121934E-1,-2.1880008E-1,-1.0267442E0,-9.472291E-4,5.692095E-1,1.308696E0,-4.608675E-2,-1.3259133E-2,-3.616371E-1,1.1039368E-2,-1.0916414E0,-5.300243E-1,9.191645E-3,-2.8330801E-2,-2.4467627E-2,-5.9417658E-2,-1.0465393E-3,4.208541E-2,6.403691E-3,4.446254E-2,5.052542E-2,4.4914815E-3,-1.7911464E-2,-1.6614855E-3,5.5053025E-3,5.08535E-2,1.5816119E-2,-1.3791553E-2,-1.0488384E-2,6.5404284E-3,-2.2415837E-2,-5.4794658E-2,-2.6980063E-3,1.4031242E-2,-4.3841638E-2,3.9924537E-3,-9.973125E-3,1.7162671E-2,1.0169123E-2,-2.7699877E-2,2.638617E-2,-9.589192E-3,-1.2162822E-2,-4.5430437E-2,1.4481749E-2,6.268657E-2,9.410402E-3,-2.8271563E-2,2.6196199E-2,-1.2508467E-2,-1.1392002E-2,2.4876557E-2,3.3711746E-2,-7.2880397E-3,1.1179013E-2,6.1948508E-2,-0E0,-2.3289075E-2,2.7188623E-2,-2.0964852E-2,1.7872049E-2,-1.1966919E-2,3.074095E-2,8.913685E-4,5.0882444E-2,-6.9851186E-3,7.0086485E-3,-2.5616633E-2,-2.1990528E-2,-5.9053037E-2,3.9403472E-2,-1.7143833E-2,7.646795E-2,1.5620901E-2,-3.6213389E-3,-2.4325294E-2,-6.1274387E-2,-2.9114222E-2,-7.3247277E-3,-3.8876645E-2],"categories":[],"categories_nodes":[],"categories_segments":[],"categories_sizes":[],"default_left":[0,0,0,0,0,0,0,0,0,0,0,0,0,0,0,0,0,0,0,0,0,0,0,0,0,0,0,0,0,0,0,0,0,0,0,0,0,0,0,0,0,0,0,0,0,0,0,0,0,0,0,0,0,0,0,0,0,0,0,0,0,0,0,0,0,0,0,0,0,0,0,0,0,0,0,0,0,0,0,0,0,0,0,0,0,0,0,0,0,0,0,0,0,0,0,0,0,0,0,0,0,0,0,0,0,0,0,0,0,0,0,0,0,0,0,0,0,0,0,0,0,0,0,0,0,0,0,0,0,0,0,0,0,0,0,0,0,0,0,0,0,0,0,0,0,0,0,0,0,0,0,0,0,0,0,0,0,0,0,0,0,0,0,0,0,0,0,0,0,0,0,0,0,0,0,0,0,0,0,0,0,0,0,0,0,0,0,0,0,0,0,0,0,0,0,0,0,0,0,0,0,0,0,0,0,0,0,0,0,0,0,0,0,0,0,0,0,0,0,0,0,0,0,0,0,0,0,0,0,0,0,0,0,0,0,0,0,0,0,0,0],"id":0,"left_children":[1,3,5,7,9,11,13,15,17,19,21,23,25,27,-1,29,31,33,35,-1,37,39,41,43,-1,-1,45,47,49,51,53,55,57,59,61,63,-1,-1,-1,65,67,69,71,73,-1,75,-1,77,79,81,83,85,87,89,91,93,95,97,-1,-1,99,-1,101,-1,-1,103,105,107,109,111,113,-1,-1,115,-1,-1,117,-1,-1,-1,-1,119,121,123,125,127,129,131,-1,-1,133,-1,-1,135,137,139,141,-1,-1,-1,143,145,147,149,151,153,155,157,159,161,163,-1,-1,165,-1,167,169,-1,-1,171,-1,-1,-1,-1,173,175,-1,177,-1,179,181,-1,-1,183,185,187,-1,189,191,193,195,197,199,-1,201,203,-1,205,207,209,211,-1,-1,213,215,217,219,221,-1,-1,223,225,227,229,-1,231,233,-1,-1,235,-1,237,239,-1,-1,-1,-1,-1,-1,-1,-1,-1,-1,-1,-1,-1,-1,-1,-1,-1,-1,-1,-1,-1,-1,-1,-1,-1,-1,-1,-1,-1,-1,-1,-1,-1,-1,-1,-1,-1,-1,-1,-1,-1,-1,-1,-1,-1,-1,-1,-1,-1,-1,-1,-1,-1,-1,-1,-1,-1,-1,-1,-1,-1,-1,-1,-1,-1,-1,-1,-1],"loss_changes":[2.7218414E1,2.6435015E1,1.7516874E1,1.804417E1,1.7278315E1,2.225569E1,1.2536842E1,2.009044E1,1.2165329E1,5.4198275E0,1.4901337E1,1.611588E1,7.622759E0,1.1393311E1,0E0,2.2601982E1,2.219514E1,8.872055E0,8.415062E0,0E0,6.4137554E-1,2.7075705E1,2.2095455E1,1.6173927E1,0E0,0E0,8.191826E0,1.8339853E1,9.340042E0,1.5896223E1,1.2853204E1,1.0831882E1,1.6876812E1,8.298168E0,1.2187063E1,2.006794E0,0E0,0E0,0E0,1.3941853E1,1.8392387E1,1.3132122E1,6.793275E0,1.3923237E1,0E0,6.288994E0,0E0,8.7572765E-1,1.4639063E0,2.461464E0,1.1018525E1,1.3757442E1,1.2636947E1,1.1050853E1,2.894105E0,1.121439E1,1.0103725E1,5.308777E0,0E0,0E0,4.2720165E0,0E0,1.3735367E1,0E0,0E0,8.5912075E0,1.3364445E1,2.0588701E1,2.3224974E1,8.701834E0,1.581337E1,0E0,0E0,4.1290407E0,0E0,0E0,1.4512596E0,0E0,0E0,0E0,0E0,7.0105953E0,1.7666702E0,1.1015777E1,4.5255995E0,4.616642E0,1.09476795E1,5.104456E0,0E0,0E0,8.63696E0,0E0,0E0,6.2955947E0,4.0545883E0,9.324142E0,5.525216E0,0E0,0E0,0E0,8.315281E0,6.19677E0,1.1664462E1,8.697145E0,1.0162883E0,1.2272373E1,9.636406E0,5.6537504E0,7.498499E0,7.4220114E0,7.2069244E0,0E0,0E0,1.2649391E1,0E0,2.320983E0,3.0632107E0,0E0,0E0,3.3322563E0,0E0,0E0,0E0,0E0,3.5230765E0,1.2371998E0,0E0,5.167059E0,0E0,7.987466E0,7.200115E0,0E0,0E0,8.888767E0,4.938187E0,4.803818E0,0E0,9.299772E-1,3.7563515E0,1.0106852E1,7.333788E0,3.828471E0,6.729788E0,0E0,4.2042294E0,2.8552418E0,0E0,4.52577E0,7.2406244E0,7.5279064E0,1.2983389E1,0E0,0E0,4.7429647E0,7.8451157E0,1.3489745E0,9.285162E0,5.800747E0,0E0,0E0,4.787229E0,7.5826387E0,4.151084E0,4.1618996E0,0E0,1.7923862E1,1.0346161E1,0E0,0E0,1.1853395E0,0E0,4.6512985E-1,3.6044884E0,0E0,0E0,0E0,0E0,0E0,0E0,0E0,0E0,0E0,0E0,0E0,0E0,0E0,0E0,0E0,0E0,0E0,0E0,0E0,0E0,0E0,0E0,0E0,0E0,0E0,0E0,0E0,0E0,0E0,0E0,0E0,0E0,0E0,0E0,0E0,0E0,0E0,0E0,0E0,0E0,0E0,0E0,0E0,0E0,0E0,0E0,0E0,0E0,0E0,0E0,0E0,0E0,0E0,0E0,0E0,0E0,0E0,0E0,0E0,0E0,0E0,0E0,0E0,0E0,0E0,0E0,0E0,0E0],"parents":[2147483647,0,0,1,1,2,2,3,3,4,4,5,5,6,6,7,7,8,8,9,9,10,10,11,11,12,12,13,13,15,15,16,16,17,17,18,18,20,20,21,21,22,22,23,23,26,26,27,27,28,28,29,29,30,30,31,31,32,32,33,33,34,34,35,35,39,39,40,40,41,41,42,42,43,43,45,45,47,47,48,48,49,49,50,50,51,51,52,52,53,53,54,54,55,55,56,56,57,57,60,60,62,62,65,65,66,66,67,67,68,68,69,69,70,70,73,73,76,76,81,81,82,82,83,83,84,84,85,85,86,86,87,87,90,90,93,93,94,94,95,95,96,96,100,100,101,101,102,102,103,103,104,104,105,105,106,106,107,107,108,108,109,109,110,110,113,113,115,115,116,116,119,119,124,124,125,125,127,127,129,129,130,130,133,133,134,134,135,135,137,137,138,138,139,139,140,140,141,141,142,142,144,144,145,145,147,147,148,148,149,149,150,150,153,153,154,154,155,155,156,156,157,157,160,160,161,161,162,162,163,163,165,165,166,166,169,169,171,171,172,172],"right_children":[2,4,6,8,10,12,14,16,18,20,22,24,26,28,-1,30,32,34,36,-1,38,40,42,44,-1,-1,46,48,50,52,54,56,58,60,62,64,-1,-1,-1,66,68,70,72,74,-1,76,-1,78,80,82,84,86,88,90,92,94,96,98,-1,-1,100,-1,102,-1,-1,104,106,108,110,112,114,-1,-1,116,-1,-1,118,-1,-1,-1,-1,120,122,124,126,128,130,132,-1,-1,134,-1,-1,136,138,140,142,-1,-1,-1,144,146,148,150,152,154,156,158,160,162,164,-1,-1,166,-1,168,170,-1,-1,172,-1,-1,-1,-1,174,176,-1,178,-1,180,182,-1,-1,184,186,188,-1,190,192,194,196,198,200,-1,202,204,-1,206,208,210,212,-1,-1,214,216,218,220,222,-1,-1,224,226,228,230,-1,232,234,-1,-1,236,-1,238,240,-1,-1,-1,-1,-1,-1,-1,-1,-1,-1,-1,-1,-1,-1,-1,-1,-1,-1,-1,-1,-1,-1,-1,-1,-1,-1,-1,-1,-1,-1,-1,-1,-1,-1,-1,-1,-1,-1,-1,-1,-1,-1,-1,-1,-1,-1,-1,-1,-1,-1,-1,-1,-1,-1,-1,-1,-1,-1,-1,-1,-1,-1,-1,-1,-1,-1,-1,-1],"split_conditions":[1.5732216E0,7.1033275E-1,2.0651884E-1,1.1249486E0,-1.014149E0,-1.0464398E-2,1.4528651E0,-8.633236E-1,6.1675924E-1,-3.9401603E-1,1.4849478E0,1.2700804E0,-1.0209035E0,-7.052058E-1,1.937564E-2,-6.922322E-2,1.2962713E0,-1.0709469E0,1.2876172E0,-0E0,2.1968922E-1,1.284716E-1,1.7377342E0,1.7339021E0,3.0258749E-2,-1.1405452E-2,2.0084884E0,1.606484E0,1.5838013E0,4.4651812E-1,1.2546372E-1,-1.051597E0,-1.3350223E-1,4.333607E-1,-6.303237E-1,1.0469424E0,6.725689E-2,-5.603058E-2,-2.3678966E-2,6.685945E-1,1.0344205E0,2.9684758E-2,1.4329973E0,1.7121986E0,-7.223388E-2,1.3121864E0,-0E0,2.0203724E0,-4.4279844E-2,1.6695377E0,1.5843579E0,-1.7370234E0,-5.0102705E-1,-2.1612334E0,2.2614048E-1,-5.2328104E-1,1.2767771E0,6.6498667E-1,-1.002958E-2,6.209175E-2,5.0204706E-1,-4.4813253E-2,-1.6902679E0,2.7282892E-2,-2.1648586E-3,1.7835424E0,1.3776128E0,1.0060135E0,7.664641E-1,9.9602693E-1,1.7854173E0,4.092608E-3,-4.2985573E-2,1.7360742E0,4.0258374E-2,8.041619E-3,1.8373317E0,-1.5954588E-2,-4.544518E-2,1.2282478E-2,4.5876537E-2,1.6632756E0,1.6344131E0,1.6654397E0,1.5205919E0,-1.0607283E0,5.6717273E-2,1.0284458E0,-5.6111418E-2,3.997871E-2,1.7807629E0,5.605716E-2,1.480311E-2,-3.4903312E-1,-6.211251E-1,1.8137332E0,-1.9993919E-1,2.1185162E-2,7.316767E-2,-8.962156E-3,1.123868E0,5.9678394E-1,-3.272368E-2,8.647098E-1,1.233653E0,1.0154439E0,1.4296813E0,1.6058882E0,1.3751574E0,8.048382E-1,1.3026295E0,2.1535592E-2,-4.0552694E-2,1.6557974E-1,-1.8717876E-2,1.6709797E0,1.6752111E0,6.878641E-2,3.0446311E-2,1.2791727E0,7.8262435E-3,-2.1509226E-2,-5.760711E-2,4.561027E-2,-1.3542455E0,-3.3763972E-1,-1.9658303E-3,-5.051526E-1,7.097253E-2,-1.0145378E-1,3.8680006E-2,-1.3225062E-2,3.1741463E-2,-1.5094429E0,1.2901279E0,-1.5324899E0,2.6803164E-2,1.4273736E0,9.5258605E-1,1.2628306E0,1.2796122E0,1.2905635E0,-1.5984591E0,6.0172714E-2,-6.0502833E-1,-2.0215875E-1,1.3376886E-2,-6.5595406E-1,1.7689466E0,6.915356E-1,1.1564562E0,-6.7213983E-3,-3.2933623E-2,7.708898E-1,3.358746E-2,5.666425E-1,1.8704171E0,-1.0797477E0,2.3510648E-2,5.5874795E-2,6.9018435E-1,4.2841414E-1,1.3641573E0,5.727551E-1,-9.472291E-4,-2.289972E-1,1.2217292E0,-4.608675E-2,-1.3259133E-2,1.8961346E0,1.1039368E-2,1.4996487E0,1.8148134E0,9.191645E-3,-2.8330801E-2,-2.4467627E-2,-5.9417658E-2,-1.0465393E-3,4.208541E-2,6.403691E-3,4.446254E-2,5.052542E-2,4.4914815E-3,-1.7911464E-2,-1.6614855E-3,5.5053025E-3,5.08535E-2,1.5816119E-2,-1.3791553E-2,-1.0488384E-2,6.5404284E-3,-2.2415837E-2,-5.4794658E-2,-2.6980063E-3,1.4031242E-2,-4.3841638E-2,3.9924537E-3,-9.973125E-3,1.7162671E-2,1.0169123E-2,-2.7699877E-2,2.638617E-2,-9.589192E-3,-1.2162822E-2,-4.5430437E-2,1.4481749E-2,6.268657E-2,9.410402E-3,-2.8271563E-2,2.6196199E-2,-1.2508467E-2,-1.1392002E-2,2.4876557E-2,3.3711746E-2,-7.2880397E-3,1.1179013E-2,6.1948508E-2,-0E0,-2.3289075E-2,2.7188623E-2,-2.0964852E-2,1.7872049E-2,-1.1966919E-2,3.074095E-2,8.913685E-4,5.0882444E-2,-6.9851186E-3,7.0086485E-3,-2.5616633E-2,-2.1990528E-2,-5.9053037E-2,3.9403472E-2,-1.7143833E-2,7.646795E-2,1.5620901E-2,-3.6213389E-3,-2.4325294E-2,-6.1274387E-2,-2.9114222E-2,-7.3247277E-3,-3.8876645E-2],"split_indices":[11,16,18,12,14,18,28,17,13,18,18,26,26,26,0,8,25,23,1,0,18,18,18,9,0,0,15,0,18,20,24,25,6,7,24,17,0,0,0,0,25,12,20,3,0,0,0,16,28,10,23,19,15,23,19,13,26,19,0,0,3,0,13,0,0,14,7,10,19,13,12,0,0,11,0,0,13,0,0,0,0,9,0,10,19,15,20,25,0,0,7,0,0,16,16,22,8,0,0,0,3,22,24,20,20,3,8,16,5,20,18,0,0,0,0,6,6,0,0,3,0,0,0,0,17,28,0,1,0,15,11,0,0,19,26,11,0,1,15,23,28,25,15,0,22,20,0,20,15,23,23,0,0,10,22,23,1,10,0,0,12,12,11,12,0,0,25,0,0,11,0,23,0,0,0,0,0,0,0,0,0,0,0,0,0,0,0,0,0,0,0,0,0,0,0,0,0,0,0,0,0,0,0,0,0,0,0,0,0,0,0,0,0,0,0,0,0,0,0,0,0,0,0,0,0,0,0,0,0,0,0,0,0,0,0,0,0,0,0,0,0],"split_type":[0,0,0,0,0,0,0,0,0,0,0,0,0,0,0,0,0,0,0,0,0,0,0,0,0,0,0,0,0,0,0,0,0,0,0,0,0,0,0,0,0,0,0,0,0,0,0,0,0,0,0,0,0,0,0,0,0,0,0,0,0,0,0,0,0,0,0,0,0,0,0,0,0,0,0,0,0,0,0,0,0,0,0,0,0,0,0,0,0,0,0,0,0,0,0,0,0,0,0,0,0,0,0,0,0,0,0,0,0,0,0,0,0,0,0,0,0,0,0,0,0,0,0,0,0,0,0,0,0,0,0,0,0,0,0,0,0,0,0,0,0,0,0,0,0,0,0,0,0,0,0,0,0,0,0,0,0,0,0,0,0,0,0,0,0,0,0,0,0,0,0,0,0,0,0,0,0,0,0,0,0,0,0,0,0,0,0,0,0,0,0,0,0,0,0,0,0,0,0,0,0,0,0,0,0,0,0,0,0,0,0,0,0,0,0,0,0,0,0,0,0,0,0,0,0,0,0,0,0,0,0,0,0,0,0,0,0,0,0,0,0],"sum_hessian":[5.655E3,5.289E3,3.66E2,4.41E3,8.79E2,1.59E2,2.07E2,4.126E3,2.84E2,2.7E1,8.52E2,1.01E2,5.8E1,1.93E2,1.4E1,8.82E2,3.244E3,2.54E2,3E1,1E1,1.7E1,6.9E2,1.62E2,8.7E1,1.4E1,1.1E1,4.7E1,3.4E1,1.59E2,2.99E2,5.83E2,3.207E3,3.7E1,5.5E1,1.99E2,1.8E1,1.2E1,8E0,9E0,3.73E2,3.17E2,1.37E2,2.5E1,7.6E1,1.1E1,3.3E1,1.4E1,1.7E1,1.7E1,1.02E2,5.7E1,2.69E2,3E1,5.64E2,1.9E1,2.23E2,2.984E3,2.4E1,1.3E1,9E0,4.6E1,1E1,1.89E2,1E1,8E0,2.05E2,1.68E2,2.13E2,1.04E2,1.7E1,1.2E2,1.4E1,1.1E1,6.8E1,8E0,1E1,2.3E1,9E0,8E0,8E0,9E0,6.7E1,3.5E1,2.9E1,2.8E1,4E1,2.29E2,2E1,1E1,1.2E1,5.52E2,8E0,1.1E1,7.6E1,1.47E2,2.827E3,1.57E2,1E1,1.4E1,1.2E1,3.4E1,3.6E1,1.53E2,1.87E2,1.8E1,7.4E1,9.4E1,1.5E2,6.3E1,5E1,5.4E1,9E0,8E0,1.1E2,1E1,2.7E1,4.1E1,1.3E1,1E1,5.9E1,8E0,8E0,2.7E1,9E0,2E1,2E1,8E0,2.9E1,1.1E1,1.91E2,3.8E1,1.2E1,8E0,5.29E2,2.3E1,6.1E1,1.5E1,3.2E1,1.15E2,2.797E3,3E1,6.9E1,8.8E1,8E0,2.6E1,2.8E1,8E0,2.1E1,1.32E2,8.6E1,1.01E2,8E0,1E1,2.3E1,5.1E1,2.1E1,7.3E1,1.38E2,1.2E1,1.4E1,4.9E1,1.8E1,3.2E1,4.5E1,9E0,7.1E1,3.9E1,1.6E1,1.1E1,3.1E1,1E1,2.3E1,3.6E1,8E0,1.2E1,1E1,1E1,8E0,2.1E1,1.79E2,1.2E1,2.6E1,1.2E1,9.2E1,4.37E2,1.5E1,8E0,1.5E1,4.6E1,2.4E1,8E0,1.06E2,9E0,2.714E3,8.3E1,2E1,1E1,5.6E1,1.3E1,1.1E1,7.7E1,1.2E1,1.4E1,1.4E1,1.4E1,1E1,1.1E1,1.21E2,1.1E1,7.4E1,1.2E1,7E1,3.1E1,9E0,1.4E1,1E1,4.1E1,8E0,1.3E1,6.4E1,9E0,1.5E1,1.23E2,2.4E1,2.5E1,1E1,8E0,1.5E1,1.7E1,1.4E1,3.1E1,5.6E1,1.5E1,2.9E1,1E1,1.2E1,1.9E1,1.4E1,9E0,1.7E1,1.9E1],"tree_param":{"num_deleted":"0","num_feature":"30","num_nodes":"241","size_leaf_vector":"1"}},{"base_weights":[2.8911897E-3,-1.6638148E-1,2.0065457E-2,5.1957004E-2,-1.9237894E-1,2.6317038E-2,-4.1225445E-1,2.7869666E-2,-2.1329597E-1,1.5861055E-2,3.7010866E-1,3.2556623E-1,-6.647341E-1,-1.9324599E-1,-4.7995415E-2,2.6104199E-2,-2.5844017E-1,5.5216354E-1,-2.3627359E-1,-0E0,3.1440545E-2,-1.1354338E0,1.528346E-1,-1.06045716E-1,-3.1212178E-1,5.011701E-3,1.9034985E-1,-1.1006611E-1,-7.062604E-1,1.2183649E-3,6.636867E-1,2.672702E-1,-6.787617E-1,-1.301929E0,-2.449666E-2,3.5715107E-2,-2.6612794E-2,-2.439139E-1,5.6313947E-2,-5.6447122E-2,-4.5710722E-1,1.19820885E-1,-2.098164E-2,-1.7467323E-1,2.5235814E-1,-9.535268E-3,-5.090033E-2,-4.113677E-1,-1.0475101E0,3.063673E-2,-2.0890506E-2,7.562307E-1,1.9562434E-1,4.665746E-4,2.1641407E-2,-4.1935753E-2,-1.6527876E-2,-3.5074893E-2,-8.60897E-2,-7.2189435E-2,-5.050147E-1,4.7103465E-1,-7.480923E-2,-3.6081165E-2,1.012896E-1,-5.210231E-1,1.5541821E-2,-4.8546437E-3,2.3687118E-1,1.5076652E-1,-3.8193803E-2,1.86557E-2,-2.9851162E-1,6.042405E-1,1.2581874E-1,-3.3417895E-1,3.0192274E-1,-9.282352E-4,-3.1905364E-2,-6.303074E-2,-2.8933324E-2,5.253335E-1,1.1695522E0,1.8975308E-2,-0E0,-2.695185E-1,2.2198832E-1,-2.4469078E-1,-1.0240494E0,1.5569223E-1,3.5418313E-2,-4.8487446E-1,1.1126835E-1,3.1121599E-2,-8.3512776E-2,-3.7183315E-1,-7.791679E-1,3.7410546E-2,-6.851122E-1,5.623751E-1,1.3270418E-1,-1.1475095E-2,5.31579E-1,-4.3741313E-1,-2.37456E-2,-6.686488E-1,-9.774761E-2,1.936126E-1,7.957553E-1,5.390293E-1,1.1306336E-2,1.94135E-1,-5.592117E-1,4.2105848E-1,-3.3588663E-3,2.0902225E-1,7.524908E-1,6.6866525E-2,2.7437596E-2,8.8995285E-3,-1.7776808E-2,1.3392657E-3,3.7648104E-2,-2.1056056E-2,1.6043648E-2,-2.2080455E-2,-6.2846474E-2,3.0705106E-2,-1.6112216E-2,-4.46958E-3,-2.8434278E-2,1.7141534E-2,-1.10882465E-2,1.0562971E-2,-1.0505201E-2,-2.4702443E-2,5.699728E-3,-4.2172242E-2,-1.4509648E-2,-1.4416837E-4,2.5380699E-2,-7.602608E-3,-6.358605E-2,-8.546072E-3,3.6875814E-2,9.605971E-3,-1.2793384E-2,-3.825314E-3,2.3287203E-2,-7.110151E-3,3.3840496E-2,3.10625E-2,-2.5623193E-2,4.662429E-3,-2.5473086E-3,-4.8938055E-2,-7.73081E-3,1.7653434E-2,-2.7083714E-2,-9.580876E-3,1.5260482E-2,4.81349E-2,3.1278098E-3,1.9300431E-2,5.342786E-2,-1.6075889E-2,6.1140507E-3,-3.6246195E-3,2.418707E-2,-3.873157E-2,-7.4722515E-3,3.2031897E-2,1.6663724E-3,2.5133798E-2,-1.7930954E-3,4.715787E-2,2.0914929E-2],"categories":[],"categories_nodes":[],"categories_segments":[],"categories_sizes":[],"default_left":[0,0,0,0,0,0,0,0,0,0,0,0,0,0,0,0,0,0,0,0,0,0,0,0,0,0,0,0,0,0,0,0,0,0,0,0,0,0,0,0,0,0,0,0,0,0,0,0,0,0,0,0,0,0,0,0,0,0,0,0,0,0,0,0,0,0,0,0,0,0,0,0,0,0,0,0,0,0,0,0,0,0,0,0,0,0,0,0,0,0,0,0,0,0,0,0,0,0,0,0,0,0,0,0,0,0,0,0,0,0,0,0,0,0,0,0,0,0,0,0,0,0,0,0,0,0,0,0,0,0,0,0,0,0,0,0,0,0,0,0,0,0,0,0,0,0,0,0,0,0,0,0,0,0,0,0,0,0,0,0,0,0,0,0,0,0,0,0,0,0,0,0,0,0,0,0,0],"id":1,"left_children":[1,3,5,-1,7,9,11,-1,13,15,17,19,21,23,-1,25,27,29,31,-1,-1,33,35,37,39,41,43,45,47,49,51,53,55,57,-1,-1,-1,59,61,63,65,67,69,71,73,75,-1,77,79,-1,-1,81,83,-1,-1,-1,-1,-1,-1,85,87,89,91,-1,93,95,-1,97,99,101,103,-1,105,107,109,111,113,-1,-1,-1,-1,115,117,-1,-1,119,121,123,125,127,-1,129,131,-1,133,135,137,139,141,143,145,147,149,151,153,155,157,159,161,163,165,167,169,171,-1,173,175,-1,-1,-1,-1,-1,-1,-1,-1,-1,-1,-1,-1,-1,-1,-1,-1,-1,-1,-1,-1,-1,-1,-1,-1,-1,-1,-1,-1,-1,-1,-1,-1,-1,-1,-1,-1,-1,-1,-1,-1,-1,-1,-1,-1,-1,-1,-1,-1,-1,-1,-1,-1,-1,-1,-1,-1,-1,-1,-1,-1],"loss_changes":[1.6630756E1,1.7354843E1,1.4000619E1,0E0,8.545067E0,1.8354485E1,1.420961E1,0E0,7.4146366E0,1.3963478E1,1.6950697E1,2.146488E0,2.1999823E1,4.9871693E0,0E0,1.660731E1,1.1559178E1,7.0269394E0,8.391522E0,0E0,0E0,2.1093903E0,9.997284E0,6.55307E0,7.542351E0,1.2747804E1,1.244998E1,1.2886593E1,3.3105106E0,6.6693096E0,3.7160988E0,7.4091935E-1,4.9603367E-1,4.676964E0,0E0,0E0,0E0,6.881439E0,7.4267325E0,8.860756E0,6.9392586E0,1.1564689E1,1.02603035E1,5.774665E0,2.0530945E1,1.2907228E1,0E0,2.5197902E0,3.993492E-1,0E0,0E0,6.137253E0,8.2683384E-1,0E0,0E0,0E0,0E0,0E0,0E0,5.7946205E0,7.6182604E0,2.3921123E0,8.0231495E0,0E0,6.814001E0,3.9541054E0,0E0,1.1195559E1,1.3538757E1,1.9637264E1,1.8116167E1,0E0,4.675966E0,9.160641E0,1.6276255E1,7.740926E0,3.004467E0,0E0,0E0,0E0,0E0,3.4414663E0,1.79599E0,0E0,0E0,2.9656444E0,4.1498704E0,5.278175E0,1.7599659E0,4.731473E0,0E0,1.1653304E0,6.284459E0,0E0,2.157325E0,6.0417366E0,1.3690739E0,7.346841E0,7.0368366E0,1.5588892E1,8.630426E0,7.6104774E0,1.1732599E1,1.2440239E1,1.0968897E1,3.5522223E0,1.0466048E1,2.216282E0,1.2471577E1,4.699814E0,1.114984E1,1.833859E0,4.100421E0,4.6022167E0,0E0,2.1617208E0,1.1841393E0,0E0,0E0,0E0,0E0,0E0,0E0,0E0,0E0,0E0,0E0,0E0,0E0,0E0,0E0,0E0,0E0,0E0,0E0,0E0,0E0,0E0,0E0,0E0,0E0,0E0,0E0,0E0,0E0,0E0,0E0,0E0,0E0,0E0,0E0,0E0,0E0,0E0,0E0,0E0,0E0,0E0,0E0,0E0,0E0,0E0,0E0,0E0,0E0,0E0,0E0,0E0,0E0,0E0,0E0,0E0,0E0,0E0,0E0,0E0,0E0],"parents":[2147483647,0,0,1,1,2,2,4,4,5,5,6,6,8,8,9,9,10,10,11,11,12,12,13,13,15,15,16,16,17,17,18,18,21,21,22,22,23,23,24,24,25,25,26,26,27,27,28,28,29,29,30,30,31,31,32,32,33,33,37,37,38,38,39,39,40,40,41,41,42,42,43,43,44,44,45,45,47,47,48,48,51,51,52,52,59,59,60,60,61,61,62,62,64,64,65,65,67,67,68,68,69,69,70,70,72,72,73,73,74,74,75,75,76,76,81,81,82,82,85,85,86,86,87,87,88,88,89,89,91,91,92,92,94,94,95,95,96,96,97,97,98,98,99,99,100,100,101,101,102,102,103,103,104,104,105,105,106,106,107,107,108,108,109,109,110,110,111,111,112,112,113,113,115,115,116,116],"right_children":[2,4,6,-1,8,10,12,-1,14,16,18,20,22,24,-1,26,28,30,32,-1,-1,34,36,38,40,42,44,46,48,50,52,54,56,58,-1,-1,-1,60,62,64,66,68,70,72,74,76,-1,78,80,-1,-1,82,84,-1,-1,-1,-1,-1,-1,86,88,90,92,-1,94,96,-1,98,100,102,104,-1,106,108,110,112,114,-1,-1,-1,-1,116,118,-1,-1,120,122,124,126,128,-1,130,132,-1,134,136,138,140,142,144,146,148,150,152,154,156,158,160,162,164,166,168,170,172,-1,174,176,-1,-1,-1,-1,-1,-1,-1,-1,-1,-1,-1,-1,-1,-1,-1,-1,-1,-1,-1,-1,-1,-1,-1,-1,-1,-1,-1,-1,-1,-1,-1,-1,-1,-1,-1,-1,-1,-1,-1,-1,-1,-1,-1,-1,-1,-1,-1,-1,-1,-1,-1,-1,-1,-1,-1,-1,-1,-1,-1,-1],"split_conditions":[-1.0162698E0,-9.357508E-1,2.049913E0,5.1957004E-2,-1.8848413E0,1.7121986E0,-1.2487189E0,2.7869666E-2,1.7478596E0,1.8359779E0,1.8005891E0,-1.2606583E0,1.9422673E0,-1.0841232E-1,-4.7995415E-2,1.1249486E0,8.634234E-1,-1.7666694E0,3.2911265E-1,-0E0,3.1440545E-2,7.3685706E-1,3.8723502E-1,-7.437399E-1,-3.0346128E-1,-8.633236E-1,1.0992567E-3,1.6163188E0,1.6695377E0,-1.1275626E0,1.0503451E0,9.9418245E-2,1.824998E0,-5.1331663E-1,-2.449666E-2,3.5715107E-2,-2.6612794E-2,-2.1223977E-1,-6.568193E-1,-5.827943E-1,9.313555E-1,-1.0081272E0,-1.2971326E0,-1.3247888E0,8.8429743E-1,-6.9469917E-1,-5.090033E-2,1.4329973E0,1.0950443E0,3.063673E-2,-2.0890506E-2,8.903626E-2,1.7018946E0,4.665746E-4,2.1641407E-2,-4.1935753E-2,-1.6527876E-2,-3.5074893E-2,-8.60897E-2,-4.4112414E-1,-9.643523E-1,-2.3698616E-1,-3.4302175E-1,-3.6081165E-2,-4.666945E-1,4.067508E-1,1.5541821E-2,-4.5852238E-1,-7.390744E-1,-1.3353832E0,-1.2828602E0,1.86557E-2,-9.923786E-1,5.33701E-1,-3.7180853E-1,-1.7684841E0,4.0428644E-1,-9.282352E-4,-3.1905364E-2,-6.303074E-2,-2.8933324E-2,-1.2912948E0,1.5897386E0,1.8975308E-2,-0E0,-5.9037423E-1,-7.0810413E-1,-1.2109178E0,-1.0805218E0,-4.8372224E-1,3.5418313E-2,-4.6928728E-1,-4.6606842E-1,3.1121599E-2,1.6303821E-1,-1.0355076E0,8.172614E-1,7.5381523E-1,1.6148978E0,-1.2713273E0,7.1953917E-1,7.91296E-1,4.5613462E-1,-1.3068318E0,-9.30437E-1,-5.350072E-1,4.1431704E-1,-1.09690286E-1,1.239064E0,2.0639532E0,2.6962888E-1,-1.3651383E0,1.6978275E0,1.6926008E0,-3.3588663E-3,-1.4557314E0,-3.5131416E-1,6.6866525E-2,2.7437596E-2,8.8995285E-3,-1.7776808E-2,1.3392657E-3,3.7648104E-2,-2.1056056E-2,1.6043648E-2,-2.2080455E-2,-6.2846474E-2,3.0705106E-2,-1.6112216E-2,-4.46958E-3,-2.8434278E-2,1.7141534E-2,-1.10882465E-2,1.0562971E-2,-1.0505201E-2,-2.4702443E-2,5.699728E-3,-4.2172242E-2,-1.4509648E-2,-1.4416837E-4,2.5380699E-2,-7.602608E-3,-6.358605E-2,-8.546072E-3,3.6875814E-2,9.605971E-3,-1.2793384E-2,-3.825314E-3,2.3287203E-2,-7.110151E-3,3.3840496E-2,3.10625E-2,-2.5623193E-2,4.662429E-3,-2.5473086E-3,-4.8938055E-2,-7.73081E-3,1.7653434E-2,-2.7083714E-2,-9.580876E-3,1.5260482E-2,4.81349E-2,3.1278098E-3,1.9300431E-2,5.342786E-2,-1.6075889E-2,6.1140507E-3,-3.6246195E-3,2.418707E-2,-3.873157E-2,-7.4722515E-3,3.2031897E-2,1.6663724E-3,2.5133798E-2,-1.7930954E-3,4.715787E-2,2.0914929E-2],"split_indices":[27,6,0,0,23,3,19,0,6,0,5,21,12,19,0,12,22,11,23,0,0,19,11,22,13,17,14,17,10,23,22,14,6,15,0,0,0,0,23,3,21,15,29,23,19,22,0,20,19,0,0,22,10,0,0,0,0,0,0,0,20,9,10,0,3,17,0,12,20,3,10,0,13,2,29,17,21,0,0,0,0,12,16,0,0,10,16,20,26,2,0,21,19,0,19,27,16,16,2,13,19,11,26,14,4,14,20,16,26,20,0,21,7,9,0,21,24,0,0,0,0,0,0,0,0,0,0,0,0,0,0,0,0,0,0,0,0,0,0,0,0,0,0,0,0,0,0,0,0,0,0,0,0,0,0,0,0,0,0,0,0,0,0,0,0,0,0,0,0,0,0,0,0,0,0,0,0],"split_type":[0,0,0,0,0,0,0,0,0,0,0,0,0,0,0,0,0,0,0,0,0,0,0,0,0,0,0,0,0,0,0,0,0,0,0,0,0,0,0,0,0,0,0,0,0,0,0,0,0,0,0,0,0,0,0,0,0,0,0,0,0,0,0,0,0,0,0,0,0,0,0,0,0,0,0,0,0,0,0,0,0,0,0,0,0,0,0,0,0,0,0,0,0,0,0,0,0,0,0,0,0,0,0,0,0,0,0,0,0,0,0,0,0,0,0,0,0,0,0,0,0,0,0,0,0,0,0,0,0,0,0,0,0,0,0,0,0,0,0,0,0,0,0,0,0,0,0,0,0,0,0,0,0,0,0,0,0,0,0,0,0,0,0,0,0,0,0,0,0,0,0,0,0,0,0,0,0],"sum_hessian":[5.728E3,5.25E2,5.203E3,9E0,5.16E2,5.131E3,7.2E1,1.2E1,5.04E2,4.982E3,1.49E2,1.8E1,5.4E1,4.94E2,1E1,4.805E3,1.77E2,1.15E2,3.4E1,1E1,8E0,3.4E1,2E1,2.88E2,2.06E2,4.261E3,5.44E2,1.35E2,4.2E1,2E1,9.5E1,1.6E1,1.8E1,2.5E1,9E0,1.1E1,9E0,1.56E2,1.32E2,7.6E1,1.3E2,7.87E2,3.474E3,7.8E1,4.66E2,1.24E2,1.1E1,2.5E1,1.7E1,8E0,1.2E1,7.8E1,1.7E1,8E0,8E0,9E0,9E0,1.4E1,1.1E1,9.6E1,6E1,3.1E1,1.01E2,1.3E1,6.3E1,1.21E2,9E0,3.81E2,4.06E2,3.14E2,3.16E3,1.3E1,6.5E1,1.21E2,3.45E2,6.1E1,6.3E1,1.1E1,1.4E1,8E0,9E0,5.3E1,2.5E1,8E0,9E0,5.8E1,3.8E1,4.2E1,1.8E1,1.6E1,1.5E1,3.1E1,7E1,1.5E1,4.8E1,8E1,4.1E1,3.6E2,2.1E1,9.6E1,3.1E2,2.21E2,9.3E1,1.08E2,3.052E3,2.1E1,4.4E1,4E1,8.1E1,7.3E1,2.72E2,1.8E1,4.3E1,4.8E1,1.5E1,2.4E1,2.9E1,1.6E1,9E0,1E1,4.8E1,3E1,8E0,3.2E1,1E1,8E0,1E1,8E0,8E0,8E0,2.3E1,4.1E1,2.9E1,1.4E1,3.4E1,6.2E1,1.8E1,3.2E1,9E0,3.34E2,2.6E1,1.3E1,8E0,2.1E1,7.5E1,2.66E2,4.4E1,1.96E2,2.5E1,1.9E1,7.4E1,8E0,1E2,5.96E2,2.456E3,1.1E1,1E1,2.2E1,2.2E1,9E0,3.1E1,6.2E1,1.9E1,6.2E1,1.1E1,6.7E1,2.05E2,1E1,8E0,2.5E1,1.8E1,2.8E1,2E1,1E1,1.4E1,1.4E1,1.5E1],"tree_param":{"num_deleted":"0","num_feature":"30","num_nodes":"177","size_leaf_vector":"1"}},{"base_weights":[3.1505188E-3,-1.6249995E-1,2.5923423E-2,4.0729724E-2,-1.7851822E-1,3.0580683E-2,-8.045831E-1,1.3689141E-1,-2.2136682E-1,1.5343237E-3,1.1834953E-1,-3.7977782E-1,-6.63846E-2,-4.325059E-1,2.9052153E-1,8.875282E-2,-2.7686387E-1,2.4292527E-2,-1.7603163E-1,2.0986456E-1,-8.160767E-2,-0E0,-3.0892227E-2,-2.949928E-2,-6.946368E-3,3.73181E-2,1.5084258E-1,9.2509615E-1,-1.2054377E-1,-3.6891386E-1,1.7300592E-3,1.1868372E-2,6.5695065E-1,2.9510704E-1,-2.4648105E-1,-9.966104E-2,2.71829E-1,-6.1433166E-1,-2.1986177E-2,3.8049497E-2,-4.3371305E-2,6.1267737E-2,2.0353517E-2,1.2895253E-1,-5.587793E-1,-2.2539166E-1,-6.4821655E-1,2.8297192E-1,-3.12919E-1,3.0502891E-2,-2.537147E-1,3.5191666E-2,9.7742784E-1,-1.931542E-2,6.9861287E-1,-2.9258692E-1,4.4059435E-1,3.2246098E-2,-1.5627746E-1,1.9891381E-1,6.303299E-1,-1.0098061E-1,-1.0867645E0,-1.1791012E-1,3.3441475E-1,-1.7183614E-1,1.4404206E-2,-2.3079287E-1,4.2365414E-1,-3.1913952E-3,-7.4035E-1,-2.8263918E-1,2.766691E-1,-8.0229795E-1,-3.7891486E-1,-3.1762043E-1,5.8226126E-1,-6.404501E-1,-1.056382E-1,-2.2207398E-2,1.1856704E-1,-5.3298795E-1,7.654049E-3,2.7999215E-2,-2.0270836E-2,6.2051464E-2,1.038166E-2,2.5500473E-2,-2.7817202E-1,4.62125E-2,2.1677086E-2,-6.2355723E-2,-2.552297E-1,4.804407E-2,-1.2840265E-2,-3.968739E-2,-4.0008333E-1,3.2211676E-1,-1.3224457E-1,1.2944967E0,4.5310548E-1,1.1799913E-2,-2.6737878E-2,-2.5943149E-2,-6.4665765E-2,4.1275623E-1,-2.078545E-1,8.253627E-1,-5.410693E-1,1.9340547E-2,-2.3438789E-2,-2.7583245E-2,5.6007813E-4,3.4735113E-2,2.2754702E-4,-4.587949E-2,-1.7978096E-2,1.7014507E-2,-3.1836876E-1,5.3120816E-1,-1.1450389E-2,-3.1019953E-1,-1.0533128E0,-2.604446E-3,-5.326347E-1,-2.2234768E-2,-0E0,-0E0,8.3718264E-1,-1.2951343E-2,-3.783574E-2,1.783965E-1,-4.8729944E-1,-3.7544575E-2,6.443998E-1,-3.5284007E-1,1.4083643E-1,7.295107E-2,-6.474388E-1,3.54248E-2,-1.08768836E-1,-2.605986E-2,5.231118E-4,-3.2280707E-1,3.2869318E-1,-1.3564287E-1,3.7515912E-2,-4.498568E-2,-1.9921952E-1,1.1755641E-1,7.403255E-1,-4.4364672E-2,-6.549492E-1,3.3038322E-2,7.76253E-2,7.8117466E-1,1.4894575E-1,-7.1587656E-3,4.155557E-2,-1.2593263E-1,-8.454784E-1,4.153145E-1,8.130527E-2,-4.8709378E-2,6.9730426E-3,-9.993925E-3,9.3240235E-3,-2.2698903E-2,-7.016669E-3,3.5847213E-2,8.092819E-3,-2.582666E-2,1.1322617E-2,-3.185424E-2,-6.4988725E-2,-3.7100833E-2,-2.931815E-3,5.3675607E-2,6.5341284E-3,1.8048067E-2,-0E0,-9.642483E-3,-3.1557653E-2,-2.1947874E-3,6.1018314E-2,4.2669598E-2,-0E0,-5.006312E-3,-2.8958987E-2,-8.2497625E-3,8.320125E-3,1.870492E-2,-1.12915635E-2,-2.2441626E-2,-4.181516E-2,-1.0432656E-2,3.3693954E-2,-2.3374893E-2,2.630012E-3,3.29498E-2,-2.8757382E-2,-4.177942E-2,-1.7484485E-3,2.8497363E-3,-1.4636026E-2,1.6238282E-2,-9.3870936E-4,7.573747E-2,2.6304282E-2,-7.951099E-3,1.3310912E-2,-1.5527167E-2,-4.0585484E-2,4.955997E-2,1.2432472E-2,1.3744345E-2,-1.7132308E-2,1.1533968E-2,-1.0359287E-2,-2.4550647E-2,-3.8583923E-4,6.777996E-3,-6.16616E-2,4.898965E-2,-2.4392216E-3],"categories":[],"categories_nodes":[],"categories_segments":[],"categories_sizes":[],"default_left":[0,0,0,0,0,0,0,0,0,0,0,0,0,0,0,0,0,0,0,0,0,0,0,0,0,0,0,0,0,0,0,0,0,0,0,0,0,0,0,0,0,0,0,0,0,0,0,0,0,0,0,0,0,0,0,0,0,0,0,0,0,0,0,0,0,0,0,0,0,0,0,0,0,0,0,0,0,0,0,0,0,0,0,0,0,0,0,0,0,0,0,0,0,0,0,0,0,0,0,0,0,0,0,0,0,0,0,0,0,0,0,0,0,0,0,0,0,0,0,0,0,0,0,0,0,0,0,0,0,0,0,0,0,0,0,0,0,0,0,0,0,0,0,0,0,0,0,0,0,0,0,0,0,0,0,0,0,0,0,0,0,0,0,0,0,0,0,0,0,0,0,0,0,0,0,0,0,0,0,0,0,0,0,0,0,0,0,0,0,0,0,0,0,0,0,0,0,0,0,0,0,0,0,0,0,0,0,0,0,0,0,0,0,0,0,0,0,0,0,0,0,0,0,0,0],"id":2,"left_children":[1,3,5,-1,7,9,11,13,15,17,19,21,-1,23,25,27,29,31,33,35,37,-1,-1,-1,-1,-1,39,41,43,45,47,49,51,53,55,57,59,61,63,-1,65,-1,-1,67,69,71,73,75,77,79,81,83,85,87,89,91,93,-1,95,97,99,101,103,105,107,109,-1,111,113,-1,115,117,119,121,123,125,127,129,131,133,135,137,139,-1,-1,-1,-1,-1,141,-1,-1,-1,143,-1,-1,145,147,149,151,153,155,-1,-1,-1,-1,157,159,161,163,165,-1,-1,-1,-1,-1,-1,-1,-1,167,169,-1,171,173,-1,175,-1,-1,-1,177,-1,-1,179,181,183,185,187,189,191,193,-1,195,-1,-1,197,199,201,-1,-1,203,205,207,209,211,-1,-1,213,215,217,-1,219,221,223,-1,-1,-1,-1,-1,-1,-1,-1,-1,-1,-1,-1,-1,-1,-1,-1,-1,-1,-1,-1,-1,-1,-1,-1,-1,-1,-1,-1,-1,-1,-1,-1,-1,-1,-1,-1,-1,-1,-1,-1,-1,-1,-1,-1,-1,-1,-1,-1,-1,-1,-1,-1,-1,-1,-1,-1,-1,-1,-1,-1,-1,-1,-1],"loss_changes":[2.1505186E1,1.132596E1,1.928814E1,0E0,9.260376E0,1.2704047E1,5.573206E0,7.3485847E0,1.04086895E1,1.51514225E1,2.2746256E1,1.805603E0,0E0,6.153209E-1,4.0930214E0,1.6446268E1,1.3156109E1,2.6026152E1,1.425223E1,1.6423824E1,1.2214951E1,0E0,0E0,0E0,0E0,0E0,6.9772043E0,1.9952126E0,8.402281E0,1.4928833E1,1.1460713E1,1.6146532E1,1.2424643E1,7.253526E0,1.1975895E1,6.3383493E0,1.8171307E1,8.947534E0,1.2083626E1,0E0,1.9605951E0,0E0,0E0,5.390932E0,2.214548E0,7.5221386E0,4.5368996E0,1.2755737E1,3.8402534E0,1.4220049E1,1.5729415E1,6.50908E0,9.3820915E0,4.9060116E0,5.292864E-1,1.2294773E1,1.0193084E1,0E0,3.7053714E0,2.4345072E1,1.2543156E1,3.6385982E0,1.1358356E0,1.3462869E1,3.301059E1,2.1213872E0,0E0,2.0547829E0,3.366712E0,0E0,6.4181805E-1,5.486309E0,3.8149705E0,8.967762E0,2.350183E0,1.0231504E0,7.119399E0,6.5641403E-1,4.5381184E0,1.9464705E1,1.2080942E1,7.41029E0,9.840112E0,0E0,0E0,0E0,0E0,0E0,1.9697319E0,0E0,0E0,0E0,1.3597061E1,0E0,0E0,7.4738855E0,4.0680704E0,3.6763916E1,7.224548E0,2.215458E0,9.243311E0,0E0,0E0,0E0,0E0,8.037962E0,1.2171248E1,1.5811604E1,9.605866E0,9.464572E-1,0E0,0E0,0E0,0E0,0E0,0E0,0E0,0E0,5.6773014E0,1.0592866E0,0E0,4.0573254E0,4.0755043E0,0E0,3.6178226E0,0E0,0E0,0E0,6.0304604E0,0E0,0E0,9.2704713E-1,4.5025826E-1,2.0545452E1,6.81283E0,2.9849792E0,1.1536682E1,1.9550041E0,2.5194283E0,0E0,8.902964E0,0E0,0E0,1.9402576E1,1.2800878E1,6.020503E0,0E0,0E0,1.0259367E0,9.051359E0,2.0683022E1,5.613791E0,7.088671E-1,0E0,0E0,5.347481E0,3.8910043E0,1.2773588E0,0E0,9.747996E0,1.2374786E1,1.050196E1,0E0,0E0,0E0,0E0,0E0,0E0,0E0,0E0,0E0,0E0,0E0,0E0,0E0,0E0,0E0,0E0,0E0,0E0,0E0,0E0,0E0,0E0,0E0,0E0,0E0,0E0,0E0,0E0,0E0,0E0,0E0,0E0,0E0,0E0,0E0,0E0,0E0,0E0,0E0,0E0,0E0,0E0,0E0,0E0,0E0,0E0,0E0,0E0,0E0,0E0,0E0,0E0,0E0,0E0,0E0,0E0,0E0,0E0,0E0,0E0,0E0,0E0,0E0],"parents":[2147483647,0,0,1,1,2,2,4,4,5,5,6,6,7,7,8,8,9,9,10,10,11,11,13,13,14,14,15,15,16,16,17,17,18,18,19,19,20,20,26,26,27,27,28,28,29,29,30,30,31,31,32,32,33,33,34,34,35,35,36,36,37,37,38,38,40,40,43,43,44,44,45,45,46,46,47,47,48,48,49,49,50,50,51,51,52,52,53,53,54,54,55,55,56,56,58,58,59,59,60,60,61,61,62,62,63,63,64,64,65,65,67,67,68,68,70,70,71,71,72,72,73,73,74,74,75,75,76,76,77,77,78,78,79,79,80,80,81,81,82,82,88,88,92,92,95,95,96,96,97,97,98,98,99,99,100,100,105,105,106,106,107,107,108,108,109,109,118,118,119,119,121,121,122,122,124,124,128,128,131,131,132,132,133,133,134,134,135,135,136,136,137,137,138,138,140,140,143,143,144,144,145,145,148,148,149,149,150,150,151,151,152,152,155,155,156,156,157,157,159,159,160,160,161,161],"right_children":[2,4,6,-1,8,10,12,14,16,18,20,22,-1,24,26,28,30,32,34,36,38,-1,-1,-1,-1,-1,40,42,44,46,48,50,52,54,56,58,60,62,64,-1,66,-1,-1,68,70,72,74,76,78,80,82,84,86,88,90,92,94,-1,96,98,100,102,104,106,108,110,-1,112,114,-1,116,118,120,122,124,126,128,130,132,134,136,138,140,-1,-1,-1,-1,-1,142,-1,-1,-1,144,-1,-1,146,148,150,152,154,156,-1,-1,-1,-1,158,160,162,164,166,-1,-1,-1,-1,-1,-1,-1,-1,168,170,-1,172,174,-1,176,-1,-1,-1,178,-1,-1,180,182,184,186,188,190,192,194,-1,196,-1,-1,198,200,202,-1,-1,204,206,208,210,212,-1,-1,214,216,218,-1,220,222,224,-1,-1,-1,-1,-1,-1,-1,-1,-1,-1,-1,-1,-1,-1,-1,-1,-1,-1,-1,-1,-1,-1,-1,-1,-1,-1,-1,-1,-1,-1,-1,-1,-1,-1,-1,-1,-1,-1,-1,-1,-1,-1,-1,-1,-1,-1,-1,-1,-1,-1,-1,-1,-1,-1,-1,-1,-1,-1,-1,-1,-1,-1,-1],"split_conditions":[-9.8942274E-1,-2.1612334E0,1.7639226E0,4.0729724E-2,-7.450376E-1,6.437432E-1,1.6036586E0,-5.3046596E-1,-5.9729475E-1,9.225251E-1,7.214229E-1,1.8092604E0,-6.63846E-2,-1.0925587E0,-4.8989588E-1,-9.5237E-1,8.271628E-1,1.7021006E0,-2.4213102E-1,-3.0020836E-1,-4.722284E-1,-0E0,-3.0892227E-2,-2.949928E-2,-6.946368E-3,3.73181E-2,-1.0770476E0,-7.2517323E-1,-1.3966222E-1,-1.4412478E-1,1.715252E0,1.2750719E0,1.4420965E0,1.2400102E-1,2.131672E0,-1.5359218E0,1.3858039E0,-7.324715E-1,1.5586444E0,3.8049497E-2,6.8729615E-1,6.1267737E-2,2.0353517E-2,-1.04311675E-1,-8.8126534E-1,-2.0274802E-1,-4.974914E-1,-8.0728E-1,4.2996266E-1,-1.4853525E-1,1.2721708E0,-6.912978E-1,-1.0120469E0,-4.2324564E-1,-1.4149366E-1,-1.2915373E0,6.436779E-1,3.2246098E-2,1.1587875E0,1.2151532E0,-1.2238288E0,9.731665E-1,1.2772781E0,-9.1714E-1,1.6554137E0,-1.2542555E-1,1.4404206E-2,-1.027353E0,8.3746195E-2,-3.1913952E-3,-1.8749073E-1,-1.2826684E0,-1.3111717E-1,-1.577077E0,-3.9401603E-1,9.9602693E-1,9.349897E-1,3.67013E-3,1.253482E0,1.7121986E0,-1.6485267E0,1.9704139E-1,-7.768015E-1,2.7999215E-2,-2.0270836E-2,6.2051464E-2,1.038166E-2,2.5500473E-2,3.9154705E-2,4.62125E-2,2.1677086E-2,-6.2355723E-2,1.2803576E0,4.804407E-2,-1.2840265E-2,6.276417E-1,1.6815472E0,3.5274792E-1,9.3657273E-1,1.2855083E0,9.881684E-1,1.1799913E-2,-2.6737878E-2,-2.5943149E-2,-6.4665765E-2,1.6753975E0,2.3563197E0,1.0791906E0,1.8087296E0,-6.614656E-1,-2.3438789E-2,-2.7583245E-2,5.6007813E-4,3.4735113E-2,2.2754702E-4,-4.587949E-2,-1.7978096E-2,1.7014507E-2,-7.6489605E-2,7.816854E-2,-1.1450389E-2,-1.3924863E0,1.4699956E0,-2.604446E-3,-4.781833E-3,-2.2234768E-2,-0E0,-0E0,1.615388E0,-1.2951343E-2,-3.783574E-2,3.5393533E-1,1.7294593E0,9.634965E-1,-6.667239E-1,-3.474613E-1,-1.2292365E0,4.7900304E-1,8.282503E-1,3.54248E-2,1.275956E0,-2.605986E-2,5.231118E-4,-1.2639733E-1,-1.0975075E0,-1.0957947E0,3.7515912E-2,-4.498568E-2,1.6904492E0,-8.2904506E-1,-9.3097544E-1,-1.3846979E0,1.2698072E0,3.3038322E-2,7.76253E-2,1.2423146E0,1.8090472E0,1.2317538E0,4.155557E-2,2.1878408E-1,1.7359138E0,1.4493059E0,8.130527E-2,-4.8709378E-2,6.9730426E-3,-9.993925E-3,9.3240235E-3,-2.2698903E-2,-7.016669E-3,3.5847213E-2,8.092819E-3,-2.582666E-2,1.1322617E-2,-3.185424E-2,-6.4988725E-2,-3.7100833E-2,-2.931815E-3,5.3675607E-2,6.5341284E-3,1.8048067E-2,-0E0,-9.642483E-3,-3.1557653E-2,-2.1947874E-3,6.1018314E-2,4.2669598E-2,-0E0,-5.006312E-3,-2.8958987E-2,-8.2497625E-3,8.320125E-3,1.870492E-2,-1.12915635E-2,-2.2441626E-2,-4.181516E-2,-1.0432656E-2,3.3693954E-2,-2.3374893E-2,2.630012E-3,3.29498E-2,-2.8757382E-2,-4.177942E-2,-1.7484485E-3,2.8497363E-3,-1.4636026E-2,1.6238282E-2,-9.3870936E-4,7.573747E-2,2.6304282E-2,-7.951099E-3,1.3310912E-2,-1.5527167E-2,-4.0585484E-2,4.955997E-2,1.2432472E-2,1.3744345E-2,-1.7132308E-2,1.1533968E-2,-1.0359287E-2,-2.4550647E-2,-3.8583923E-4,6.777996E-3,-6.16616E-2,4.898965E-2,-2.4392216E-3],"split_indices":[27,23,10,0,18,12,13,2,29,14,13,5,0,27,4,19,13,16,23,14,2,0,0,0,0,0,15,15,16,7,13,13,10,15,20,23,18,0,18,0,21,0,0,21,10,29,23,14,20,23,10,27,12,22,24,15,15,0,10,27,2,13,20,27,6,22,0,27,19,0,18,21,3,11,18,13,2,22,15,3,12,18,27,0,0,0,0,0,18,0,0,0,27,0,0,7,2,0,18,27,14,0,0,0,0,5,19,0,13,24,0,0,0,0,0,0,0,0,18,12,0,20,10,0,18,0,0,0,9,0,0,22,1,16,23,20,4,20,10,0,27,0,0,2,2,13,0,0,10,5,27,18,27,0,0,27,24,3,0,14,20,16,0,0,0,0,0,0,0,0,0,0,0,0,0,0,0,0,0,0,0,0,0,0,0,0,0,0,0,0,0,0,0,0,0,0,0,0,0,0,0,0,0,0,0,0,0,0,0,0,0,0,0,0,0,0,0,0,0,0,0,0,0,0,0],"split_type":[0,0,0,0,0,0,0,0,0,0,0,0,0,0,0,0,0,0,0,0,0,0,0,0,0,0,0,0,0,0,0,0,0,0,0,0,0,0,0,0,0,0,0,0,0,0,0,0,0,0,0,0,0,0,0,0,0,0,0,0,0,0,0,0,0,0,0,0,0,0,0,0,0,0,0,0,0,0,0,0,0,0,0,0,0,0,0,0,0,0,0,0,0,0,0,0,0,0,0,0,0,0,0,0,0,0,0,0,0,0,0,0,0,0,0,0,0,0,0,0,0,0,0,0,0,0,0,0,0,0,0,0,0,0,0,0,0,0,0,0,0,0,0,0,0,0,0,0,0,0,0,0,0,0,0,0,0,0,0,0,0,0,0,0,0,0,0,0,0,0,0,0,0,0,0,0,0,0,0,0,0,0,0,0,0,0,0,0,0,0,0,0,0,0,0,0,0,0,0,0,0,0,0,0,0,0,0,0,0,0,0,0,0,0,0,0,0,0,0,0,0,0,0,0,0],"sum_hessian":[5.705E3,6.87E2,5.018E3,9E0,6.78E2,4.992E3,2.6E1,8E1,5.98E2,3.754E3,1.238E3,1.7E1,9E0,1.6E1,6.4E1,9E1,5.08E2,3.33E3,4.24E2,8.5E2,3.88E2,8E0,9E0,8E0,8E0,1.2E1,5.2E1,1.7E1,7.3E1,3.82E2,1.26E2,3.268E3,6.2E1,5.4E1,3.7E2,1.41E2,7.09E2,3.7E1,3.51E2,1.1E1,4.1E1,8E0,9E0,4.7E1,2.6E1,2.55E2,1.27E2,6.7E1,5.9E1,3.056E3,2.12E2,2.2E1,4E1,3.1E1,2.3E1,3.48E2,2.2E1,8E0,1.33E2,5.92E2,1.17E2,1.9E1,1.8E1,2.78E2,7.3E1,3.1E1,1E1,2.1E1,2.6E1,8E0,1.8E1,2.3E2,2.5E1,7.8E1,4.9E1,2.2E1,4.5E1,2.1E1,3.8E1,1.911E3,1.145E3,1.02E2,1.1E2,1E1,1.2E1,2.7E1,1.3E1,9E0,2.2E1,8E0,1.5E1,1E1,3.38E2,1.2E1,1E1,9.2E1,4.1E1,4.32E2,1.6E2,2.2E1,9.5E1,1.1E1,8E0,8E0,1E1,3.9E1,2.39E2,4.7E1,2.6E1,2E1,1.1E1,8E0,1.3E1,1.4E1,1.2E1,9E0,9E0,1.1E1,2.19E2,1.7E1,8E0,2.8E1,5E1,1.7E1,3.2E1,1.4E1,8E0,1.4E1,3.1E1,8E0,1.3E1,2.2E1,1.6E1,1.87E3,4.1E1,5E1,1.095E3,1.6E1,8.6E1,1.4E1,9.6E1,1.1E1,1.1E1,3.04E2,3.4E1,8.4E1,8E0,9E0,3.2E1,2.92E2,1.4E2,1.39E2,2.1E1,1E1,1.2E1,4.4E1,5.1E1,2.1E1,1.8E1,2.14E2,2.5E1,3.4E1,1.3E1,1.5E1,1.1E1,8E0,1.2E1,1.12E2,1.07E2,9E0,8E0,2E1,8E0,2.5E1,2.5E1,2E1,1.2E1,2.1E1,1E1,1E1,1.2E1,8E0,8E0,1.86E3,1E1,2.9E1,1.2E1,2.7E1,2.3E1,1.04E2,9.91E2,8E0,8E0,5.2E1,3.4E1,8.6E1,1E1,2.11E2,9.3E1,2.5E1,9E0,8E0,7.6E1,9E0,2.3E1,1.11E2,1.81E2,2.3E1,1.17E2,1.02E2,3.7E1,1E1,1.1E1,2.8E1,1.6E1,4.1E1,1E1,9E0,1.2E1,4.8E1,1.66E2,8E0,1.7E1,1.4E1,2E1],"tree_param":{"num_deleted":"0","num_feature":"30","num_nodes":"225","size_leaf_vector":"1"}},{"base_weights":[3.2140848E-3,-1.6158095E-1,2.5607644E-2,3.790955E-2,-1.8245548E-1,3.922649E-2,-1.8579936E-1,-3.7585095E-1,-1.06322944E-1,1.3671453E-2,2.2860007E-1,-6.5613437E-1,2.5724801E-3,-3.083521E-1,-5.3364977E-2,9.387343E-2,-1.8908381E-1,5.3927246E-3,3.0868477E-1,2.6067275E-1,-6.223206E-1,-0E0,-7.4901134E-1,3.351898E-1,-2.4438289E-1,-2.2077547E-1,-5.8303636E-1,3.8036004E-1,-3.4177713E-2,-2.617678E-1,1.7740126E-1,1.6637398E-2,-2.2692867E-1,4.6926588E-1,-4.8523754E-1,1.7271876E-1,7.8297067E-1,-6.2158066E-3,-4.2718004E-2,-6.1764216E-1,-5.9824135E-2,-2.2605653E-1,5.92111E-1,5.1563805E-1,-4.0608427E-1,-9.831161E-2,-4.267513E-1,-6.130198E-3,-3.4193665E-2,3.8699277E-2,1.3047707E-1,1.3217886E-1,-4.0443334E-1,-7.440322E-2,-3.830056E-1,3.30055E-2,3.725792E-2,3.1422544E-2,-1.8005657E-1,-3.3513334E-1,4.673745E-1,6.1303794E-1,-2.144561E-2,-5.1916735E-3,-3.950208E-2,4.2994285E-1,5.1245186E-3,6.260239E-1,7.3897235E-2,2.6753894E-3,-7.320938E-1,-2.8911736E-2,9.961692E-2,9.287004E-1,1.4825702E-1,-1.5731195E-2,5.3771995E-2,2.4941703E-2,-5.602936E-1,-5.621826E-1,5.6968093E-2,-5.7587266E-1,-0E0,2.161742E-2,-5.2814577E-2,-3.355045E-1,3.2333866E-1,-3.301979E-2,2.09462E-3,2.0203402E-2,-1.4615557E-1,-5.86198E-1,-2.4803752E-1,1.8416996E-1,-1.5365136E-2,1.6219959E-1,1.9605102E-3,-3.9599183E-1,8.5937E-2,-6.5906066E-1,-4.571718E-2,4.1573204E-2,-1.0361041E-2,2.8822196E-1,7.9946303E-1,1.3094912E0,3.1364924E-1,2.4294552E-1,-3.234691E-1,8.222446E-1,2.414638E-2,-5.414606E-1,-5.2713826E-2,2.2236474E-2,-1.2509295E-2,2.7838969E-3,5.5358753E-2,-1.0196943E-2,2.531946E-2,3.136846E-2,-6.9320035E-1,-3.8526177E-2,-9.198449E-3,3.126151E-1,-1.002879E-1,-4.2719576E-3,-3.670016E-2,-1.1836773E-2,5.4862327E-3,-2.485387E-2,-4.6922066E-4,-5.1210937E-3,5.153612E-1,-2.685472E-1,1.9785865E-1,-3.2899216E-1,-7.467809E-1,-4.2710266E-1,1.3235489E-1,-0E0,2.91385E-2,1.9669242E-1,-5.533473E-1,2.3539051E-2,-1.7976722E-1,6.991054E-4,-5.17827E-1,3.7498584E-1,-1.1209654E-1,-2.5286716E-1,-1.0823116E0,2.8308937E-2,-1.62221E-1,3.506747E-2,3.6078352E-2,6.5460384E-1,5.5993862E-2,3.4847703E-2,7.4139856E-2,4.7730568E-1,-1.7155686E-1,-1.1900253E-1,4.3811774E-1,-5.902414E-1,2.309918E-3,5.322153E-1,1.1019462E0,1.9053645E-2,-1.770313E-2,-4.2506732E-2,-1.864009E-1,-1.2788203E0,-4.9476752E-1,2.6477307E-2,-5.605429E-3,-2.5160445E-2,6.313712E-3,4.1159842E-2,1.492409E-2,-2.1420993E-2,2.7697599E-3,1.5715422E-2,2.7671462E-4,-2.0946722E-2,-1.012423E-4,-1.342864E-2,-4.016749E-2,-8.950444E-3,-3.5887096E-2,1.962431E-2,-1.6680714E-2,9.487875E-3,-1.5611306E-2,6.4546904E-3,3.2948557E-2,-4.8773967E-2,-1.4280599E-2,2.041876E-4,1.5503686E-2,-5.9771055E-4,-2.0429268E-2,2.052267E-2,-1.888773E-2,-4.9812105E-3,-2.9153178E-2,3.804643E-2,6.381775E-3,5.917521E-3,-2.5916705E-2,-2.5799803E-2,8.438921E-3,-6.450478E-2,-9.111398E-3,-0E0,-3.1225264E-2,1.8862039E-2,-1.0273159E-2,8.2043875E-3,3.597065E-2,2.5849657E-2,-9.514056E-3,-1.8668054E-2,2.4984134E-2,-1.3510035E-2,1.5169607E-2,5.311813E-2,3.7821063E-3,-2.180908E-2,-5.6679774E-2,1.2151835E-2,-2.8521286E-2,-1.1146929E-3,3.811767E-2,6.83157E-2,3.4082945E-2,-2.9268673E-2,4.9423217E-3,-8.296009E-2,-3.271303E-2,-3.125774E-3,-4.035961E-2],"categories":[],"categories_nodes":[],"categories_segments":[],"categories_sizes":[],"default_left":[0,0,0,0,0,0,0,0,0,0,0,0,0,0,0,0,0,0,0,0,0,0,0,0,0,0,0,0,0,0,0,0,0,0,0,0,0,0,0,0,0,0,0,0,0,0,0,0,0,0,0,0,0,0,0,0,0,0,0,0,0,0,0,0,0,0,0,0,0,0,0,0,0,0,0,0,0,0,0,0,0,0,0,0,0,0,0,0,0,0,0,0,0,0,0,0,0,0,0,0,0,0,0,0,0,0,0,0,0,0,0,0,0,0,0,0,0,0,0,0,0,0,0,0,0,0,0,0,0,0,0,0,0,0,0,0,0,0,0,0,0,0,0,0,0,0,0,0,0,0,0,0,0,0,0,0,0,0,0,0,0,0,0,0,0,0,0,0,0,0,0,0,0,0,0,0,0,0,0,0,0,0,0,0,0,0,0,0,0,0,0,0,0,0,0,0,0,0,0,0,0,0,0,0,0,0,0,0,0,0,0,0,0,0,0,0,0,0,0,0,0,0,0,0,0,0,0,0,0,0,0,0,0,0,0,0,0,0,0,0,0],"id":3,"left_children":[1,3,5,-1,7,9,11,13,15,17,19,21,23,25,-1,27,29,31,33,35,37,-1,39,41,43,45,47,49,51,53,55,57,59,61,63,65,67,-1,-1,69,-1,71,73,75,77,79,81,-1,-1,-1,83,85,87,89,91,93,-1,95,97,99,101,103,-1,-1,-1,105,107,109,-1,-1,111,-1,113,115,117,-1,-1,-1,119,121,123,125,-1,-1,127,129,131,-1,-1,-1,133,135,137,139,-1,141,143,145,147,149,151,-1,-1,153,155,157,159,161,163,165,167,169,-1,-1,-1,-1,-1,-1,-1,-1,171,-1,-1,173,175,-1,-1,-1,-1,-1,-1,-1,177,179,181,183,185,187,189,191,-1,193,195,197,199,201,203,205,207,209,211,-1,213,-1,215,217,-1,-1,-1,219,221,223,225,227,229,231,233,-1,-1,-1,235,237,239,-1,-1,-1,-1,-1,-1,-1,-1,-1,-1,-1,-1,-1,-1,-1,-1,-1,-1,-1,-1,-1,-1,-1,-1,-1,-1,-1,-1,-1,-1,-1,-1,-1,-1,-1,-1,-1,-1,-1,-1,-1,-1,-1,-1,-1,-1,-1,-1,-1,-1,-1,-1,-1,-1,-1,-1,-1,-1,-1,-1,-1,-1,-1,-1,-1,-1,-1,-1],"loss_changes":[2.1192251E1,1.3820837E1,1.4559767E1,0E0,9.741976E0,2.2975348E1,2.7240753E1,8.516108E0,8.118344E0,1.0177222E1,1.5624348E1,5.286194E0,1.8221088E1,3.819584E0,0E0,5.3385267E0,9.313049E0,1.0631075E1,1.4911837E1,2.4618038E1,2.349042E0,0E0,3.2790947E0,1.39899E1,1.59332905E1,3.2587004E0,2.1139421E0,4.414361E0,6.302945E0,6.4301434E0,4.803323E0,1.1315393E1,1.43596115E1,1.3177359E1,2.1790867E0,2.0151814E1,7.1139946E0,0E0,0E0,5.219303E0,0E0,4.0246506E0,9.34314E0,1.2597141E1,1.5678322E1,6.565316E0,3.1334028E0,0E0,0E0,0E0,1.9500862E0,6.431324E0,4.288531E0,4.218075E0,4.3476753E0,2.6921494E0,0E0,1.3944548E1,1.574091E1,1.5144939E1,7.599675E0,4.419342E0,0E0,0E0,0E0,1.7804943E1,2.2534771E1,7.782732E0,0E0,0E0,2.5168953E0,0E0,2.6183846E0,6.9900303E0,4.527916E0,0E0,0E0,0E0,1.5673086E1,1.559412E0,2.828746E0,3.1334438E0,0E0,0E0,7.606514E-1,1.1253247E0,4.389209E0,0E0,0E0,0E0,4.481057E0,2.1207027E0,7.5771837E0,2.8038282E0,0E0,1.6548433E1,1.1599074E1,7.403446E0,7.1625376E0,1.2415161E1,6.68177E0,0E0,0E0,3.5822499E0,1.0172272E0,3.917961E-1,1.337977E1,1.2017552E1,1.06309595E1,2.7062035E0,3.0526593E0,4.5128365E0,0E0,0E0,0E0,0E0,0E0,0E0,0E0,0E0,8.209175E0,0E0,0E0,2.9995363E0,4.4564304E0,0E0,0E0,0E0,0E0,0E0,0E0,0E0,1.7723036E0,4.7059703E0,6.2263143E-1,9.6801615E-1,1.0742054E0,5.353714E0,5.0733466E0,1.855577E0,0E0,1.8976572E1,2.8239517E0,1.5311453E1,1.2909086E1,6.5664883E0,4.162672E0,4.7720747E0,7.7125964E0,5.411105E0,7.9996643E0,0E0,6.0132623E0,0E0,2.3371477E0,1.5523834E0,0E0,0E0,0E0,5.6708584E0,6.858091E0,4.4323673E0,2.6144117E1,3.9859314E0,8.630478E0,4.459755E0,7.29002E-1,0E0,0E0,0E0,3.0447156E0,2.7160873E0,9.594547E0,0E0,0E0,0E0,0E0,0E0,0E0,0E0,0E0,0E0,0E0,0E0,0E0,0E0,0E0,0E0,0E0,0E0,0E0,0E0,0E0,0E0,0E0,0E0,0E0,0E0,0E0,0E0,0E0,0E0,0E0,0E0,0E0,0E0,0E0,0E0,0E0,0E0,0E0,0E0,0E0,0E0,0E0,0E0,0E0,0E0,0E0,0E0,0E0,0E0,0E0,0E0,0E0,0E0,0E0,0E0,0E0,0E0,0E0,0E0,0E0,0E0,0E0,0E0,0E0,0E0,0E0,0E0,0E0],"parents":[2147483647,0,0,1,1,2,2,4,4,5,5,6,6,7,7,8,8,9,9,10,10,11,11,12,12,13,13,15,15,16,16,17,17,18,18,19,19,20,20,22,22,23,23,24,24,25,25,26,26,27,27,28,28,29,29,30,30,31,31,32,32,33,33,34,34,35,35,36,36,39,39,41,41,42,42,43,43,44,44,45,45,46,46,50,50,51,51,52,52,53,53,54,54,55,55,57,57,58,58,59,59,60,60,61,61,65,65,66,66,67,67,70,70,72,72,73,73,74,74,78,78,79,79,80,80,81,81,84,84,85,85,86,86,90,90,91,91,92,92,93,93,95,95,96,96,97,97,98,98,99,99,100,100,103,103,104,104,105,105,106,106,107,107,108,108,109,109,110,110,111,111,120,120,123,123,124,124,132,132,133,133,134,134,135,135,136,136,137,137,138,138,139,139,141,141,142,142,143,143,144,144,145,145,146,146,147,147,148,148,149,149,150,150,152,152,154,154,155,155,159,159,160,160,161,161,162,162,163,163,164,164,165,165,166,166,170,170,171,171,172,172],"right_children":[2,4,6,-1,8,10,12,14,16,18,20,22,24,26,-1,28,30,32,34,36,38,-1,40,42,44,46,48,50,52,54,56,58,60,62,64,66,68,-1,-1,70,-1,72,74,76,78,80,82,-1,-1,-1,84,86,88,90,92,94,-1,96,98,100,102,104,-1,-1,-1,106,108,110,-1,-1,112,-1,114,116,118,-1,-1,-1,120,122,124,126,-1,-1,128,130,132,-1,-1,-1,134,136,138,140,-1,142,144,146,148,150,152,-1,-1,154,156,158,160,162,164,166,168,170,-1,-1,-1,-1,-1,-1,-1,-1,172,-1,-1,174,176,-1,-1,-1,-1,-1,-1,-1,178,180,182,184,186,188,190,192,-1,194,196,198,200,202,204,206,208,210,212,-1,214,-1,216,218,-1,-1,-1,220,222,224,226,228,230,232,234,-1,-1,-1,236,238,240,-1,-1,-1,-1,-1,-1,-1,-1,-1,-1,-1,-1,-1,-1,-1,-1,-1,-1,-1,-1,-1,-1,-1,-1,-1,-1,-1,-1,-1,-1,-1,-1,-1,-1,-1,-1,-1,-1,-1,-1,-1,-1,-1,-1,-1,-1,-1,-1,-1,-1,-1,-1,-1,-1,-1,-1,-1,-1,-1,-1,-1,-1,-1,-1,-1,-1,-1,-1],"split_conditions":[-9.8942274E-1,-2.1612334E0,1.5732216E0,3.790955E-2,-7.191591E-1,1.0666596E0,1.3809993E0,1.6832554E0,-4.7419E-1,1.7306827E0,1.8209679E0,-1.3015957E0,1.6622924E0,-1.0209035E0,-5.3364977E-2,-4.3630603E-1,-9.8551303E-1,1.6275202E0,-3.2123062E-1,1.5268794E0,-9.695723E-1,-0E0,1.1931291E0,-2.471759E-1,-1.8812065E0,-8.9335656E-1,-9.612722E-1,-9.653522E-1,-1.0129349E0,-1.4086491E-1,6.9953537E-1,1.2758772E0,3.7544385E-1,1.7535073E0,-4.507527E-1,-5.8001643E-1,1.8231143E0,-6.2158066E-3,-4.2718004E-2,-1.8559967E-1,-5.9824135E-2,1.6267482E0,1.5918722E0,1.918556E0,-9.3109614E-1,-7.30219E-1,1.6729981E0,-6.130198E-3,-3.4193665E-2,3.8699277E-2,-9.064277E-1,-1.1407286E0,8.521179E-2,-1.0899069E0,2.4893393E-1,-2.548219E-1,3.725792E-2,-8.330794E-1,9.3215816E-2,1.2287025E0,1.4808588E0,1.7425084E0,-2.144561E-2,-5.1916735E-3,-3.950208E-2,-1.1423476E-1,8.048382E-1,1.7060561E0,7.3897235E-2,2.6753894E-3,1.5366986E0,-2.8911736E-2,2.1197271E0,1.3242295E0,1.273237E-1,-1.5731195E-2,5.3771995E-2,2.4941703E-2,-2.8994563E-1,-1.2988992E0,-1.0622616E0,-9.923786E-1,-0E0,2.161742E-2,-1.0610565E0,-5.355722E-1,-1.1270546E0,-3.301979E-2,2.09462E-3,2.0203402E-2,6.743083E-1,-4.620284E-2,-1.0399843E0,4.4688687E-1,-1.5365136E-2,1.2769277E0,8.614709E-1,-1.0121323E0,5.186543E-1,-1.1668684E0,1.6404994E0,4.1573204E-2,-1.0361041E-2,1.2246609E0,1.2901279E0,-7.9182553E-1,7.519347E-1,1.1823037E0,1.5269272E-1,1.339311E0,1.0719112E0,3.1701654E-1,-5.2713826E-2,2.2236474E-2,-1.2509295E-2,2.7838969E-3,5.5358753E-2,-1.0196943E-2,2.531946E-2,3.136846E-2,1.1751965E0,-3.8526177E-2,-9.198449E-3,1.3470863E0,-7.5675064E-1,-4.2719576E-3,-3.670016E-2,-1.1836773E-2,5.4862327E-3,-2.485387E-2,-4.6922066E-4,-5.1210937E-3,-7.63997E-1,-3.2200587E-1,-6.9251335E-1,4.6194276E-1,-1.9727106E-1,1.4410298E0,1.715252E0,1.9913811E-2,2.91385E-2,1.3802178E0,4.5153317E-1,8.401683E-1,2.5770473E-1,3.4114513E-1,-1.789824E-1,1.1289336E-2,3.4824786E-1,5.544997E-1,-3.957205E-1,2.8308937E-2,-1.639538E-1,3.506747E-2,-1.4954232E0,-8.2086647E-1,5.5993862E-2,3.4847703E-2,7.4139856E-2,1.7909787E0,1.3812141E0,1.0816443E0,1.3602031E0,2.0084884E0,1.9181249E0,-1.9789016E-1,1.3249573E0,1.9053645E-2,-1.770313E-2,-4.2506732E-2,3.9597002E-1,1.222185E0,1.1961458E0,2.6477307E-2,-5.605429E-3,-2.5160445E-2,6.313712E-3,4.1159842E-2,1.492409E-2,-2.1420993E-2,2.7697599E-3,1.5715422E-2,2.7671462E-4,-2.0946722E-2,-1.012423E-4,-1.342864E-2,-4.016749E-2,-8.950444E-3,-3.5887096E-2,1.962431E-2,-1.6680714E-2,9.487875E-3,-1.5611306E-2,6.4546904E-3,3.2948557E-2,-4.8773967E-2,-1.4280599E-2,2.041876E-4,1.5503686E-2,-5.9771055E-4,-2.0429268E-2,2.052267E-2,-1.888773E-2,-4.9812105E-3,-2.9153178E-2,3.804643E-2,6.381775E-3,5.917521E-3,-2.5916705E-2,-2.5799803E-2,8.438921E-3,-6.450478E-2,-9.111398E-3,-0E0,-3.1225264E-2,1.8862039E-2,-1.0273159E-2,8.2043875E-3,3.597065E-2,2.5849657E-2,-9.514056E-3,-1.8668054E-2,2.4984134E-2,-1.3510035E-2,1.5169607E-2,5.311813E-2,3.7821063E-3,-2.180908E-2,-5.6679774E-2,1.2151835E-2,-2.8521286E-2,-1.1146929E-3,3.811767E-2,6.83157E-2,3.4082945E-2,-2.9268673E-2,4.9423217E-3,-8.296009E-2,-3.271303E-2,-3.125774E-3,-4.035961E-2],"split_indices":[27,23,11,0,16,15,2,10,19,2,4,17,10,26,0,1,26,3,13,18,13,0,26,17,12,20,15,21,25,11,10,26,11,10,20,25,15,0,0,10,0,6,15,11,25,28,10,0,0,0,19,26,20,14,13,1,0,17,13,25,13,2,0,0,0,14,20,17,0,0,12,0,11,10,28,0,0,0,19,11,13,13,0,0,25,20,24,0,0,0,17,14,27,21,0,27,19,24,13,20,1,0,0,27,26,25,13,10,28,20,28,14,0,0,0,0,0,0,0,0,15,0,0,3,11,0,0,0,0,0,0,0,15,11,18,15,13,2,13,21,0,5,3,11,13,3,5,21,17,28,14,0,22,0,17,23,0,0,0,23,4,14,3,15,19,4,14,0,0,0,3,26,26,0,0,0,0,0,0,0,0,0,0,0,0,0,0,0,0,0,0,0,0,0,0,0,0,0,0,0,0,0,0,0,0,0,0,0,0,0,0,0,0,0,0,0,0,0,0,0,0,0,0,0,0,0,0,0,0,0,0,0,0,0,0,0,0,0,0,0,0],"split_type":[0,0,0,0,0,0,0,0,0,0,0,0,0,0,0,0,0,0,0,0,0,0,0,0,0,0,0,0,0,0,0,0,0,0,0,0,0,0,0,0,0,0,0,0,0,0,0,0,0,0,0,0,0,0,0,0,0,0,0,0,0,0,0,0,0,0,0,0,0,0,0,0,0,0,0,0,0,0,0,0,0,0,0,0,0,0,0,0,0,0,0,0,0,0,0,0,0,0,0,0,0,0,0,0,0,0,0,0,0,0,0,0,0,0,0,0,0,0,0,0,0,0,0,0,0,0,0,0,0,0,0,0,0,0,0,0,0,0,0,0,0,0,0,0,0,0,0,0,0,0,0,0,0,0,0,0,0,0,0,0,0,0,0,0,0,0,0,0,0,0,0,0,0,0,0,0,0,0,0,0,0,0,0,0,0,0,0,0,0,0,0,0,0,0,0,0,0,0,0,0,0,0,0,0,0,0,0,0,0,0,0,0,0,0,0,0,0,0,0,0,0,0,0,0,0,0,0,0,0,0,0,0,0,0,0,0,0,0,0,0,0],"sum_hessian":[5.747E3,6.85E2,5.062E3,1.3E1,6.72E2,4.758E3,3.04E2,1.87E2,4.85E2,4.195E3,5.63E2,8.6E1,2.18E2,1.74E2,1.3E1,1.41E2,3.44E2,4.083E3,1.12E2,5.44E2,1.9E1,1.1E1,7.5E1,9.3E1,1.25E2,1.35E2,3.9E1,4.3E1,9.8E1,2.88E2,5.6E1,3.897E3,1.86E2,9.4E1,1.8E1,4.68E2,7.6E1,8E0,1.1E1,6.3E1,1.2E1,2.9E1,6.4E1,2.1E1,1.04E2,8.7E1,4.8E1,1E1,2.9E1,1.4E1,2.9E1,6.8E1,3E1,1.15E2,1.73E2,4.7E1,9E0,3.627E3,2.7E2,1.62E2,2.4E1,8.2E1,1.2E1,1E1,8E0,1.83E2,2.85E2,6.6E1,1E1,9E0,5.4E1,1.3E1,1.6E1,3.5E1,2.9E1,9E0,1.2E1,1.4E1,9E1,2.1E1,6.6E1,3.5E1,1.3E1,1E1,1.9E1,1.9E1,4.9E1,1.8E1,1.2E1,1.3E1,1.02E2,6.6E1,1.07E2,3.4E1,1.3E1,6.64E2,2.963E3,1.49E2,1.21E2,7.5E1,8.7E1,1.5E1,9E0,3.2E1,5E1,1.9E1,1.64E2,1.66E2,1.19E2,4.9E1,1.7E1,3.9E1,1.5E1,8E0,8E0,8E0,2.7E1,1.5E1,1.4E1,8E0,8.2E1,1.1E1,1E1,2.5E1,4.1E1,1.1E1,2.4E1,9E0,1E1,1.1E1,8E0,1.5E1,3.4E1,7.6E1,2.6E1,2.8E1,3.8E1,7.3E1,3.4E1,2.5E1,9E0,6.35E2,2.9E1,2.651E3,3.12E2,3.5E1,1.14E2,4.9E1,7.2E1,4E1,3.5E1,1.2E1,7.5E1,1E1,2.2E1,4E1,1E1,8E0,1.1E1,1.23E2,4.1E1,5.8E1,1.08E2,6.5E1,5.4E1,2.7E1,2.2E1,9E0,8E0,1.8E1,2.1E1,1.8E1,6.4E1,1.6E1,9E0,1.4E1,2.7E1,1E1,2.4E1,4.9E1,2.7E1,1.4E1,1.2E1,2E1,8E0,8E0,3E1,4.4E1,2.9E1,2.2E1,1.2E1,1.6E1,9E0,5.67E2,6.8E1,8E0,2.1E1,2.494E3,1.57E2,1.88E2,1.24E2,1.7E1,1.8E1,2.2E1,9.2E1,1.6E1,3.3E1,4.7E1,2.5E1,2.4E1,1.6E1,2.6E1,9E0,5.8E1,1.7E1,9E0,1.3E1,8E0,3.2E1,1.13E2,1E1,3.2E1,9E0,4.3E1,1.5E1,3.6E1,7.2E1,5.6E1,9E0,3.9E1,1.5E1,9E0,1.8E1,9E0,1.3E1,8E0,1.3E1,8E0,1E1,3E1,3.4E1],"tree_param":{"num_deleted":"0","num_feature":"30","num_nodes":"241","size_leaf_vector":"1"}},{"base_weights":[1.2596613E-2,-1.1841651E-1,3.1071108E-2,3.643842E-1,-1.8086365E-1,9.209502E-3,1.7018591E-1,1.1809369E0,-1.552036E-1,4.2267546E-2,-2.0468855E-1,-1.6287073E-3,2.4528319E-1,8.977143E-1,1.1431718E-1,6.45223E-2,2.5248487E-2,6.1180595E-2,-4.1470584E-1,-1.8541002E-1,-4.087491E-2,1.2875955E-2,-3.8933414E-1,1.803085E-1,5.660587E-2,1.2405643E0,3.348825E-1,2.4524537E-1,-1.3731824E-1,1.9546418E-2,-1.04130125E-2,-4.1829394E-3,-3.1822335E-2,-2.0977163E-1,2.0140675E-1,5.51896E-3,4.5485458E-1,-4.8843873E-1,2.3541316E-2,3.249144E-1,-4.8331898E-1,3.08248E-2,7.086289E-2,-2.155284E-3,3.785653E-2,2.8300303E-1,-4.1996178E-1,-6.1726406E-2,-4.860677E-2,-2.9003558E-1,-8.723256E-2,4.0876843E-2,2.8532749E-2,2.09494E-2,-3.2855752E-1,3.8587917E-2,9.6520936E-1,-3.8415912E-1,-5.031547E-2,1.6021523E-1,7.830543E-1,5.745445E-3,-4.8559107E-2,6.2201035E-1,1.9957669E-1,-5.257207E-2,2.3847243E-2,-2.2851288E-1,5.8129287E-1,-2.2247171E-1,-6.7888033E-1,2.3990604E-1,-1.607777E-1,1.4420041E-2,-1.00352E-2,2.0688775E-3,1.7751063E-1,3.4900144E-1,-4.768458E-1,2.0598942E-1,-1.8808229E-2,6.258E-2,2.7002588E-2,-5.620182E-1,6.270635E-2,-1.3285442E-1,4.4708866E-1,4.9420364E-2,1.4521133E-3,7.5561816E-1,-6.9374806E-4,2.3464426E-2,4.567048E-1,3.1966284E-2,-5.1336974E-1,1.0317007E0,2.6768835E-2,-2.5545022E-1,1.7613098E-2,-3.400798E-1,-9.260385E-1,4.5277804E-1,-9.001402E-3,-3.7047297E-1,6.10592E-2,1.340711E-2,-2.9216895E-1,6.441585E-2,1.3478757E-1,5.98634E-1,-6.997673E-3,-9.34865E-1,-2.671619E-1,-0E0,2.6406934E-2,-6.5672994E-1,-1.8028069E-1,5.139019E-1,-2.2090066E-2,7.148987E-2,-4.500253E-2,-2.0425199E-3,6.2578124E-1,8.84721E-1,4.756173E-3,-6.15098E-1,9.275159E-2,1.0762048E-1,6.847139E-1,-2.5056687E-1,2.7065507E-1,-1.4468133E-1,-7.4733734E-1,1.7407242E-2,8.082414E-2,-2.8503653E-2,2.47262E-2,1.4904141E-2,-1.4220824E-2,-2.9298421E-2,6.7067337E-3,-5.567478E-2,-2.7471505E-2,3.3368694E-3,2.7860684E-2,1.6619073E-2,-2.1669839E-2,2.3297187E-2,-6.5181525E-3,1.2294193E-4,1.539118E-2,3.6173023E-3,-1.903054E-2,3.300486E-2,4.2733196E-3,8.733573E-3,4.0504195E-2,-1.2991757E-2,-5.4229837E-2,-2.777905E-2,-4.8935665E-3,7.6025547E-3,-9.3346E-3,-3.5590533E-2,-0E0,1.7385586E-3,-1.8510647E-2,2.996163E-3,3.7803683E-2,-1.0707421E-2,1.6067084E-2,5.272943E-3,3.8824786E-2,4.727735E-2,1.6688608E-2,-4.8589096E-3,-4.575741E-2,4.4969305E-2,-6.782741E-5,2.7655687E-2,-1.1666908E-2,4.804742E-2,1.3894984E-2,6.544424E-4,-4.2931575E-2,2.2025982E-2,-1.7305326E-2,-2.7950697E-2,4.0548863E-3,-4.1415792E-2,-5.390642E-3],"categories":[],"categories_nodes":[],"categories_segments":[],"categories_sizes":[],"default_left":[0,0,0,0,0,0,0,0,0,0,0,0,0,0,0,0,0,0,0,0,0,0,0,0,0,0,0,0,0,0,0,0,0,0,0,0,0,0,0,0,0,0,0,0,0,0,0,0,0,0,0,0,0,0,0,0,0,0,0,0,0,0,0,0,0,0,0,0,0,0,0,0,0,0,0,0,0,0,0,0,0,0,0,0,0,0,0,0,0,0,0,0,0,0,0,0,0,0,0,0,0,0,0,0,0,0,0,0,0,0,0,0,0,0,0,0,0,0,0,0,0,0,0,0,0,0,0,0,0,0,0,0,0,0,0,0,0,0,0,0,0,0,0,0,0,0,0,0,0,0,0,0,0,0,0,0,0,0,0,0,0,0,0,0,0,0,0,0,0,0,0,0,0,0,0,0,0,0,0,0,0,0,0,0,0,0,0,0,0,0,0],"id":4,"left_children":[1,3,5,7,9,11,13,15,17,-1,19,21,23,25,27,-1,-1,29,31,33,-1,35,37,39,-1,41,43,45,47,-1,-1,-1,-1,49,51,53,55,57,-1,59,61,-1,-1,-1,-1,63,65,67,-1,69,71,73,-1,75,77,79,81,83,-1,85,87,-1,-1,89,91,-1,-1,93,95,97,99,101,103,-1,-1,105,107,109,111,113,-1,-1,-1,115,117,119,121,-1,-1,123,-1,125,127,129,131,133,135,137,-1,139,141,143,-1,145,147,149,151,-1,153,155,-1,157,159,161,-1,163,165,167,-1,169,-1,-1,171,173,-1,175,177,179,181,183,185,187,189,-1,-1,-1,-1,-1,-1,-1,-1,-1,-1,-1,-1,-1,-1,-1,-1,-1,-1,-1,-1,-1,-1,-1,-1,-1,-1,-1,-1,-1,-1,-1,-1,-1,-1,-1,-1,-1,-1,-1,-1,-1,-1,-1,-1,-1,-1,-1,-1,-1,-1,-1,-1,-1,-1,-1,-1,-1,-1],"loss_changes":[1.3792659E1,2.1296356E1,1.5169157E1,3.4834183E1,1.6040699E1,1.1122882E1,2.7140863E1,1.8303375E0,2.9761047E0,0E0,7.177639E0,2.3356012E1,1.0966852E1,8.127766E0,2.0899471E1,0E0,0E0,3.0011613E0,1.6864448E0,5.710867E0,0E0,1.2863331E1,1.3528151E1,1.7595911E1,0E0,1.9789581E0,3.8476295E0,1.06510315E1,1.4076941E1,0E0,0E0,0E0,0E0,5.4160137E0,2.0901024E0,2.0181257E1,1.3474989E1,6.958008E0,0E0,1.0868227E1,1.0978653E1,0E0,0E0,0E0,0E0,1.0788853E1,1.5385759E1,2.1801323E1,0E0,8.429781E0,5.5080557E0,1.9554377E0,0E0,1.1058458E1,1.768782E1,2.8394322E0,2.2287903E0,9.536106E0,0E0,9.659153E0,7.058693E0,0E0,0E0,6.7152042E0,1.4400701E1,0E0,0E0,1.2141222E1,1.0153513E1,5.833555E0,3.240038E0,4.0228376E0,8.798508E0,0E0,0E0,1.1133809E1,1.950166E1,4.190382E0,1.2999008E1,2.078155E0,0E0,0E0,0E0,2.6675377E0,8.6831875E0,9.708464E0,5.2362776E0,0E0,0E0,5.0262947E0,0E0,8.516163E0,1.0022663E1,5.9116325E0,6.318512E0,8.485231E0,6.90287E0,6.837187E0,0E0,3.3854504E0,6.6482353E-1,1.2218595E0,0E0,6.098645E0,7.936334E0,1.07400055E1,4.9684315E0,0E0,9.565487E0,1.7536402E0,0E0,4.9591293E0,4.962208E0,6.729862E-1,0E0,3.8466797E0,9.9247766E-1,2.2009392E0,0E0,3.8261433E0,0E0,0E0,3.7624874E0,2.0567322E0,0E0,2.8992963E0,1.4264469E1,9.253489E0,9.031727E0,7.037389E0,6.086795E0,3.5174038E0,3.1664066E0,0E0,0E0,0E0,0E0,0E0,0E0,0E0,0E0,0E0,0E0,0E0,0E0,0E0,0E0,0E0,0E0,0E0,0E0,0E0,0E0,0E0,0E0,0E0,0E0,0E0,0E0,0E0,0E0,0E0,0E0,0E0,0E0,0E0,0E0,0E0,0E0,0E0,0E0,0E0,0E0,0E0,0E0,0E0,0E0,0E0,0E0,0E0,0E0,0E0,0E0,0E0,0E0,0E0,0E0,0E0,0E0,0E0,0E0],"parents":[2147483647,0,0,1,1,2,2,3,3,4,4,5,5,6,6,7,7,8,8,10,10,11,11,12,12,13,13,14,14,17,17,18,18,19,19,21,21,22,22,23,23,25,25,26,26,27,27,28,28,33,33,34,34,35,35,36,36,37,37,39,39,40,40,45,45,46,46,47,47,49,49,50,50,51,51,53,53,54,54,55,55,56,56,57,57,59,59,60,60,63,63,64,64,67,67,68,68,69,69,70,70,71,71,72,72,75,75,76,76,77,77,78,78,79,79,83,83,84,84,85,85,86,86,89,89,91,91,92,92,93,93,94,94,95,95,96,96,97,97,99,99,100,100,101,101,103,103,104,104,105,105,106,106,108,108,109,109,111,111,112,112,113,113,115,115,116,116,117,117,119,119,122,122,123,123,125,125,126,126,127,127,128,128,129,129,130,130,131,131,132,132],"right_children":[2,4,6,8,10,12,14,16,18,-1,20,22,24,26,28,-1,-1,30,32,34,-1,36,38,40,-1,42,44,46,48,-1,-1,-1,-1,50,52,54,56,58,-1,60,62,-1,-1,-1,-1,64,66,68,-1,70,72,74,-1,76,78,80,82,84,-1,86,88,-1,-1,90,92,-1,-1,94,96,98,100,102,104,-1,-1,106,108,110,112,114,-1,-1,-1,116,118,120,122,-1,-1,124,-1,126,128,130,132,134,136,138,-1,140,142,144,-1,146,148,150,152,-1,154,156,-1,158,160,162,-1,164,166,168,-1,170,-1,-1,172,174,-1,176,178,180,182,184,186,188,190,-1,-1,-1,-1,-1,-1,-1,-1,-1,-1,-1,-1,-1,-1,-1,-1,-1,-1,-1,-1,-1,-1,-1,-1,-1,-1,-1,-1,-1,-1,-1,-1,-1,-1,-1,-1,-1,-1,-1,-1,-1,-1,-1,-1,-1,-1,-1,-1,-1,-1,-1,-1,-1,-1,-1,-1,-1,-1],"split_conditions":[-9.8942274E-1,-6.4361686E-1,1.1249486E0,-5.918022E-1,-2.1612334E0,1.7063363E0,-9.3097544E-1,-5.6355286E-1,-1.01854295E-1,4.2267546E-2,1.7478596E0,1.6344807E0,1.2904658E0,4.9307376E-1,7.6815504E-1,6.45223E-2,2.5248487E-2,4.813733E-1,-2.6356846E-1,1.0342666E0,-4.087491E-2,1.6382105E0,1.2546467E0,1.9825906E0,5.660587E-2,6.0100657E-1,1.6993933E0,1.8865829E0,1.7987863E0,1.9546418E-2,-1.04130125E-2,-4.1829394E-3,-3.1822335E-2,-1.193131E-1,-9.9323964E-1,1.3331792E0,-1.231216E0,5.036247E-1,2.3541316E-2,1.644793E0,-6.106526E-1,3.08248E-2,7.086289E-2,-2.155284E-3,3.785653E-2,-7.0875764E-1,1.6447982E0,1.6102779E0,-4.860677E-2,1.4446714E0,-3.5716134E-1,-4.1783604E-1,2.8532749E-2,7.332875E-1,-8.2585263E-1,-7.677597E-2,-7.255795E-1,1.2472414E0,-5.031547E-2,-4.596786E-1,1.7398198E0,5.745445E-3,-4.8559107E-2,3.0158973E-1,-4.550362E-2,-5.257207E-2,2.3847243E-2,1.357617E0,1.1990175E0,1.3915688E0,-1.1005322E0,-2.2958722E-2,-1.14385776E-1,1.4420041E-2,-1.00352E-2,1.3602031E0,-1.4345052E0,5.9623754E-1,5.33701E-1,7.6815504E-1,-1.8808229E-2,6.258E-2,2.7002588E-2,1.4149493E0,-1.448143E0,1.0983067E-1,1.7155086E0,4.9420364E-2,1.4521133E-3,1.2531404E0,-6.9374806E-4,-2.2958722E-2,4.9945183E-2,1.3802178E0,1.5366986E0,7.947749E-1,1.0199367E0,-1.3651383E0,1.7613098E-2,-1.1089336E0,1.6603675E0,-5.262594E-1,-9.001402E-3,-1.9244504E0,1.6275202E0,1.1653708E0,-1.569413E0,6.441585E-2,-1.2775232E0,7.5251025E-1,-6.997673E-3,-1.178114E0,-8.633755E-1,-1.2367879E0,2.6406934E-2,-5.1331663E-1,-1.9120101E0,-2.0481281E0,-2.2090066E-2,1.7081553E0,-4.500253E-2,-2.0425199E-3,-8.5426533E-1,-8.117973E-1,4.756173E-3,-8.5635877E-1,-8.9153165E-1,-8.414404E-1,9.709987E-1,1.2833507E0,1.6549662E0,1.333956E0,2.0556102E0,1.7407242E-2,8.082414E-2,-2.8503653E-2,2.47262E-2,1.4904141E-2,-1.4220824E-2,-2.9298421E-2,6.7067337E-3,-5.567478E-2,-2.7471505E-2,3.3368694E-3,2.7860684E-2,1.6619073E-2,-2.1669839E-2,2.3297187E-2,-6.5181525E-3,1.2294193E-4,1.539118E-2,3.6173023E-3,-1.903054E-2,3.300486E-2,4.2733196E-3,8.733573E-3,4.0504195E-2,-1.2991757E-2,-5.4229837E-2,-2.777905E-2,-4.8935665E-3,7.6025547E-3,-9.3346E-3,-3.5590533E-2,-0E0,1.7385586E-3,-1.8510647E-2,2.996163E-3,3.7803683E-2,-1.0707421E-2,1.6067084E-2,5.272943E-3,3.8824786E-2,4.727735E-2,1.6688608E-2,-4.8589096E-3,-4.575741E-2,4.4969305E-2,-6.782741E-5,2.7655687E-2,-1.1666908E-2,4.804742E-2,1.3894984E-2,6.544424E-4,-4.2931575E-2,2.2025982E-2,-1.7305326E-2,-2.7950697E-2,4.0548863E-3,-4.1415792E-2,-5.390642E-3],"split_indices":[27,1,12,23,23,7,27,14,11,0,6,3,26,13,13,0,0,14,21,21,0,2,20,0,0,0,1,14,1,0,0,0,0,18,26,13,18,20,0,13,20,0,0,0,0,23,20,18,0,5,29,28,0,16,27,21,26,26,0,21,2,0,0,16,13,0,0,23,26,9,27,15,9,0,0,3,12,19,2,13,0,0,0,18,15,23,6,0,0,17,0,15,0,5,12,0,14,21,0,26,7,0,0,14,3,0,12,0,6,22,0,17,15,15,0,15,12,12,0,3,0,0,14,23,0,28,26,0,14,5,3,11,13,0,0,0,0,0,0,0,0,0,0,0,0,0,0,0,0,0,0,0,0,0,0,0,0,0,0,0,0,0,0,0,0,0,0,0,0,0,0,0,0,0,0,0,0,0,0,0,0,0,0,0,0,0,0,0,0,0,0],"split_type":[0,0,0,0,0,0,0,0,0,0,0,0,0,0,0,0,0,0,0,0,0,0,0,0,0,0,0,0,0,0,0,0,0,0,0,0,0,0,0,0,0,0,0,0,0,0,0,0,0,0,0,0,0,0,0,0,0,0,0,0,0,0,0,0,0,0,0,0,0,0,0,0,0,0,0,0,0,0,0,0,0,0,0,0,0,0,0,0,0,0,0,0,0,0,0,0,0,0,0,0,0,0,0,0,0,0,0,0,0,0,0,0,0,0,0,0,0,0,0,0,0,0,0,0,0,0,0,0,0,0,0,0,0,0,0,0,0,0,0,0,0,0,0,0,0,0,0,0,0,0,0,0,0,0,0,0,0,0,0,0,0,0,0,0,0,0,0,0,0,0,0,0,0,0,0,0,0,0,0,0,0,0,0,0,0,0,0,0,0,0,0],"sum_hessian":[5.702E3,7.02E2,5E3,7.9E1,6.23E2,4.324E3,6.76E2,3E1,4.9E1,1.2E1,6.11E2,4.135E3,1.89E2,4.6E1,6.3E2,2.2E1,8E0,2.7E1,2.2E1,5.96E2,1.5E1,3.987E3,1.48E2,1.79E2,1E1,2.7E1,1.9E1,4.15E2,2.15E2,1.2E1,1.5E1,1.1E1,1.1E1,5.62E2,3.4E1,3.924E3,6.3E1,1.34E2,1.4E1,1.48E2,3.1E1,1E1,1.7E1,1.1E1,8E0,3.94E2,2.1E1,2E2,1.5E1,3.37E2,2.25E2,2.6E1,8E0,3.753E3,1.71E2,3.6E1,2.7E1,1.16E2,1.8E1,1.11E2,3.7E1,1.5E1,1.6E1,7.5E1,3.19E2,1.2E1,9E0,1.6E2,4E1,2.9E2,4.7E1,4E1,1.85E2,1.3E1,1.3E1,3.352E3,4.01E2,3E1,1.41E2,2.7E1,9E0,1.2E1,1.5E1,8.3E1,3.3E1,5.5E1,5.6E1,2.7E1,1E1,6.2E1,1.3E1,1.91E2,1.28E2,8.4E1,7.6E1,2.1E1,1.9E1,2.76E2,1.4E1,2.2E1,2.5E1,2.7E1,1.3E1,9.5E1,9E1,3.23E3,1.22E2,1.2E1,3.89E2,2E1,1E1,4.2E1,9.9E1,1.8E1,9E0,6.5E1,1.8E1,1.8E1,1.5E1,4.5E1,1E1,1.5E1,4.1E1,5.1E1,1.1E1,1.7E1,1.74E2,5.2E1,7.6E1,3.8E1,4.6E1,3.1E1,4.5E1,1.2E1,9E0,8E0,1.1E1,1.8E1,2.58E2,1.4E1,8E0,1.2E1,1.3E1,8E0,1.9E1,9E0,8.6E1,2.8E1,6.2E1,3.123E3,1.07E2,2.7E1,9.5E1,2.7E1,3.62E2,9E0,1.1E1,1.1E1,3.1E1,3.2E1,6.7E1,1E1,8E0,5.7E1,8E0,9E0,9E0,8E0,1E1,2.1E1,2.4E1,1.2E1,2.9E1,4.1E1,1E1,8E0,9E0,1.6E1,1.58E2,2.2E1,3E1,4E1,3.6E1,2.8E1,1E1,3.6E1,1E1,1E1,2.1E1,3.7E1,8E0],"tree_param":{"num_deleted":"0","num_feature":"30","num_nodes":"191","size_leaf_vector":"1"}},{"base_weights":[-9.771586E-3,-3.0895324E-2,1.3696174E-1,4.708097E-2,-6.161156E-2,2.7363762E-1,-1.5386374E-1,8.8157445E-2,-2.7586576E-1,-7.2159626E-2,3.6207455E-1,-2.2548135E-1,3.030317E-1,1.2213568E-1,-4.7033313E-1,2.9913196E-1,5.961632E-2,-2.4045914E-2,-6.099799E-1,-4.0765032E-1,-6.0263872E-2,5.975356E-1,-3.199703E-2,1.092512E-3,-2.057623E-2,5.7394856E-1,1.9458373E-1,-5.8631726E-2,1.0885218E0,-0E0,-7.388267E-1,-3.3659548E-2,7.298027E-1,-6.370399E-1,7.8316525E-2,-1.8059096E-1,5.229244E-1,-2.6027905E-2,-1.0946931E0,3.240843E-2,-7.42839E-1,-3.6855352E-1,-4.8152834E-2,-5.5283704E-4,6.7772985E-1,8.9063805E-1,2.528224E-1,2.7103105E-1,-1.7506914E-1,-2.9877225E-1,2.3935573E-1,1.6952889E-2,8.357059E-2,2.1634838E-2,-2.3654178E-1,-9.0769285E-1,5.2635567E-3,-2.682714E-1,4.3163663E-1,1.1379235E0,3.128921E-1,-2.3777416E-1,-5.1850684E-2,-2.537042E-2,1.6702108E-1,-3.626326E-1,2.1995436E-1,-4.100567E-3,5.3575598E-2,1.5428632E-1,-2.3900434E-2,-1.1840813E-2,-6.240819E-2,-2.1133932E-1,3.0637326E-2,-8.8829595E-1,-4.7291536E-3,4.858888E-2,-4.7922584E-1,-3.482088E-2,-3.2650176E-1,7.72157E-1,3.113201E-3,1.1522592E0,3.4366235E-1,4.7267705E-2,4.154228E-2,1.998565E-1,5.776969E-1,-3.7121934E-1,1.577109E-2,-5.7693064E-2,-4.057154E-2,5.075218E-1,-2.1105832E-1,-3.5722964E-2,1.13804646E-1,-1.2304409E0,-4.7196364E-1,-1.0594575E-1,-4.4747986E-2,3.9217915E-2,9.557158E-2,6.509722E-2,2.1622203E-2,6.367467E-1,-6.444344E-3,-2.7719822E-2,6.004602E-3,-1.0744894E-1,4.6928737E-1,1.2074261E0,1.3344137E-1,8.968039E-3,-4.7594205E-1,-1.0558673E-3,1.9791959E-2,-8.445916E-3,1.643522E-2,9.969598E-2,-3.2937918E-2,-1.135991E0,-3.7465292E-1,3.1435034E-1,-1.6281988E-2,2.3559798E-2,-5.772174E-1,-5.3087365E-2,2.0237556E-1,1.5031767E-2,-5.8319587E-1,-0E0,9.006083E-1,2.3940234E-2,1.3695482E0,-7.106124E-3,4.6903912E-2,-1.450893E-1,3.0148154E-2,1.048918E-2,4.1019163E-1,9.6990335E-1,2.0992325E-1,-3.4110487E-2,-1.7110255E-1,1.8954368E-1,-3.582031E-1,-2.8534567E-3,7.5690687E-1,1.5190198E-3,-1.991196E-2,2.0408472E-2,-9.450209E-3,-3.0770417E-2,-6.692837E-2,-7.6738177E-3,-2.731669E-2,-2.7604714E-1,5.631045E-2,-4.7247577E-3,1.41009195E-2,4.4291925E-2,1.4691105E-2,1.8967383E-1,-2.0923239E-1,2.0351963E-1,1.0399337E0,7.373402E-2,2.995221E-2,1.8409342E-1,-1.3330135E-1,-5.378854E-3,-5.5773544E-1,-1.2167086E-2,2.0612314E-2,-1.709375E-2,-1.4463646E0,-3.336753E-2,4.5163515E-3,-3.8778537E-3,3.2237668E-2,-5.442587E-3,8.570214E-3,-7.258771E-1,2.2966175E-3,3.7595257E-2,-5.745393E-2,3.5167465E-1,-2.3857358E-1,-3.8516656E-1,3.0678108E-1,-6.899213E-1,1.1584961E-2,9.971162E-1,1.5796036E-2,7.875056E-2,3.795084E-2,8.441212E-3,-3.2030234E-1,2.180073E-1,-1.4951503E-1,9.5809096E-1,1.6375783E-1,5.8157943E-2,2.7160466E-2,-6.421378E-3,2.4964087E-2,8.514016E-3,-1.9314291E-2,-9.600101E-4,2.564715E-2,-0E0,-3.0525487E-2,4.6121743E-2,1.4397914E-2,1.7893323E-3,-2.113851E-2,1.5669165E-2,-1.1867698E-2,2.2442907E-2,-6.9517805E-4,1.81938E-2,-1.2835146E-2,3.5739195E-2,1.5102904E-3,2.9468402E-2,6.793353E-2,4.3865503E-3,2.0459997E-2,-1.2202449E-2,4.3062568E-2,-3.21449E-2,-8.061341E-3,-3.7031427E-2,-7.975294E-2,-4.221482E-2,-1.809071E-2,-1.5781848E-2,1.5493446E-2,8.663103E-3,-3.5878199E-3,-1.3979471E-2,2.2993498E-2,2.6308788E-2,-1.9701784E-2,-3.0872222E-2,-4.7367434E-3,1.7338407E-3,3.075641E-2,-3.669082E-2,-0E0,2.8305057E-2,5.497438E-2,-2.4644222E-2,1.0257956E-3,3.1136574E-2,4.301413E-3,-2.817137E-2,9.3903916E-4,5.70397E-2,7.724796E-3,3.1299595E-2,-5.093928E-3],"categories":[],"categories_nodes":[],"categories_segments":[],"categories_sizes":[],"default_left":[0,0,0,0,0,0,0,0,0,0,0,0,0,0,0,0,0,0,0,0,0,0,0,0,0,0,0,0,0,0,0,0,0,0,0,0,0,0,0,0,0,0,0,0,0,0,0,0,0,0,0,0,0,0,0,0,0,0,0,0,0,0,0,0,0,0,0,0,0,0,0,0,0,0,0,0,0,0,0,0,0,0,0,0,0,0,0,0,0,0,0,0,0,0,0,0,0,0,0,0,0,0,0,0,0,0,0,0,0,0,0,0,0,0,0,0,0,0,0,0,0,0,0,0,0,0,0,0,0,0,0,0,0,0,0,0,0,0,0,0,0,0,0,0,0,0,0,0,0,0,0,0,0,0,0,0,0,0,0,0,0,0,0,0,0,0,0,0,0,0,0,0,0,0,0,0,0,0,0,0,0,0,0,0,0,0,0,0,0,0,0,0,0,0,0,0,0,0,0,0,0,0,0,0,0,0,0,0,0,0,0,0,0,0,0,0,0,0,0,0,0,0,0,0,0,0,0,0,0,0,0,0,0,0,0,0,0,0,0,0,0,0,0,0,0,0,0,0,0,0,0,0,0,0,0,0,0,0,0,0,0,0,0],"id":5,"left_children":[1,3,5,7,9,11,13,15,17,19,21,23,25,27,29,31,33,35,37,39,41,43,-1,-1,-1,45,47,49,51,53,55,57,59,61,63,65,67,69,71,73,75,77,79,-1,81,83,85,87,89,91,93,-1,-1,-1,95,97,-1,99,101,103,105,107,-1,109,111,113,115,-1,-1,117,-1,-1,-1,119,-1,121,-1,123,125,127,129,131,-1,133,135,-1,137,139,141,143,-1,145,-1,147,149,-1,151,153,155,157,-1,-1,159,-1,-1,161,-1,-1,-1,163,165,167,169,-1,171,-1,-1,-1,-1,173,-1,175,177,179,-1,181,183,185,187,189,191,-1,193,-1,195,-1,-1,197,-1,199,201,203,205,-1,207,209,211,-1,213,-1,-1,-1,-1,-1,-1,-1,-1,215,217,-1,-1,-1,-1,219,221,223,225,-1,-1,227,229,-1,231,-1,-1,-1,233,-1,-1,-1,-1,-1,-1,235,237,-1,239,241,243,245,247,249,-1,251,-1,-1,-1,-1,253,255,257,259,261,-1,-1,-1,-1,-1,-1,-1,-1,-1,-1,-1,-1,-1,-1,-1,-1,-1,-1,-1,-1,-1,-1,-1,-1,-1,-1,-1,-1,-1,-1,-1,-1,-1,-1,-1,-1,-1,-1,-1,-1,-1,-1,-1,-1,-1,-1,-1,-1,-1,-1,-1,-1,-1,-1,-1,-1,-1,-1,-1,-1],"loss_changes":[1.766325E1,1.19572735E1,2.8593727E1,1.8690245E1,1.5989713E1,7.3108406E0,2.0251602E1,7.425952E0,1.3193117E1,1.3807434E1,2.1793388E1,1.5259238E0,1.3226131E1,2.1968582E1,1.3706224E1,2.1380787E1,1.4371144E1,8.038605E0,1.888855E1,1.7723146E1,1.24947815E1,3.6688957E0,0E0,0E0,0E0,1.2643639E1,9.538986E0,7.711752E0,8.021822E0,4.590943E0,1.0219551E1,9.427525E0,1.0063976E1,4.4014797E0,9.961256E0,5.555291E0,7.9842186E0,3.020635E0,5.6822853E0,8.17687E0,5.9715576E0,5.990904E0,1.1977682E1,0E0,3.4135513E0,8.229771E0,1.0252721E1,5.6836605E0,5.9570374E0,7.650045E0,6.0304766E0,0E0,0E0,0E0,5.273807E0,6.7083664E0,0E0,5.8639793E0,3.4252748E0,3.3959084E0,5.3115263E0,2.4481134E0,0E0,2.0220758E1,1.9774088E1,3.454382E0,1.223664E0,0E0,0E0,1.7049911E0,0E0,0E0,0E0,6.0262594E0,0E0,5.872669E0,0E0,3.0633073E0,5.1132717E0,1.3455698E1,1.3098823E1,5.284401E0,0E0,4.4066696E0,7.92821E0,0E0,6.3029785E0,9.011777E0,6.699442E0,2.5219545E0,0E0,3.4127998E0,0E0,4.59209E0,1.0490284E0,0E0,1.9413624E0,1.1139603E0,5.379739E-1,1.4233401E0,0E0,0E0,7.870749E-1,0E0,0E0,1.20368E0,0E0,0E0,0E0,1.3043089E1,1.0080765E1,1.2565002E0,7.713234E0,0E0,1.0398455E0,0E0,0E0,0E0,0E0,3.153367E0,0E0,7.3146706E0,3.41421E0,2.7686868E0,0E0,4.3267587E-1,7.4686146E0,1.0518887E1,1.4776822E1,7.759369E0,7.872263E0,0E0,1.6872177E0,0E0,2.0554733E0,0E0,0E0,2.5464923E0,0E0,4.150805E0,1.4023811E1,7.280083E-1,3.3140426E0,0E0,2.6082432E0,1.9403626E0,2.1501741E0,0E0,1.269599E0,0E0,0E0,0E0,0E0,0E0,0E0,0E0,0E0,1.4145839E0,2.3006914E0,0E0,0E0,0E0,0E0,6.398035E0,1.1430169E1,4.5413713E0,1.4992847E0,0E0,0E0,1.0582098E1,1.1754247E1,0E0,1.1705332E0,0E0,0E0,0E0,8.558769E-1,0E0,0E0,0E0,0E0,0E0,0E0,2.8389206E0,2.2052565E0,0E0,1.2141343E1,1.4246069E1,8.17709E0,1.7961998E0,3.345526E0,3.940071E0,0E0,8.062782E-1,0E0,0E0,0E0,0E0,2.055971E0,2.7721243E0,5.3472676E0,5.52335E0,1.0457004E1,0E0,0E0,0E0,0E0,0E0,0E0,0E0,0E0,0E0,0E0,0E0,0E0,0E0,0E0,0E0,0E0,0E0,0E0,0E0,0E0,0E0,0E0,0E0,0E0,0E0,0E0,0E0,0E0,0E0,0E0,0E0,0E0,0E0,0E0,0E0,0E0,0E0,0E0,0E0,0E0,0E0,0E0,0E0,0E0,0E0,0E0,0E0,0E0,0E0,0E0,0E0,0E0,0E0,0E0,0E0,0E0,0E0,0E0,0E0,0E0],"parents":[2147483647,0,0,1,1,2,2,3,3,4,4,5,5,6,6,7,7,8,8,9,9,10,10,11,11,12,12,13,13,14,14,15,15,16,16,17,17,18,18,19,19,20,20,21,21,25,25,26,26,27,27,28,28,29,29,30,30,31,31,32,32,33,33,34,34,35,35,36,36,37,37,38,38,39,39,40,40,41,41,42,42,44,44,45,45,46,46,47,47,48,48,49,49,50,50,54,54,55,55,57,57,58,58,59,59,60,60,61,61,63,63,64,64,65,65,66,66,69,69,73,73,75,75,77,77,78,78,79,79,80,80,81,81,83,83,84,84,86,86,87,87,88,88,89,89,91,91,93,93,94,94,96,96,97,97,98,98,99,99,102,102,105,105,109,109,110,110,111,111,112,112,114,114,119,119,121,121,122,122,123,123,125,125,126,126,127,127,128,128,129,129,130,130,132,132,134,134,137,137,139,139,140,140,141,141,142,142,144,144,145,145,146,146,148,148,157,157,158,158,163,163,164,164,165,165,166,166,169,169,170,170,172,172,176,176,183,183,184,184,186,186,187,187,188,188,189,189,190,190,191,191,193,193,198,198,199,199,200,200,201,201,202,202],"right_children":[2,4,6,8,10,12,14,16,18,20,22,24,26,28,30,32,34,36,38,40,42,44,-1,-1,-1,46,48,50,52,54,56,58,60,62,64,66,68,70,72,74,76,78,80,-1,82,84,86,88,90,92,94,-1,-1,-1,96,98,-1,100,102,104,106,108,-1,110,112,114,116,-1,-1,118,-1,-1,-1,120,-1,122,-1,124,126,128,130,132,-1,134,136,-1,138,140,142,144,-1,146,-1,148,150,-1,152,154,156,158,-1,-1,160,-1,-1,162,-1,-1,-1,164,166,168,170,-1,172,-1,-1,-1,-1,174,-1,176,178,180,-1,182,184,186,188,190,192,-1,194,-1,196,-1,-1,198,-1,200,202,204,206,-1,208,210,212,-1,214,-1,-1,-1,-1,-1,-1,-1,-1,216,218,-1,-1,-1,-1,220,222,224,226,-1,-1,228,230,-1,232,-1,-1,-1,234,-1,-1,-1,-1,-1,-1,236,238,-1,240,242,244,246,248,250,-1,252,-1,-1,-1,-1,254,256,258,260,262,-1,-1,-1,-1,-1,-1,-1,-1,-1,-1,-1,-1,-1,-1,-1,-1,-1,-1,-1,-1,-1,-1,-1,-1,-1,-1,-1,-1,-1,-1,-1,-1,-1,-1,-1,-1,-1,-1,-1,-1,-1,-1,-1,-1,-1,-1,-1,-1,-1,-1,-1,-1,-1,-1,-1,-1,-1,-1,-1,-1],"split_conditions":[1.1249486E0,-6.181352E-1,1.6652966E0,1.8480623E0,1.7155086E0,-1.0213199E0,1.6230567E0,-1.0629106E0,-7.886152E-1,-1.3969278E0,1.9825906E0,7.841558E-1,-6.562964E-1,1.5696487E0,1.6466391E-1,-1.2424624E0,-8.381689E-1,1.7875748E0,1.7243643E0,-9.265489E-3,-1.1005322E0,-1.0249584E0,-3.199703E-2,1.092512E-3,-2.057623E-2,1.0483832E0,1.6967944E0,1.5004973E0,1.4280286E0,1.3818213E0,1.6906466E0,1.0393031E0,-4.6973297E-1,-4.798295E-2,-6.814143E-1,-7.13388E-2,1.2803366E0,5.2234375E-1,-1.0055372E0,-2.0936015E-1,1.2637075E0,-7.450376E-1,1.333956E0,-5.5283704E-4,8.9063084E-1,3.302121E-1,-3.4442183E-1,1.4714895E0,1.7482946E0,1.6109943E0,1.7260292E0,1.6952889E-2,8.357059E-2,2.1634838E-2,2.1007297E0,1.6036586E0,5.2635567E-3,-9.8611444E-2,-1.2353411E0,1.1630291E0,-1.1265279E0,-9.2535156E-1,-5.1850684E-2,4.902162E-1,-6.8541634E-1,1.5985987E0,-1.4296137E0,-4.100567E-3,5.3575598E-2,-1.5955618E-1,-2.3900434E-2,-1.1840813E-2,-6.240819E-2,-9.4298005E-1,3.0637326E-2,-1.141372E0,-4.7291536E-3,-1.5188263E-1,-6.96013E-1,8.401683E-1,-5.8001643E-1,-1.04311675E-1,3.113201E-3,2.6962888E-1,1.1451201E0,4.7267705E-2,1.6677774E0,8.427345E-1,-2.1777883E-1,1.7214153E0,1.577109E-2,5.3334564E-1,-4.057154E-2,-9.494997E-1,-9.782696E-1,-3.5722964E-2,2.1197271E0,1.3310784E0,1.6543168E0,-7.2517323E-1,-4.4747986E-2,3.9217915E-2,-8.171699E-1,6.509722E-2,2.1622203E-2,-8.850291E-1,-6.444344E-3,-2.7719822E-2,6.004602E-3,-3.662459E-1,-4.8979604E-1,-6.544312E-1,1.3181684E0,8.968039E-3,-1.862966E0,-1.0558673E-3,1.9791959E-2,-8.445916E-3,1.643522E-2,-1.6952938E0,-3.2937918E-2,-6.746385E-1,3.3212432E-1,-1.4018129E-1,-1.6281988E-2,-5.1200944E-1,6.995304E-1,-2.4374294E0,1.2249922E0,1.5289319E0,1.927593E0,-0E0,6.2374187E-1,2.3940234E-2,1.1751965E0,-7.106124E-3,4.6903912E-2,1.2878507E0,3.0148154E-2,-1.2805854E0,1.3470863E0,1.6727055E0,1.1895846E0,-3.4110487E-2,1.7252642E0,-1.7890461E-1,1.3289909E0,-2.8534567E-3,9.313555E-1,1.5190198E-3,-1.991196E-2,2.0408472E-2,-9.450209E-3,-3.0770417E-2,-6.692837E-2,-7.6738177E-3,-2.731669E-2,-1.4815952E0,-3.7230682E-1,-4.7247577E-3,1.41009195E-2,4.4291925E-2,1.4691105E-2,-1.014149E0,-1.862966E0,-2.7345285E-1,-2.6451004E-1,7.373402E-2,2.995221E-2,-4.0685043E-1,2.0556102E0,-5.378854E-3,1.7478596E0,-1.2167086E-2,2.0612314E-2,-1.709375E-2,-1.03240706E-1,-3.336753E-2,4.5163515E-3,-3.8778537E-3,3.2237668E-2,-5.442587E-3,8.570214E-3,4.6536466E-1,-1.173794E0,3.7595257E-2,-1.2444891E0,-1.3661261E-1,-3.3968142E-1,-9.134933E-1,7.837951E-1,2.0152495E0,1.1584961E-2,8.903626E-2,1.5796036E-2,7.875056E-2,3.795084E-2,8.441212E-3,1.341923E0,-7.2977E-1,4.7292346E-1,1.2322279E0,1.6777717E-1,5.8157943E-2,2.7160466E-2,-6.421378E-3,2.4964087E-2,8.514016E-3,-1.9314291E-2,-9.600101E-4,2.564715E-2,-0E0,-3.0525487E-2,4.6121743E-2,1.4397914E-2,1.7893323E-3,-2.113851E-2,1.5669165E-2,-1.1867698E-2,2.2442907E-2,-6.9517805E-4,1.81938E-2,-1.2835146E-2,3.5739195E-2,1.5102904E-3,2.9468402E-2,6.793353E-2,4.3865503E-3,2.0459997E-2,-1.2202449E-2,4.3062568E-2,-3.21449E-2,-8.061341E-3,-3.7031427E-2,-7.975294E-2,-4.221482E-2,-1.809071E-2,-1.5781848E-2,1.5493446E-2,8.663103E-3,-3.5878199E-3,-1.3979471E-2,2.2993498E-2,2.6308788E-2,-1.9701784E-2,-3.0872222E-2,-4.7367434E-3,1.7338407E-3,3.075641E-2,-3.669082E-2,-0E0,2.8305057E-2,5.497438E-2,-2.4644222E-2,1.0257956E-3,3.1136574E-2,4.301413E-3,-2.817137E-2,9.3903916E-4,5.70397E-2,7.724796E-3,3.1299595E-2,-5.093928E-3],"split_indices":[12,17,15,0,6,25,16,0,19,12,0,15,25,18,18,4,8,6,1,21,27,25,0,0,0,24,10,10,21,11,18,18,14,16,26,18,25,18,25,22,26,18,11,0,28,13,18,18,3,14,2,0,0,0,15,13,0,16,1,25,10,22,0,14,25,4,11,0,0,11,0,0,0,11,0,15,0,11,24,11,25,21,0,0,1,0,16,8,10,8,0,1,0,13,13,0,11,3,5,15,0,0,12,0,0,22,0,0,0,2,21,26,13,0,11,0,0,0,0,16,0,25,18,12,0,18,11,18,27,13,16,0,14,0,15,0,0,12,0,18,3,19,26,0,6,1,22,0,21,0,0,0,0,0,0,0,0,0,16,0,0,0,0,14,11,18,12,0,0,22,13,0,6,0,0,0,24,0,0,0,0,0,0,17,26,0,28,17,19,26,21,14,0,22,0,0,0,0,14,16,24,26,17,0,0,0,0,0,0,0,0,0,0,0,0,0,0,0,0,0,0,0,0,0,0,0,0,0,0,0,0,0,0,0,0,0,0,0,0,0,0,0,0,0,0,0,0,0,0,0,0,0,0,0,0,0,0,0,0,0,0,0,0],"split_type":[0,0,0,0,0,0,0,0,0,0,0,0,0,0,0,0,0,0,0,0,0,0,0,0,0,0,0,0,0,0,0,0,0,0,0,0,0,0,0,0,0,0,0,0,0,0,0,0,0,0,0,0,0,0,0,0,0,0,0,0,0,0,0,0,0,0,0,0,0,0,0,0,0,0,0,0,0,0,0,0,0,0,0,0,0,0,0,0,0,0,0,0,0,0,0,0,0,0,0,0,0,0,0,0,0,0,0,0,0,0,0,0,0,0,0,0,0,0,0,0,0,0,0,0,0,0,0,0,0,0,0,0,0,0,0,0,0,0,0,0,0,0,0,0,0,0,0,0,0,0,0,0,0,0,0,0,0,0,0,0,0,0,0,0,0,0,0,0,0,0,0,0,0,0,0,0,0,0,0,0,0,0,0,0,0,0,0,0,0,0,0,0,0,0,0,0,0,0,0,0,0,0,0,0,0,0,0,0,0,0,0,0,0,0,0,0,0,0,0,0,0,0,0,0,0,0,0,0,0,0,0,0,0,0,0,0,0,0,0,0,0,0,0,0,0,0,0,0,0,0,0,0,0,0,0,0,0,0,0,0,0,0,0],"sum_hessian":[5.702E3,4.987E3,7.15E2,1.407E3,3.58E3,4.87E2,2.28E2,1.25E3,1.57E2,3.495E3,8.5E1,2.6E1,4.61E2,1.22E2,1.06E2,1.46E2,1.104E3,9.1E1,6.6E1,1.17E2,3.378E3,7E1,1.5E1,1.2E1,1.4E1,1.29E2,3.32E2,1.04E2,1.8E1,3.9E1,6.7E1,8.3E1,6.3E1,2.7E1,1.077E3,7.2E1,1.9E1,3.1E1,3.5E1,5.1E1,6.6E1,1.25E2,3.253E3,8E0,6.2E1,6.3E1,6.6E1,2.76E2,5.6E1,5.8E1,4.6E1,1E1,8E0,1.3E1,2.6E1,5.6E1,1.1E1,5.6E1,2.7E1,3E1,3.3E1,1.6E1,1.1E1,4.96E2,5.81E2,5E1,2.2E1,1E1,9E0,2.3E1,8E0,8E0,2.7E1,3.7E1,1.4E1,5.3E1,1.3E1,2.6E1,9.9E1,3.107E3,1.46E2,5.3E1,9E0,4.1E1,2.2E1,1.3E1,5.3E1,2.27E2,4.9E1,4.1E1,1.5E1,4.2E1,1.6E1,2.9E1,1.7E1,1E1,1.6E1,3E1,2.6E1,4.7E1,9E0,1.1E1,1.6E1,2.1E1,9E0,1.9E1,1.4E1,8E0,8E0,4.27E2,6.9E1,1.6E1,5.65E2,8E0,4.2E1,1E1,1.2E1,8E0,1.5E1,2.3E1,1.4E1,3.4E1,1.9E1,1.6E1,1E1,1.6E1,8.3E1,2.887E3,2.2E2,6.3E1,8.3E1,8E0,4.5E1,1.2E1,2.9E1,1.3E1,9E0,4.1E1,1.2E1,1.21E2,1.06E2,2.2E1,2.7E1,1.3E1,2.8E1,2.3E1,1.9E1,9E0,2E1,8E0,9E0,8E0,8E0,9E0,2.1E1,8E0,1.8E1,2.3E1,2.4E1,8E0,8E0,8E0,1.1E1,1.08E2,3.19E2,4.9E1,2E1,8E0,8E0,4.76E2,8.9E1,9E0,3.3E1,1.1E1,1.2E1,1.1E1,2.3E1,1.1E1,8E0,8E0,8E0,8E0,8E0,6.6E1,1.7E1,1.3E1,2.874E3,1.65E2,5.5E1,2.6E1,3.7E1,7.4E1,9E0,3.7E1,8E0,1.7E1,1.2E1,1.4E1,2.7E1,5.3E1,6.8E1,3.1E1,7.5E1,1.1E1,1.1E1,1.3E1,1.4E1,1.1E1,1.7E1,1.5E1,8E0,9E0,1E1,1.2E1,8E0,8E0,1.5E1,1.3E1,1.1E1,4.5E1,6.3E1,2.8E1,2.91E2,1E1,3.9E1,1.2E1,8E0,3.48E2,1.28E2,8.1E1,8E0,2.4E1,9E0,8E0,1.5E1,4.3E1,2.3E1,8E0,9E0,1.96E2,2.678E3,2.7E1,1.38E2,9E0,4.6E1,1.2E1,1.4E1,2.2E1,1.5E1,6.6E1,8E0,1.3E1,2.4E1,1.7E1,1E1,1E1,4.3E1,1.8E1,5E1,2.3E1,8E0,2.6E1,4.9E1],"tree_param":{"num_deleted":"0","num_feature":"30","num_nodes":"263","size_leaf_vector":"1"}},{"base_weights":[4.277466E-3,-1.4730594E-1,2.327009E-2,3.5666102E-1,-1.8300624E-1,2.7544025E-2,-7.130787E-1,4.7122933E-2,-1.6377168E-2,2.1146522E-1,-2.3566678E-1,2.1615224E-1,1.7453052E-2,-4.5295224E-1,-5.3114697E-2,-1.8932527E-2,2.2324035E-2,-1.9630592E-2,3.3161685E-1,-2.7955025E-1,3.1678104E-1,8.053942E-1,1.2628363E-1,-2.3948334E-1,2.7711594E-2,-2.970984E-2,-6.034959E-3,5.546704E-1,-1.5817697E-1,-2.2276156E-1,-5.5176765E-2,5.8824312E-2,-6.9970384E-2,5.273593E-2,4.296908E-1,7.084395E-2,5.007103E-1,-5.602683E-1,1.1289179E-1,-1.9193646E-1,3.815267E-2,2.9743892E-1,4.4429533E-2,7.999455E-3,-2.0220833E-2,-4.812791E-2,-3.6123005E-1,-2.8092164E-1,1.0309179E-2,7.1682096E-3,2.903317E-2,-9.9305525E-2,2.3189904E-1,4.1431956E-2,-0E0,-4.393111E-1,-1.0021602E0,-6.393089E-3,5.1905997E-2,-2.6962337E-1,5.552506E-1,4.9089804E-2,3.426664E-2,2.7334783E-2,9.935035E-2,-9.309558E-2,2.1586653E-2,-4.6999735E-1,-1.4344454E-1,-2.5491025E-3,-2.0743426E-2,1.1443331E-1,-3.322591E-1,3.0321088E-1,-1.2283329E-1,-6.445391E-1,-1.4018211E-1,-2.0007182E-2,-6.87122E-2,2.091272E-1,-4.311151E-1,-3.2888857E-1,2.4306832E-2,8.654952E-3,4.208945E-2,4.362789E-2,-2.2380516E-1,1.2781444E-2,-3.898127E-3,-5.6878738E-2,-2.539431E-2,-5.273329E-1,8.209916E-3,-1.4054558E-2,-3.0496985E-2,-1.4201413E-2,2.3389709E-1,-6.241141E-1,-1.919603E-2,1.7529717E-1,6.772944E-1,-1.680752E-2,5.0658346E-3,-3.9582613E-1,-5.0526723E-2,-2.052201E-2,-0E0,-7.1246676E-2,5.773571E-1,-4.030144E-2,-3.633772E-4,3.7738938E-2,-4.8819596E-1,1.7592998E-2,1.4192714E-1,-3.884542E-1,2.6803038E-1,-4.9012452E-3,1.4633746E-2,-1.6229628E-2,-3.376084E-2,-1.40136145E-2,1.5639435E-2,1.6879642E-2,-1.9379413E-4,-3.580756E-2,-1.3586312E-2,1.0062491E-2,-8.987508E-3,2.8854104E-2,4.1033127E-3,1.5049147E-2,4.793579E-2,-2.6434256E-2,1.7719851E-3,1.0276684E-2,-1.6695274E-2,7.0916642E-3,-2.081188E-2,1.3985041E-2,4.0633366E-2,-1.46434335E-2,1.9105155E-2,3.1038262E-2,-2.7641501E-2,1.6289176E-3,-1.6068343E-2,2.0387916E-2,6.8670727E-4,-1.0692424E-2,-3.8130894E-2,-1.1808265E-2,3.563166E-2],"categories":[],"categories_nodes":[],"categories_segments":[],"categories_sizes":[],"default_left":[0,0,0,0,0,0,0,0,0,0,0,0,0,0,0,0,0,0,0,0,0,0,0,0,0,0,0,0,0,0,0,0,0,0,0,0,0,0,0,0,0,0,0,0,0,0,0,0,0,0,0,0,0,0,0,0,0,0,0,0,0,0,0,0,0,0,0,0,0,0,0,0,0,0,0,0,0,0,0,0,0,0,0,0,0,0,0,0,0,0,0,0,0,0,0,0,0,0,0,0,0,0,0,0,0,0,0,0,0,0,0,0,0,0,0,0,0,0,0,0,0,0,0,0,0,0,0,0,0,0,0,0,0,0,0,0,0,0,0,0,0,0,0,0,0,0,0,0,0,0,0,0,0],"id":6,"left_children":[1,3,5,7,9,11,13,-1,15,17,19,21,23,25,-1,-1,-1,-1,27,29,31,33,35,37,39,-1,-1,41,43,45,-1,-1,47,-1,49,51,53,55,57,59,61,63,-1,-1,-1,65,67,69,-1,-1,-1,71,73,-1,-1,75,77,79,-1,81,83,-1,85,-1,87,89,-1,91,93,-1,-1,95,97,99,101,103,105,-1,-1,107,109,111,-1,-1,-1,113,115,-1,-1,117,-1,119,-1,121,-1,-1,123,125,127,129,131,-1,-1,133,-1,-1,135,137,139,-1,-1,141,143,145,147,149,151,-1,-1,-1,-1,-1,-1,-1,-1,-1,-1,-1,-1,-1,-1,-1,-1,-1,-1,-1,-1,-1,-1,-1,-1,-1,-1,-1,-1,-1,-1,-1,-1,-1,-1,-1,-1],"loss_changes":[1.6264305E1,1.1391504E1,1.5712225E1,1.0067596E1,1.2325727E1,9.462863E0,1.7387438E0,0E0,5.427119E0,5.4469624E0,1.2776188E1,1.2997204E1,1.2489592E1,8.4152603E-1,0E0,0E0,0E0,0E0,6.7776537E0,2.3295315E1,1.4140096E1,2.4911137E0,4.4134474E0,2.0761934E1,1.04637375E1,0E0,0E0,3.269908E0,1.8937361E0,1.0923721E1,0E0,0E0,1.8592851E0,0E0,5.548074E-1,5.436112E0,4.9188685E0,4.010807E0,1.04525795E1,1.2208483E1,1.6496918E1,1.2625308E0,0E0,0E0,0E0,4.6015725E0,5.754715E0,4.7131324E-1,0E0,0E0,0E0,4.8861513E0,2.6818237E0,0E0,0E0,4.500779E0,3.2926884E0,7.5147915E0,0E0,8.971674E0,1.8916459E0,0E0,1.0490864E1,0E0,6.5282595E-1,2.830215E0,0E0,6.4169273E0,5.4636335E0,0E0,0E0,2.6093504E0,4.110995E0,3.7030091E0,1.0546724E0,3.63562E0,1.4939234E0,0E0,0E0,5.7397814E0,4.657951E0,1.04589E1,0E0,0E0,0E0,1.071336E1,1.2505543E1,0E0,0E0,2.9663773E0,0E0,4.5495033E0,0E0,7.015267E0,0E0,0E0,1.2407126E0,4.035244E-1,1.0293447E0,2.3139997E0,1.598525E0,0E0,0E0,2.3221135E0,0E0,0E0,1.9743981E0,2.726623E0,1.1507201E0,0E0,0E0,7.0771403E0,1.342482E1,1.9401752E1,3.1798716E1,7.1973133E0,9.998192E0,0E0,0E0,0E0,0E0,0E0,0E0,0E0,0E0,0E0,0E0,0E0,0E0,0E0,0E0,0E0,0E0,0E0,0E0,0E0,0E0,0E0,0E0,0E0,0E0,0E0,0E0,0E0,0E0,0E0,0E0,0E0,0E0,0E0,0E0,0E0,0E0],"parents":[2147483647,0,0,1,1,2,2,3,3,4,4,5,5,6,6,8,8,9,9,10,10,11,11,12,12,13,13,18,18,19,19,20,20,21,21,22,22,23,23,24,24,27,27,28,28,29,29,32,32,34,34,35,35,36,36,37,37,38,38,39,39,40,40,41,41,45,45,46,46,47,47,51,51,52,52,55,55,56,56,57,57,59,59,60,60,62,62,64,64,65,65,67,67,68,68,71,71,72,72,73,73,74,74,75,75,76,76,79,79,80,80,81,81,85,85,86,86,89,89,91,91,93,93,96,96,97,97,98,98,99,99,100,100,103,103,106,106,107,107,108,108,111,111,112,112,113,113,114,114,115,115,116,116],"right_children":[2,4,6,8,10,12,14,-1,16,18,20,22,24,26,-1,-1,-1,-1,28,30,32,34,36,38,40,-1,-1,42,44,46,-1,-1,48,-1,50,52,54,56,58,60,62,64,-1,-1,-1,66,68,70,-1,-1,-1,72,74,-1,-1,76,78,80,-1,82,84,-1,86,-1,88,90,-1,92,94,-1,-1,96,98,100,102,104,106,-1,-1,108,110,112,-1,-1,-1,114,116,-1,-1,118,-1,120,-1,122,-1,-1,124,126,128,130,132,-1,-1,134,-1,-1,136,138,140,-1,-1,142,144,146,148,150,152,-1,-1,-1,-1,-1,-1,-1,-1,-1,-1,-1,-1,-1,-1,-1,-1,-1,-1,-1,-1,-1,-1,-1,-1,-1,-1,-1,-1,-1,-1,-1,-1,-1,-1,-1,-1],"split_conditions":[-1.0032054E0,-7.581319E-1,1.7639226E0,-5.8814096E-1,-7.450376E-1,-1.3223205E0,1.9092624E0,4.7122933E-2,-1.6067414E-1,-5.3046596E-1,1.6927525E0,1.6671066E-1,-1.2857263E0,7.245535E-1,-5.3114697E-2,-1.8932527E-2,2.2324035E-2,-1.9630592E-2,4.8090798E-1,1.6832554E0,-3.478408E-1,5.959759E-1,-1.328899E0,1.011957E0,-1.7405254E0,-2.970984E-2,-6.034959E-3,-9.76667E-2,-1.1799964E-1,-4.378129E-1,-5.5176765E-2,5.8824312E-2,5.531905E-1,5.273593E-2,1.7293801E0,-2.4742958E-1,1.1538312E0,3.848563E-1,8.2430255E-1,1.9422673E0,-1.3128153E0,-1.0423862E0,4.4429533E-2,7.999455E-3,-2.0220833E-2,-3.478408E-1,3.2616726E-1,-2.7815512E-1,1.0309179E-2,7.1682096E-3,2.903317E-2,-3.357135E-1,8.614709E-1,4.1431956E-2,-0E0,2.6416013E-1,-1.2480981E0,9.881684E-1,5.1905997E-2,1.2901279E0,1.7063363E0,4.9089804E-2,1.9221714E0,2.7334783E-2,-5.537278E-1,-1.0142525E0,2.1586653E-2,9.5887035E-1,1.4083655E0,-2.5491025E-3,-2.0743426E-2,-1.3201345E0,3.0592754E-2,5.321405E-1,-1.4661548E0,-8.6413585E-2,-2.0151514E-1,-2.0007182E-2,-6.87122E-2,9.5363843E-1,5.5404985E-1,-1.9815629E0,2.4306832E-2,8.654952E-3,4.208945E-2,1.0585321E0,1.2492925E0,1.2781444E-2,-3.898127E-3,-8.0042765E-2,-2.539431E-2,-5.0268624E-2,8.209916E-3,3.1380564E-1,-3.0496985E-2,-1.4201413E-2,-6.84045E-1,4.2166287E-1,-3.5733628E-1,-2.9785532E-1,5.412491E-1,-1.680752E-2,5.0658346E-3,-6.948861E-1,-5.0526723E-2,-2.052201E-2,4.1524816E-1,1.3325131E0,-1.3069232E0,-4.030144E-2,-3.633772E-4,-2.015363E0,-1.6195843E0,1.2324281E0,1.1146523E0,1.639052E0,5.544997E-1,-4.9012452E-3,1.4633746E-2,-1.6229628E-2,-3.376084E-2,-1.40136145E-2,1.5639435E-2,1.6879642E-2,-1.9379413E-4,-3.580756E-2,-1.3586312E-2,1.0062491E-2,-8.987508E-3,2.8854104E-2,4.1033127E-3,1.5049147E-2,4.793579E-2,-2.6434256E-2,1.7719851E-3,1.0276684E-2,-1.6695274E-2,7.0916642E-3,-2.081188E-2,1.3985041E-2,4.0633366E-2,-1.46434335E-2,1.9105155E-2,3.1038262E-2,-2.7641501E-2,1.6289176E-3,-1.6068343E-2,2.0387916E-2,6.8670727E-4,-1.0692424E-2,-3.8130894E-2,-1.1808265E-2,3.563166E-2],"split_indices":[26,1,10,14,18,1,13,0,18,8,10,27,10,16,0,0,0,0,12,10,15,12,3,18,13,0,0,12,16,19,0,0,19,0,24,24,27,12,12,12,7,13,0,0,0,15,19,24,0,0,0,20,19,0,0,16,6,14,0,26,7,0,24,0,14,26,0,14,9,0,0,22,11,23,6,24,25,0,0,27,11,11,0,0,0,10,27,0,0,12,0,15,0,11,0,0,23,12,19,19,12,0,0,14,0,0,22,18,2,0,0,13,18,13,27,14,28,0,0,0,0,0,0,0,0,0,0,0,0,0,0,0,0,0,0,0,0,0,0,0,0,0,0,0,0,0,0,0,0,0,0,0,0],"split_type":[0,0,0,0,0,0,0,0,0,0,0,0,0,0,0,0,0,0,0,0,0,0,0,0,0,0,0,0,0,0,0,0,0,0,0,0,0,0,0,0,0,0,0,0,0,0,0,0,0,0,0,0,0,0,0,0,0,0,0,0,0,0,0,0,0,0,0,0,0,0,0,0,0,0,0,0,0,0,0,0,0,0,0,0,0,0,0,0,0,0,0,0,0,0,0,0,0,0,0,0,0,0,0,0,0,0,0,0,0,0,0,0,0,0,0,0,0,0,0,0,0,0,0,0,0,0,0,0,0,0,0,0,0,0,0,0,0,0,0,0,0,0,0,0,0,0,0,0,0,0,0,0,0],"sum_hessian":[5.655E3,6.27E2,5.028E3,4E1,5.87E2,5.001E3,2.7E1,1.4E1,2.6E1,6.8E1,5.19E2,2.51E2,4.75E3,1.9E1,8E0,1.5E1,1.1E1,1E1,5.8E1,4.82E2,3.7E1,3.1E1,2.2E2,1.8E2,4.57E3,1.1E1,8E0,4E1,1.8E1,4.55E2,2.7E1,1E1,2.7E1,1.5E1,1.6E1,1.94E2,2.6E1,9.4E1,8.6E1,2.05E2,4.365E3,2.6E1,1.4E1,8E0,1E1,2.03E2,2.52E2,1.6E1,1.1E1,8E0,8E0,9.4E1,1E2,1.4E1,1.2E1,7.7E1,1.7E1,7.8E1,8E0,1.87E2,1.8E1,1.5E1,4.35E3,9E0,1.7E1,1.88E2,1.5E1,1.66E2,8.6E1,8E0,8E0,4.9E1,4.5E1,8.4E1,1.6E1,4.4E1,3.3E1,9E0,8E0,5.2E1,2.6E1,1.75E2,1.2E1,1E1,8E0,4.2E3,1.5E2,9E0,8E0,1.76E2,1.2E1,1.53E2,1.3E1,7E1,1.6E1,1E1,3.9E1,2.2E1,2.3E1,6.5E1,1.9E1,8E0,8E0,3E1,1.4E1,1E1,2.3E1,3E1,2.2E1,1.2E1,1.4E1,5.3E1,1.22E2,3.324E3,8.76E2,1.13E2,3.7E1,1.58E2,1.8E1,7.8E1,7.5E1,3.9E1,3.1E1,2.6E1,1.3E1,1.4E1,8E0,9E0,1.4E1,9E0,5.6E1,1.1E1,8E0,2.2E1,8E0,1.5E1,8E0,1.9E1,1.1E1,1.3E1,9E0,2.7E1,2.6E1,8E0,1.14E2,3.178E3,1.46E2,2.69E2,6.07E2,8.3E1,3E1,1.8E1,1.9E1],"tree_param":{"num_deleted":"0","num_feature":"30","num_nodes":"153","size_leaf_vector":"1"}},{"base_weights":[1.1399054E-2,-6.5934598E-3,1.6942695E-1,7.154055E-2,-4.4970863E-2,7.480504E-1,1.16051674E-1,5.6337524E-2,5.871098E-1,-1.5061263E-2,-2.1477896E-1,1.055096E0,-0E0,8.776188E-1,5.958007E-2,1.7000479E-1,-2.5160639E-2,7.7090454E-1,-7.18487E-3,-5.7512596E-2,2.3392162E-1,-1.5572463E-1,-7.1155626E-1,2.2201259E-2,5.972304E-2,1.1676469E0,1.3838549E-2,-7.297616E-2,3.0891618E-1,2.652814E-1,-5.6656697E-3,-2.2347519E-1,2.7414868E-2,9.842571E-1,8.691765E-3,2.3503509E-1,-7.338838E-2,-1.2944762E-1,4.128868E-1,3.6401354E-2,-2.6516768E-1,-8.6761826E-1,-3.2632676E-1,7.60694E-2,3.0384073E-2,-5.0293094E-1,1.9353073E-2,5.3657025E-1,-2.8201807E-1,4.436842E-1,1.4335439E-1,-1.4625134E-1,5.0106084E-1,2.1293474E-2,-2.8661555E-1,-2.4574897E-1,6.709595E-2,2.2177044E-2,6.026864E-2,1.658939E-1,3.9226525E-2,-5.9897655E-1,-5.4076534E-2,-3.3812723E-1,5.4885125E-1,9.7966754E-1,2.510051E-1,-4.7205484E-1,2.6561388E-1,-9.967878E-2,-4.4207782E-1,-4.978549E-1,-6.409863E-2,-2.9116588E-2,-0E0,-4.7882386E-2,-2.5134462E-1,-9.277026E-2,6.483896E-1,-1.4313507E-2,6.54519E-1,4.4180405E-1,-9.948549E-1,6.688997E-1,2.1229242E-1,7.749105E-2,4.777236E-2,3.4647033E-1,-2.3562872E-1,2.3542924E-1,5.443699E-2,-5.844829E-1,-1.308397E-1,1.6665943E-1,-4.3260702E-1,4.1566664E-1,3.7741143E-2,6.2415995E-2,6.325733E-1,-4.3133497E-1,-6.2735796E-2,-4.5807526E-2,-7.1881676E-1,3.1124309E-2,-4.5125112E-1,5.4023042E-2,1.69081E-1,3.7064394E-1,1.22366E0,8.183754E-1,8.0022395E-2,-4.1235466E-2,-2.1869247E-1,3.7301663E-2,4.4167155E-1,-3.8867283E-1,1.4164908E-1,-1.0610739E-1,-6.502305E-1,-7.641222E-3,-3.0409832E-2,1.347746E-1,-4.0774185E-2,-1.4117603E-2,-5.529457E-2,1.0906499E-2,8.599681E-1,7.404488E-1,-8.3651515E-3,5.0236195E-2,-2.3813292E-3,-6.2844194E-2,-9.869745E-3,8.1073946E-1,3.2701197E-1,5.665648E-2,5.777946E-1,-1.0385619E-2,3.0557263E-1,6.8929565E-1,-2.1834098E-2,1.9874753E-1,-3.0006805E-1,4.6716705E-1,-5.664364E-3,-1.0231445E-2,-6.6897327E-1,-3.711872E-1,1.5546885E-1,-1.4578322E-2,2.4305286E-2,-5.520842E-1,-3.5467766E-2,-1.6334902E-2,6.2189066E-1,-9.4181314E-2,1.2268275E-1,3.6692646E-1,-8.9994535E-2,4.215685E-2,7.988526E-3,-2.0193529E-1,-4.24464E-2,5.278465E-2,-9.574422E-2,-7.3803975E-3,-4.596501E-2,-3.1535444E-1,-4.4399697E-2,1.940494E-2,-2.6720397E-3,2.73745E-2,3.2075134E-3,1.5135375E0,3.0330215E-2,9.8897153E-1,3.3694445E-3,1.6402483E-1,-5.7828583E-2,-4.5157522E-2,-3.0123545E-2,2.0420546E-2,-6.4252E-2,5.536811E-1,-3.944998E-3,-1.5487837E-2,-5.9510297E-1,-1.7993236E-1,5.453103E-1,-3.7115544E-1,2.6343854E-2,2.9547252E-3,-7.8019464E-1,2.4496863E-2,-6.3018985E-3,1.21353425E-1,-2.7551603E-1,5.0423436E-2,1.4515639E-2,6.130131E-1,8.139508E-2,4.8204944E-2,1.5344318E-2,-0E0,2.9391853E-2,8.264345E-3,-1.5511758E-2,3.8035613E-2,1.5331013E-2,2.4384866E-2,-2.8814254E-3,2.4189567E-2,-2.090299E-2,1.4798608E-2,4.276313E-2,2.776716E-2,-1.27645405E-2,-1.8492552E-2,-5.47653E-4,-0E0,3.9762355E-2,-1.9068105E-2,-5.0810274E-2,-5.2430937E-3,-2.4396008E-2,-9.674068E-3,2.0395398E-2,-3.9005462E-2,-1.5540497E-2,5.7746056E-3,-9.935499E-3,4.3791965E-2,-0E0,3.258399E-4,-2.2761675E-2,1.539957E-2,-4.842468E-4,4.909785E-3,2.6557952E-2,6.502492E-4,-3.1063378E-2,1.1631279E-2,-1.4468772E-2,1.6620202E-3,5.187407E-2,-2.9743146E-2,-3.932096E-3,-3.7851713E-3,-3.593548E-2,3.1088438E-2,8.8478535E-2,1.0115376E-2,5.7999223E-2,-1.4028043E-2,2.1446958E-2,-1.7607786E-2,8.292465E-3,-1.7657788E-2,8.961045E-3,8.796301E-3,3.662664E-2,-8.803119E-3,1.063942E-2,-6.93423E-3,-3.6234807E-2,8.796767E-3,-1.5645752E-2,3.8142256E-2,3.418087E-3,-2.2430043E-3,-2.6761757E-2,-4.8920263E-2,-2.7514715E-2,-8.507259E-3,3.3602927E-2,2.3532579E-2,-1.9536512E-2,4.2343263E-2,1.017544E-2],"categories":[],"categories_nodes":[],"categories_segments":[],"categories_sizes":[],"default_left":[0,0,0,0,0,0,0,0,0,0,0,0,0,0,0,0,0,0,0,0,0,0,0,0,0,0,0,0,0,0,0,0,0,0,0,0,0,0,0,0,0,0,0,0,0,0,0,0,0,0,0,0,0,0,0,0,0,0,0,0,0,0,0,0,0,0,0,0,0,0,0,0,0,0,0,0,0,0,0,0,0,0,0,0,0,0,0,0,0,0,0,0,0,0,0,0,0,0,0,0,0,0,0,0,0,0,0,0,0,0,0,0,0,0,0,0,0,0,0,0,0,0,0,0,0,0,0,0,0,0,0,0,0,0,0,0,0,0,0,0,0,0,0,0,0,0,0,0,0,0,0,0,0,0,0,0,0,0,0,0,0,0,0,0,0,0,0,0,0,0,0,0,0,0,0,0,0,0,0,0,0,0,0,0,0,0,0,0,0,0,0,0,0,0,0,0,0,0,0,0,0,0,0,0,0,0,0,0,0,0,0,0,0,0,0,0,0,0,0,0,0,0,0,0,0,0,0,0,0,0,0,0,0,0,0,0,0,0,0,0,0,0,0,0,0,0,0,0,0,0,0,0,0,0,0,0,0,0,0,0,0,0,0,0,0,0,0,0,0,0,0,0,0,0,0,0,0,0,0],"id":7,"left_children":[1,3,5,7,9,11,13,15,17,19,21,23,-1,25,27,29,31,33,-1,35,37,39,41,-1,-1,43,-1,45,47,49,51,53,55,57,-1,59,61,63,65,67,69,71,73,-1,-1,75,77,79,81,83,85,87,89,-1,91,93,95,-1,-1,97,-1,99,101,103,105,107,109,111,113,115,117,119,-1,-1,-1,-1,121,123,125,-1,127,129,131,133,135,137,-1,139,141,143,-1,145,147,149,151,153,155,157,159,161,-1,163,165,-1,167,-1,169,171,173,175,177,-1,179,181,183,185,187,189,191,-1,-1,193,-1,195,-1,-1,197,199,-1,-1,-1,-1,-1,201,203,205,207,209,211,213,-1,215,217,219,-1,-1,221,223,225,-1,-1,227,229,-1,231,233,235,237,239,-1,-1,241,-1,243,245,-1,-1,247,-1,-1,-1,-1,-1,249,-1,251,-1,253,-1,255,-1,-1,257,259,-1,261,263,265,267,269,-1,-1,271,-1,-1,273,275,-1,-1,277,-1,-1,-1,-1,-1,-1,-1,-1,-1,-1,-1,-1,-1,-1,-1,-1,-1,-1,-1,-1,-1,-1,-1,-1,-1,-1,-1,-1,-1,-1,-1,-1,-1,-1,-1,-1,-1,-1,-1,-1,-1,-1,-1,-1,-1,-1,-1,-1,-1,-1,-1,-1,-1,-1,-1,-1,-1,-1,-1,-1,-1,-1,-1,-1,-1,-1,-1,-1,-1,-1,-1,-1,-1,-1,-1,-1,-1,-1,-1],"loss_changes":[1.629568E1,1.5393953E1,1.7744177E1,1.3042736E1,1.7443953E1,1.14285965E1,2.2869898E1,1.5267396E1,6.8244076E0,3.098353E1,1.4711138E1,2.591259E0,0E0,5.3425636E0,1.6743683E1,1.1572144E1,1.0040943E1,4.2938633E0,0E0,1.16422615E1,2.7913248E1,9.799184E0,2.4613037E0,0E0,0E0,3.064808E0,0E0,1.3216762E1,2.397686E1,9.474279E0,1.7348688E1,8.7221E0,8.203909E0,2.579258E0,0E0,4.75791E0,2.3962109E1,2.0356113E1,2.5599503E1,1.9850697E1,8.460489E0,4.8501606E0,1.638905E0,0E0,0E0,6.661234E0,1.9471188E1,1.3035805E1,2.6601837E1,8.919262E0,1.4793386E1,8.567884E0,8.172118E0,0E0,8.3249E0,7.5702324E0,6.6632385E0,0E0,0E0,5.4631634E0,0E0,8.636192E0,1.2407002E1,1.2776823E1,6.842205E0,8.163712E0,2.1587292E1,4.6564665E0,4.5988693E0,1.1018867E1,9.624319E0,7.570658E-1,0E0,0E0,0E0,0E0,1.0087725E1,1.9211815E1,3.1201077E0,0E0,8.399509E0,8.053852E0,5.7017803E0,3.6264076E0,5.0220256E0,5.1179457E0,0E0,8.824757E0,4.714093E0,3.4414792E0,0E0,1.5111675E0,8.738753E0,5.297741E0,3.003624E0,8.380193E0,6.9162226E0,4.7057123E0,1.922492E0,6.865426E0,0E0,1.1208393E1,3.306775E0,0E0,5.6866646E0,0E0,1.335464E0,1.0669842E0,5.2711334E0,6.246994E0,1.9186743E1,0E0,2.2868557E0,2.2620902E0,4.0502253E0,5.3784847E0,1.13937235E1,1.0227667E1,8.278507E0,0E0,0E0,2.9086328E0,0E0,7.8420258E0,0E0,0E0,2.0408459E0,1.0239708E1,0E0,0E0,0E0,0E0,0E0,5.1312714E0,2.7960782E0,3.0327451E0,7.9776E-1,4.712248E0,1.0986398E1,9.394798E-1,0E0,4.2349286E0,3.5205717E0,4.150703E0,0E0,0E0,4.217602E0,2.2730026E0,5.8250294E0,0E0,0E0,2.3172045E0,5.446432E-1,0E0,7.593624E0,9.411617E0,1.004706E1,1.4397097E0,4.035984E0,0E0,0E0,2.3866825E0,0E0,1.387736E1,1.0427346E1,0E0,0E0,8.046348E0,0E0,0E0,0E0,0E0,0E0,5.413166E0,0E0,6.546814E0,0E0,2.2036713E1,0E0,2.0547562E0,0E0,0E0,3.5347703E0,3.8532581E0,0E0,1.1832106E0,2.9731846E0,2.7639618E0,4.3606815E0,2.3817034E0,0E0,0E0,2.2632751E0,0E0,0E0,2.559181E1,8.120751E0,0E0,0E0,9.681953E0,0E0,0E0,0E0,0E0,0E0,0E0,0E0,0E0,0E0,0E0,0E0,0E0,0E0,0E0,0E0,0E0,0E0,0E0,0E0,0E0,0E0,0E0,0E0,0E0,0E0,0E0,0E0,0E0,0E0,0E0,0E0,0E0,0E0,0E0,0E0,0E0,0E0,0E0,0E0,0E0,0E0,0E0,0E0,0E0,0E0,0E0,0E0,0E0,0E0,0E0,0E0,0E0,0E0,0E0,0E0,0E0,0E0,0E0,0E0,0E0,0E0,0E0,0E0,0E0,0E0,0E0,0E0,0E0,0E0,0E0,0E0,0E0,0E0,0E0,0E0,0E0,0E0,0E0,0E0],"parents":[2147483647,0,0,1,1,2,2,3,3,4,4,5,5,6,6,7,7,8,8,9,9,10,10,11,11,13,13,14,14,15,15,16,16,17,17,19,19,20,20,21,21,22,22,25,25,27,27,28,28,29,29,30,30,31,31,32,32,33,33,35,35,36,36,37,37,38,38,39,39,40,40,41,41,42,42,45,45,46,46,47,47,48,48,49,49,50,50,51,51,52,52,54,54,55,55,56,56,59,59,61,61,62,62,63,63,64,64,65,65,66,66,67,67,68,68,69,69,70,70,71,71,76,76,77,77,78,78,80,80,81,81,82,82,83,83,84,84,85,85,87,87,88,88,89,89,91,91,92,92,93,93,94,94,95,95,96,96,97,97,98,98,99,99,101,101,102,102,104,104,106,106,107,107,108,108,109,109,110,110,112,112,113,113,114,114,115,115,116,116,117,117,118,118,121,121,123,123,126,126,127,127,133,133,134,134,135,135,136,136,137,137,138,138,139,139,141,141,142,142,143,143,146,146,147,147,148,148,151,151,152,152,154,154,155,155,156,156,157,157,158,158,161,161,163,163,164,164,167,167,173,173,175,175,177,177,179,179,182,182,183,183,185,185,186,186,187,187,188,188,189,189,192,192,195,195,196,196,199,199],"right_children":[2,4,6,8,10,12,14,16,18,20,22,24,-1,26,28,30,32,34,-1,36,38,40,42,-1,-1,44,-1,46,48,50,52,54,56,58,-1,60,62,64,66,68,70,72,74,-1,-1,76,78,80,82,84,86,88,90,-1,92,94,96,-1,-1,98,-1,100,102,104,106,108,110,112,114,116,118,120,-1,-1,-1,-1,122,124,126,-1,128,130,132,134,136,138,-1,140,142,144,-1,146,148,150,152,154,156,158,160,162,-1,164,166,-1,168,-1,170,172,174,176,178,-1,180,182,184,186,188,190,192,-1,-1,194,-1,196,-1,-1,198,200,-1,-1,-1,-1,-1,202,204,206,208,210,212,214,-1,216,218,220,-1,-1,222,224,226,-1,-1,228,230,-1,232,234,236,238,240,-1,-1,242,-1,244,246,-1,-1,248,-1,-1,-1,-1,-1,250,-1,252,-1,254,-1,256,-1,-1,258,260,-1,262,264,266,268,270,-1,-1,272,-1,-1,274,276,-1,-1,278,-1,-1,-1,-1,-1,-1,-1,-1,-1,-1,-1,-1,-1,-1,-1,-1,-1,-1,-1,-1,-1,-1,-1,-1,-1,-1,-1,-1,-1,-1,-1,-1,-1,-1,-1,-1,-1,-1,-1,-1,-1,-1,-1,-1,-1,-1,-1,-1,-1,-1,-1,-1,-1,-1,-1,-1,-1,-1,-1,-1,-1,-1,-1,-1,-1,-1,-1,-1,-1,-1,-1,-1,-1,-1,-1,-1,-1,-1,-1],"split_conditions":[1.4714895E0,-3.8387477E-1,-1.05121836E-1,1.1770366E0,1.0902729E0,9.835375E-1,-1.3173085E0,-7.597783E-1,1.5670364E0,1.0060135E0,1.5897386E0,-3.312968E-1,-0E0,1.2845913E0,6.284894E-1,1.2317538E0,-8.0474204E-1,1.3592048E0,-7.18487E-3,-1.3128153E0,-9.9323964E-1,-4.2192516E-1,1.1715884E0,2.2201259E-2,5.972304E-2,-1.3201984E0,1.3838549E-2,1.1882176E0,1.6622924E0,-5.30003E-1,1.703466E0,-1.7896701E0,-1.0805218E0,1.3208051E0,8.691765E-3,-1.3173085E0,-1.2828602E0,1.6967944E0,7.0277023E-1,-1.5806568E0,-1.5451495E-1,1.2462759E0,1.2880696E0,7.60694E-2,3.0384073E-2,-1.2487205E0,1.6603675E0,-3.1706834E-1,9.650802E-1,-9.201209E-1,6.7702556E-1,-1.6420162E0,-9.7727805E-2,2.1293474E-2,-1.5041099E0,-4.7630495E-1,-9.653522E-1,2.2177044E-2,6.026864E-2,6.057153E-1,3.9226525E-2,-1.2470019E0,1.9504949E0,1.3796195E0,4.1142818E-1,-9.833838E-2,-2.2755535E-2,-1.220073E0,-2.1314007E-1,1.0918633E0,-1.313573E-1,1.3450674E0,-6.409863E-2,-2.9116588E-2,-0E0,-4.7882386E-2,4.4324857E-1,1.3369582E0,-4.2852274E-1,-1.4313507E-2,2.1068697E0,2.7860638E-1,1.7081553E0,-7.4973255E-1,-3.284549E-1,2.6030394E-1,4.777236E-2,-6.518661E-1,-2.12868E0,-4.1056374E-1,5.443699E-2,-2.2429736E-1,1.4833205E0,-5.3046596E-1,-4.9440452E-1,-3.7201667E-1,-3.3001535E-2,-4.2852274E-1,1.009528E0,3.14475E-1,-6.2735796E-2,-5.491021E-1,-8.161041E-1,3.1124309E-2,1.6832554E0,5.4023042E-2,1.2664044E0,8.7022406E-1,1.6637411E0,1.0393031E0,1.7413143E0,-4.1235466E-2,-7.2628826E-2,-1.0267578E0,1.3181684E0,-6.403744E-1,6.764147E-1,1.9846112E-1,-6.852873E-1,-7.641222E-3,-3.0409832E-2,1.6157086E0,-4.0774185E-2,-2.0326182E-1,-5.529457E-2,1.0906499E-2,1.1877995E0,1.4833205E0,-8.3651515E-3,5.0236195E-2,-2.3813292E-3,-6.2844194E-2,-9.869745E-3,3.8461617E-1,-5.4038227E-1,1.2697611E0,-1.0401077E0,-1.0607283E0,3.8461617E-1,-1.1320534E0,-2.1834098E-2,1.6163398E0,1.6843212E0,-1.4833941E0,-5.664364E-3,-1.0231445E-2,-2.682028E-1,-6.11687E-1,-1.577077E0,-1.4578322E-2,2.4305286E-2,-4.0686652E-1,2.2803767E-1,-1.6334902E-2,9.0422106E-1,1.3728987E0,1.1631613E0,-8.375521E-1,-1.2710134E0,4.215685E-2,7.988526E-3,-1.2567122E0,-4.24464E-2,1.0535686E0,-5.8055717E-1,-7.3803975E-3,-4.596501E-2,6.436779E-1,-4.4399697E-2,1.940494E-2,-2.6720397E-3,2.73745E-2,3.2075134E-3,-2.2595084E-1,3.0330215E-2,-3.4016633E-1,3.3694445E-3,1.3809993E0,-5.7828583E-2,-9.3126255E-1,-3.0123545E-2,2.0420546E-2,1.1568218E0,-2.4590263E-1,-3.944998E-3,-4.4285345E-1,9.3657273E-1,-4.102091E-1,8.5079724E-1,1.2408277E0,2.6343854E-2,2.9547252E-3,6.639977E-1,2.4496863E-2,-6.3018985E-3,-1.0349684E0,1.2228496E0,5.0423436E-2,1.4515639E-2,-1.992894E-1,8.139508E-2,4.8204944E-2,1.5344318E-2,-0E0,2.9391853E-2,8.264345E-3,-1.5511758E-2,3.8035613E-2,1.5331013E-2,2.4384866E-2,-2.8814254E-3,2.4189567E-2,-2.090299E-2,1.4798608E-2,4.276313E-2,2.776716E-2,-1.27645405E-2,-1.8492552E-2,-5.47653E-4,-0E0,3.9762355E-2,-1.9068105E-2,-5.0810274E-2,-5.2430937E-3,-2.4396008E-2,-9.674068E-3,2.0395398E-2,-3.9005462E-2,-1.5540497E-2,5.7746056E-3,-9.935499E-3,4.3791965E-2,-0E0,3.258399E-4,-2.2761675E-2,1.539957E-2,-4.842468E-4,4.909785E-3,2.6557952E-2,6.502492E-4,-3.1063378E-2,1.1631279E-2,-1.4468772E-2,1.6620202E-3,5.187407E-2,-2.9743146E-2,-3.932096E-3,-3.7851713E-3,-3.593548E-2,3.1088438E-2,8.8478535E-2,1.0115376E-2,5.7999223E-2,-1.4028043E-2,2.1446958E-2,-1.7607786E-2,8.292465E-3,-1.7657788E-2,8.961045E-3,8.796301E-3,3.662664E-2,-8.803119E-3,1.063942E-2,-6.93423E-3,-3.6234807E-2,8.796767E-3,-1.5645752E-2,3.8142256E-2,3.418087E-3,-2.2430043E-3,-2.6761757E-2,-4.8920263E-2,-2.7514715E-2,-8.507259E-3,3.3602927E-2,2.3532579E-2,-1.9536512E-2,4.2343263E-2,1.017544E-2],"split_indices":[18,18,26,23,26,17,3,23,10,10,16,26,0,14,12,3,16,14,0,7,26,12,14,0,0,6,0,26,10,17,3,15,26,24,0,3,10,10,13,15,1,26,23,0,0,4,7,20,23,14,3,18,14,0,18,29,21,0,0,20,0,1,14,5,16,18,14,24,20,18,11,15,0,0,0,0,0,16,14,0,14,21,3,15,12,17,0,17,15,19,0,9,0,2,18,0,14,14,21,12,0,3,0,0,10,0,16,0,17,18,3,0,22,24,13,13,14,16,24,0,0,18,0,6,0,0,22,0,0,0,0,0,0,0,1,26,23,15,0,21,0,10,10,12,0,0,23,23,11,0,0,1,24,0,11,7,26,24,10,0,0,14,0,26,10,0,0,15,0,0,0,0,0,22,0,22,0,2,0,21,0,0,26,7,0,10,18,24,23,26,0,0,1,0,0,10,26,0,0,10,0,0,0,0,0,0,0,0,0,0,0,0,0,0,0,0,0,0,0,0,0,0,0,0,0,0,0,0,0,0,0,0,0,0,0,0,0,0,0,0,0,0,0,0,0,0,0,0,0,0,0,0,0,0,0,0,0,0,0,0,0,0,0,0,0,0,0,0,0,0,0,0,0,0,0,0,0,0,0],"split_type":[0,0,0,0,0,0,0,0,0,0,0,0,0,0,0,0,0,0,0,0,0,0,0,0,0,0,0,0,0,0,0,0,0,0,0,0,0,0,0,0,0,0,0,0,0,0,0,0,0,0,0,0,0,0,0,0,0,0,0,0,0,0,0,0,0,0,0,0,0,0,0,0,0,0,0,0,0,0,0,0,0,0,0,0,0,0,0,0,0,0,0,0,0,0,0,0,0,0,0,0,0,0,0,0,0,0,0,0,0,0,0,0,0,0,0,0,0,0,